{"Descriptions":[{"width":28,"height":28,"channels":1,"filters":0,"kernelSize":0,"stride":0,"padding":0,"activation":0,"layers":0,"neurons":null,"fc_activations":null,"layerType":0},{"width":0,"height":0,"channels":0,"filters":6,"kernelSize":5,"stride":1,"padding":0,"activation":1,"layers":0,"neurons":null,"fc_activations":null,"layerType":1},{"width":0,"height":0,"channels":0,"filters":0,"kernelSize":2,"stride":2,"padding":0,"activation":0,"layers":0,"neurons":null,"fc_activations":null,"layerType":2},{"width":0,"height":0,"channels":0,"filters":16,"kernelSize":5,"stride":1,"padding":0,"activation":1,"layers":0,"neurons":null,"fc_activations":null,"layerType":1},{"width":0,"height":0,"channels":0,"filters":0,"kernelSize":2,"stride":2,"padding":0,"activation":0,"layers":0,"neurons":null,"fc_activations":null,"layerType":2},{"width":0,"height":0,"channels":0,"filters":0,"kernelSize":0,"stride":0,"padding":0,"activation":0,"layers":3,"neurons":[120,84,10],"fc_activations":[2,2,3],"layerType":3}],"Kernels":[[[{"rows":5,"cols":5,"data":[[-0.65559741370528823,-0.89180503411994494,-0.37546666840391263,-0.61354937363122053,-0.85668012262465487],[-0.23992773436360834,0.21707996439440969,-0.45652547370228436,-0.1694614256193383,-0.13876652255745003],[0.5252156676145473,0.24317793911780342,0.0017427704972576333,0.49165453285652677,0.14552621036847163],[0.74678132239247486,0.56104829382760746,0.27299545593732394,-0.033209354298087725,0.950184932449919],[-0.8031914213063952,0.046846954624607154,0.43265102876585304,-0.1784831162909038,-0.17389994246694393]]}],[{"rows":5,"cols":5,"data":[[-0.36006013334133052,-0.98030410817725289,0.010024025309710187,0.91290890100627131,0.37300014491568428],[-0.21638581600178622,-0.50183130939922449,-0.943428244010564,0.66341399147764968,-0.42007661308777949],[0.73104042029532845,-0.89664658793287932,-0.41505347622234351,-0.40104317433600128,-0.98718682916589884],[0.92494350965710348,-0.74967980099686848,-0.777843074868862,0.95276033464220522,0.12686317081427723],[-0.28334813183353563,0.97827268460343919,0.46971620968270406,-0.51576035543826648,0.30672269699019511]]}],[{"rows":5,"cols":5,"data":[[-0.59654753463020826,-0.40896434723217151,-0.888616281778921,0.53282553936169441,-0.23580583929675009],[0.28683713393750748,-0.348925784198671,0.761007973368268,0.51063075084191523,0.45483710496395452],[-0.26424842185919928,-0.81134905514826028,-0.40361666183715472,0.41457171508691476,-0.95545070937546828],[0.047822315131193359,0.19187058929731773,0.34105039636346157,-0.088926904060162154,0.42469798049165031],[0.64289521240226843,-0.021867454069060623,-0.31008982256753642,-0.0352921105539243,-0.94824867319647754]]}],[{"rows":5,"cols":5,"data":[[0.9498706568405757,-0.17639515353333493,0.47523226874378938,0.69358831587228553,-0.86540353302234041],[-0.32799257371070517,-0.453917860562218,-0.48716543776739274,-0.40894060889761008,0.0014926975220614215],[-0.77716358301979893,-0.5989762876813306,-0.47793955478191863,-0.10434451904050414,0.313706624239488],[0.0952748392347892,-0.65471042448756633,0.0770305062856728,0.13672727851683011,0.29746665667279526],[0.74756415577132307,0.65525871540360758,-0.18807394065202346,0.92619739382095667,-0.89006289910142444]]}],[{"rows":5,"cols":5,"data":[[0.5139348798931076,-0.384312852144655,-0.4370726314348703,0.071473562323334822,0.676604007525934],[0.3781630187804253,0.86150918184751157,0.13521938203802497,0.49740244801438038,-0.15638816173722175],[-0.55070641751042837,0.16239240858589463,-0.89492570121406945,0.42352971015001106,-0.17530566461855029],[-0.81019051933216235,0.67230506246263377,-0.96473424108827488,-0.5456672611500667,0.85860652465679932],[-0.34285614739708081,-0.31723666460915867,-0.5168670706458,0.633931274204538,-0.63480245200178931]]}],[{"rows":5,"cols":5,"data":[[0.28245731696552379,0.89945194024005426,0.55969540348072333,0.6711802743582902,-0.69451502663627185],[-0.72732574892137181,-1.0093939034577295,0.52962056098974564,0.558775556265231,-0.4052586728610526],[-0.97812875796407772,0.95877169445183863,0.4153823352439287,-0.10423492004557389,0.589598155867494],[-0.6857132663894846,0.23678018354382954,0.02278207434203891,-0.95040547137461107,-0.16868876758727705],[0.87748858326777623,-0.78212917948746685,0.65898967744702242,-0.67981912864622351,0.072333248348991713]]}]],[[{"rows":5,"cols":5,"data":[[-1.7489106042466627,-0.70493208278642094,-0.608498968092149,-1.2037601984108717,-0.057825525275468359],[-1.8127806406620606,-1.2349052834119711,-0.33468900138266228,-0.46679744754987562,-0.73594256218734755],[-0.30282084727277858,-1.9828437258962719,-1.3898251974785467,0.32785591064393782,-0.094267341263042842],[-1.3165779476288475,-0.71097648427383175,-0.55616980949599693,0.64282517887721036,0.74602081580842772],[-0.74846870652284392,-1.3542219194820213,-1.0710624893234901,-0.80233011797374187,0.11674148112582904]]},{"rows":5,"cols":5,"data":[[-0.45363102727149368,-0.2060072347951673,-0.27102855462635589,-0.62785491779012081,-0.4484869630688767],[0.3677592350986934,0.16663701308509366,-1.0158178381069094,1.1007355187212342,0.13150182642432656],[0.19147205046107063,0.2658070484284929,-0.69183049229272486,-0.45587857733730824,-1.4463038912718178],[0.47292799123306745,1.1175854445981117,0.39004763094108569,-0.11619520434104348,-0.812588428731367],[0.078030337172121322,-0.021321197942356908,0.3088065363258698,0.50311026620453725,1.5962946076751712]]},{"rows":5,"cols":5,"data":[[-0.72116205809498291,-0.28423324300697739,-0.10307285422002126,-0.715781180976772,0.56861740319922327],[0.76965069928296759,-0.70800414842726866,-0.52077360683393847,0.22941957948573341,0.43397087260242956],[0.67613985225876,0.1795892972963917,-0.3929264674268852,0.71601314389706383,-0.16996044000953797],[-0.2536193098870847,-0.55985397116264024,-0.22713158920663124,-0.056904935889690339,0.27769160077174154],[0.84308506076861045,-0.44701330392874183,-0.3645715934983802,0.38281316598500592,0.50011615141791388]]},{"rows":5,"cols":5,"data":[[-0.004897934205214732,-1.1413280654316471,-1.7508575847545198,-1.2312041718084181,-0.092521439094175345],[0.0053763221148762363,-0.90154205558360234,-1.5361438136867973,-0.925147244291536,-1.1172259546789356],[-1.6181593777748895,-1.040322530381639,-2.165548395136109,-0.61870722180281645,-0.73525326862430085],[-1.5974147722118719,-1.5177476804258645,-0.96970254165690539,-0.81538497836459789,-0.51248761640285],[-0.772042569323872,-0.38600292090678417,-0.23885771918601098,-0.18562658180871602,-0.96271558722334838]]},{"rows":5,"cols":5,"data":[[0.84643312111891367,0.54090298033479223,-2.01330137560886,-0.7716450651831771,-1.0847649974588365],[1.7500678709932018,0.46693612135345763,-0.58879455248085566,-0.80338067274134051,0.13693704352512506],[0.18500118288086037,1.5685779569463296,-0.61878409843431537,1.4436029063281644,0.80790651474333242],[0.55721385344507679,0.76748172742952692,-0.2808647758693078,1.4163308281282359,0.53261872668692178],[-0.12406009034355053,-0.27904939150106556,-1.3192737076389358,-0.85669093613534908,-0.68570447841521975]]},{"rows":5,"cols":5,"data":[[0.80602012666952549,0.97589903016769786,0.85640931832316436,-1.7822002431988182,-0.68836670062475092],[0.75433988832710852,1.4753026036874393,0.435593479439254,-2.4835475030704273,0.62830817050796073],[1.2335085391190888,1.6442779841978101,0.15512286477022125,-1.3297362291505612,-0.15964704465173571],[0.59688701493045437,0.86777865676014332,0.988242993470655,0.23139790399414317,-0.2066733629117691],[0.12678097818329559,-0.62478412822811846,0.48389956765355008,0.11662375904700058,0.17093240997649353]]}],[{"rows":5,"cols":5,"data":[[2.3550251544180063,2.46739596853637,3.4775540304301691,0.91835836478657007,-0.41795125666778282],[0.44405832581719706,0.47843119274614265,1.005811131647393,1.4991592546591939,1.356678430086844],[-0.22010330284641616,-0.10661433648831013,0.63552153573241676,4.5189318088555979,3.8331229850642372],[-0.08698595864755565,-0.70899363764521961,-1.3158956870597407,0.9197565795359558,0.39601453990600932],[-0.86847424995901656,-0.54252008219391934,-1.8958771483168417,-0.959795534674688,-0.69275973047611039]]},{"rows":5,"cols":5,"data":[[0.45749218565407984,-0.094837254995290513,0.29188989020611966,0.37946675703674615,0.45294189871935769],[-0.099102406181135819,-0.25478449334710412,-0.034108973123754341,1.906319810876135,2.102079603840302],[-0.54040680702132893,1.2494871649651891,1.241479391116612,1.076984117602924,2.0264828739456076],[-0.17132133440623035,1.314032858468396,0.36038881090905467,0.2437929610150717,0.93352502442302943],[0.72745722944751379,1.185367986406713,1.8563175637981546,-0.016570994917966618,-0.077512643222494931]]},{"rows":5,"cols":5,"data":[[-1.1105194325301835,-0.48432880649711485,1.4206625945365941,0.90738386230021473,0.330083996200732],[-0.10999896292342461,-0.57733917774520338,-0.54115997124793036,0.28779594598489766,0.79617399162004543],[-0.26451853303807432,0.296337439160099,-0.75726519324058827,-1.4222227046797253,-0.58756027566282809],[0.2308756694007319,-0.12521236663450516,0.28278010524969749,-0.53681284549358832,0.099908961483223563],[-0.61324132266041576,-0.15111669334637681,-0.19104240137099771,-0.23109576380555533,-1.8350120236062129]]},{"rows":5,"cols":5,"data":[[0.90538363448308268,0.015251694733449424,0.20134366977149198,1.2239966704570069,0.74811203375863355],[-0.28288090047780817,0.19512127227070014,-0.906666392719805,2.621339363796086,3.2079890480597752],[-0.27176864768773162,-0.36099244576329231,1.2252421107088476,1.2908837364326602,0.032400045356866553],[-0.67059559419634729,-0.60202822042792381,-0.40236319532547121,1.1450815816556643,-0.010549028268021843],[1.0919681978553919,0.35816615577290273,0.90127170338518359,0.9340358930387902,0.77601707968866274]]},{"rows":5,"cols":5,"data":[[-0.75935919389443607,0.14540957563424217,-1.8471104633557394,-1.3035566802669474,0.20337545313415034],[0.861964498265277,0.94968847192168637,-1.6115625312304249,-1.3952990599388202,-0.23724018884184303],[0.82605303176290024,2.6902739871240122,1.5416721426666924,0.57174613237524741,0.66954578796913167],[2.87886189652059,3.2843871373185167,4.9559087252231127,4.1519670175149912,3.9367863900327027],[1.8976697587352251,1.3803328167699114,1.1559246110491162,1.2189323505661818,1.8154226532985316]]},{"rows":5,"cols":5,"data":[[0.55197203441177878,0.73468007637223443,1.6809347776900485,0.66670579370760974,-0.53736735693634874],[0.33282843809451484,3.2327933190222224,1.7109460724907162,-0.66295775553618419,-0.55001162553880045],[0.53938469442778936,2.3817957973893171,2.7881603467557472,0.82642702576446025,-1.5877306058892546],[2.0918098513930796,1.9183600014885878,4.027695230803352,4.4011984633248025,2.1240510171345619],[0.51203708662001424,0.52046250343228606,2.2063609916457612,3.3092755507203648,0.68420433924426749]]}],[{"rows":5,"cols":5,"data":[[1.7560336113364714,2.2523941756444388,2.7242225783158953,2.517523249261409,2.44513071951313],[2.5015305639222603,2.3764158923233434,2.6428068893627517,1.5811155157953976,-0.07895384640066816],[-0.28876569890977816,1.6214597148985761,1.3108781786221198,1.4032990918358153,0.40909258891566169],[-0.53778209523487841,0.019990675736644852,-0.16224873304519172,1.087253234063279,-0.27207502707802939],[0.8289756802418401,0.617878896474305,0.53338382109076088,-0.062122384771159674,-0.83501732655323724]]},{"rows":5,"cols":5,"data":[[0.90759663429117132,1.0214927349590763,0.31213333020481088,0.72338055365970577,0.14070722613144063],[1.1351556812088186,0.65061107867281676,0.29011511083035146,0.74878917804285183,0.55102029431993871],[0.89755853228333315,-0.643373136838595,-0.063636247836971555,0.053824413493445342,0.53266397336668481],[1.4204236284174145,0.068130985997487528,-0.69813284720777591,0.81858893125693111,-0.75379615261202926],[0.93362977773241251,0.13439681685538535,0.73010299465197115,-0.33781432066236816,0.27895842694765349]]},{"rows":5,"cols":5,"data":[[-0.80255049609581908,0.50064993094779286,-0.58460956391204,-0.58250879599489469,1.0774221674738798],[-0.72830280097328193,-0.38909680652358242,0.30176274435029377,0.6327566060944243,-0.83004229298894439],[-0.31273946497514421,-0.033625156591324715,-0.48189429371316417,-0.60474369828212837,-0.611710183016789],[0.045078341599039368,0.17160050493073414,-0.81953282489704582,-0.78383328032673616,0.44171875401206867],[-0.808852545878201,-0.79070306664929035,0.846160352785401,-0.853006052115103,-0.34844211392800073]]},{"rows":5,"cols":5,"data":[[0.5533368976804206,1.1398276581411717,1.5301001255291054,0.61388639139830792,0.096809108314099626],[0.052434636649046996,1.3979916354007682,1.6733262371279603,1.6337355738747219,0.20771040244326613],[-0.062199320774477616,0.45302177449423831,0.087343637300772811,1.4821375152404483,1.3719907501350366],[0.7972102934601214,1.1848834951145353,1.6304935553791407,0.59665418278048254,0.54919327615056479],[0.20050597330208,-0.50943398494704606,1.0512166161633596,0.5208147877314423,0.37440362036887725]]},{"rows":5,"cols":5,"data":[[-0.492424016419965,-0.44556335694601817,0.24500782029760346,0.32669596732861794,0.45724054835124822],[1.4727689469338423,0.85688816903260212,1.3616872749925919,1.0883608447713162,0.95156239778070228],[1.0034613889536501,1.3400540489406594,0.84759144815392173,1.085949900264596,1.7464829083949369],[0.25769320799080692,0.62410000110056418,0.471649921521748,1.2418493057890725,1.1843377641225743],[0.41901434703264018,-0.71494174155273038,-0.63800619022577987,-0.26835677524511742,-0.91579327290665513]]},{"rows":5,"cols":5,"data":[[-0.56751079295423745,-0.29644134954895995,0.026213123466588984,0.26652629227483859,0.66429193108322149],[-0.20285389439456342,0.83726144300848726,1.1174105078925261,0.91782177027091438,1.3918653164829211],[1.8019864557333882,0.5598728103503402,0.28273439332362293,0.35855018038481457,-0.13267646142159933],[0.99411897135641936,1.2255751744011996,1.1583779720247032,0.15764423838151284,-0.48641217133240822],[-0.61212485142914186,-0.23754962788693437,-0.32829002340676827,-0.35870010798888607,-1.4205219238241811]]}],[{"rows":5,"cols":5,"data":[[-1.2108851110023302,0.16450287203482594,-1.4217260804832697,0.48596439033022371,0.41228774844006677],[-1.0320045276198346,-0.84263735471580414,-0.72312381778359691,0.065983152609350434,-0.35777091767810443],[0.52483816474341827,0.037955562267826835,0.48813214777382491,1.6813271884532985,0.369579261691898],[1.2777804063191764,1.1697684944966456,1.5851435387392776,1.5699192087669369,1.9756167184779361],[-0.967234821428234,-0.77858772665049036,1.1512348325891293,0.261088438430814,-0.47640555151663572]]},{"rows":5,"cols":5,"data":[[-1.0192768269111789,-0.21587306280973617,0.26123911177188053,-0.78497649447711526,0.62636447006542639],[0.49093965948355428,1.0292537814259068,1.1347455726678033,0.28717813460253533,1.12234632896208],[-0.034294256601231171,0.63487307689867423,-0.25073967613591835,1.1189651655172808,1.3617562228968492],[0.45675148782076058,-0.5099053453961665,0.90320541515955322,1.3012445287427377,0.61453267314937288],[-0.18824015867332039,-0.26789224866197997,1.1246616401052421,-0.024700206542640057,-0.045295914797255227]]},{"rows":5,"cols":5,"data":[[0.43400483514562405,-0.45553439229937487,1.1201274015165619,0.51979926295704959,-0.87718239683363586],[1.1044752567820044,0.75807751672508916,0.048650210800707541,0.3371127306750053,0.57647402990310448],[0.39835673222951146,-0.044708317208197249,-0.87451646819781237,0.37587273551676403,0.51989585832114971],[0.52595071295854168,-0.62743860485940373,0.85039137046321167,0.85366294891163141,0.53213063399151206],[-0.80029348232505038,-0.11144244799030854,0.78722311312528381,0.24441045087194588,-0.83821630140399039]]},{"rows":5,"cols":5,"data":[[0.94733806502160667,-0.65879557571578973,0.69961435091002289,0.65173314754380662,0.45730136914373976],[0.35389894340134614,-0.026835970096993542,0.017165320419133222,0.75359456180595041,-0.15426958858449333],[0.2781790571454329,1.1553808475989527,-0.21600555125523921,0.49015234241155126,1.7544808615193646],[0.18461719829312759,-0.68703709305609562,0.01678982375026675,1.0853397561616796,-0.40801036563790194],[-0.679358952779965,-1.0323405556209095,-0.89410766977711154,-0.12860619111003047,0.913541474623372]]},{"rows":5,"cols":5,"data":[[-0.54728591335420251,0.20628147344736589,-0.48125646717184156,0.91030609891971026,0.13644637801145512],[-0.98142432303262217,-0.62888816578722784,-0.050771165598890625,0.43098042065072106,-0.72408363548150456],[0.0435557358703979,0.64123728559260273,0.25194223170254093,0.72877995135591123,-0.7585778424951739],[-0.6522835373417909,-0.5573314091735081,-0.19471225989088978,0.18879799715428045,-0.60917026223457194],[1.5434104299326854,-0.35084010647757669,0.26934472596884279,-0.22223050696757987,1.7159649437390077]]},{"rows":5,"cols":5,"data":[[-0.79876144623624079,-0.50252819004142957,1.2202693630311678,-0.008346124512950406,1.0250419707193108],[1.0825273657334857,-0.5974468222475664,0.11808892479673576,-0.79242586723523134,-0.13187677280804891],[-0.64826332569942591,-0.5485187124819797,0.12942600058695028,-0.91597414442963343,-1.357389278768109],[-0.25705531584960889,-0.19249365108353228,0.20821741252441775,-0.39490130149088809,-0.69800071954327547],[0.92796174011108845,0.25837505403802269,0.44956611178686734,1.1809885774422309,1.771887123378759]]}],[{"rows":5,"cols":5,"data":[[-0.80835856602395273,0.40487399403245217,0.31313863217259175,-0.30652556143209464,0.94498936999856276],[-0.27408804685177046,-0.56033080837725768,-0.8581979648023198,0.44471493993328526,-0.26141121956055441],[-0.58789685465321462,-0.31906308861883825,-0.70304069156264615,0.80818325312501837,-0.53098286675765882],[0.35335934029951316,-0.1517053180897274,0.45564792924195219,0.046786599124828118,0.97221331290108837],[0.76659700677842046,0.064326844237304615,-0.92051213245381391,-0.18049697312729374,0.27736878007579779]]},{"rows":5,"cols":5,"data":[[0.018090067841450223,0.0524917753174729,-0.83953418294841609,0.78617338085585775,-0.39911619741312143],[0.23843292584161119,0.20367999333716522,-0.52482172941741,-0.0765172583636788,0.79175443407030022],[-0.40362687994135582,0.15216541638712494,-0.348132932693112,-0.777768016648322,-0.70128368062901414],[1.1136598078610136,-0.16141358116629057,-0.93912699097787689,-0.96556390507731382,0.75506901134394566],[-0.69910485556153479,-0.14346551414160635,0.39477390930960188,-0.48027996738883855,0.12073977369864117]]},{"rows":5,"cols":5,"data":[[-0.11822823946466271,0.59057682465059891,1.1595603298697064,0.61297226234909175,-0.60939143076679847],[0.13039900269212285,0.50210062321340243,-0.41120183530831589,0.3320046922858097,-0.0073557117287382746],[0.7569194731211627,-0.64404641302635335,-0.62752182834581416,-0.084587988394790189,0.5857222795036473],[0.35822679547309982,-0.74296444111986926,0.4649838366075229,1.0425521376162623,0.85549359667449654],[-0.72512168956148448,-0.75500216778438245,0.26483285034236953,-0.17762225016752303,-0.8900248891283562]]},{"rows":5,"cols":5,"data":[[-0.076634598203538726,0.0634639264443613,-0.9124146457659591,0.11239939090560218,0.2733011796559065],[-0.81201988852367657,0.58085177890477191,0.6313462419264122,-0.27829615981940187,0.8920211770010642],[0.84473755120753113,0.155017334231154,-0.083292496531111884,-0.46131403030323676,-0.38987717716866127],[0.15407586926669942,-0.44006278118096487,0.32739254632200582,0.29945867903181256,-0.3461275096445261],[0.77463239052248978,-0.42729799007006158,0.29266090857288818,-0.4231103902027481,-0.35955350986817769]]},{"rows":5,"cols":5,"data":[[-0.86743021628588735,0.52788134066811487,0.47308337804083822,-0.2307946402603854,0.22523021851891795],[-0.25424301565473856,-0.76075295893352657,0.25113969965855787,0.51606569324764506,0.50375342534325307],[-0.89502086617386778,0.3095341672768408,0.42317886691656326,-0.96374559628104828,-0.2282907544875242],[-0.95243300278306986,-0.41554757179411433,0.60366774760542286,0.10165328868719935,0.81469728422553989],[-0.98566433502030326,0.16099091077357375,-0.24118517455414668,0.4206842244566466,-0.3169846944270962]]},{"rows":5,"cols":5,"data":[[0.512913819889551,-0.16398251202957856,0.97624530289306022,-0.86681823158775362,-0.60175441826876508],[-0.807223572952704,0.82247011199320008,0.39984489011705521,-0.62459027264974742,0.21200959460619057],[-0.27549805569597496,-0.80669762885025531,-0.090419548004382441,0.43162015165167233,0.091260359455330814],[0.54811988280718615,0.85036275238651471,0.45240478622735031,0.00068684160982952747,-0.449082157925325],[0.880335371769064,0.016010489715338919,0.249693618238505,-0.50913031176463841,-0.32304325518994403]]}],[{"rows":5,"cols":5,"data":[[0.50105997484558518,-0.6085048318823354,-1.5016417901267727,-0.86140881184718876,-1.2925360040680449],[1.0035327000856971,-0.57296572090819242,-2.4818779797639379,-2.0275526012819709,0.56579244307249987],[0.79470674471499148,-0.53886291438967759,-1.0346102146564267,-0.65954544342988541,-0.059603670499413723],[-1.85244370790739,1.3184902133826078,1.5250744182603129,0.63191735852326059,-0.71897942530436876],[0.87474354633547347,1.5436590136517392,0.0088702748644163918,1.3773946500273804,-0.97845695705888269]]},{"rows":5,"cols":5,"data":[[0.15128665866690574,1.3761225337545062,0.62851155236605194,0.078284637448858815,0.0931108093530365],[0.28733028711257375,1.5504693622628256,0.37465891732759221,0.70966493213833926,0.74140651148095393],[0.28805800261807191,2.2451449387167415,1.3501513319855161,1.8507017541206936,0.12005512641289319],[-0.8027474868094735,-0.29610836674502605,1.5990931620785618,-0.18299468165469079,0.14547723080611319],[0.99162145539540247,-0.0663719146063479,-0.38761929799678607,0.77969274567281355,-1.2670579870468246]]},{"rows":5,"cols":5,"data":[[1.2554513823833668,1.7882992443002048,0.02160787482057135,-0.22561761242520909,-0.22328862709645497],[0.73018366092586906,0.55747271631141282,-0.086739332290818524,-0.46317504906767376,-0.64568749529335523],[-0.43411534840706112,-0.0867869040447197,0.64982528034676623,0.45725525561470787,0.64191598492721],[-1.1011280625769253,-0.24096856639152678,1.46722823164422,0.34353123559286175,1.8110761945047682],[-0.61949239851133853,0.093758373019742491,1.0916500263083948,0.24326941521615109,1.0014532895484105]]},{"rows":5,"cols":5,"data":[[1.673835694833089,0.17920538378455922,-1.1825993537904773,-0.29020026148124056,0.33663385671977619],[0.67008056369700253,0.88971221076413221,0.41256461652484455,-1.0098424968895114,-0.20865733296330541],[-1.1338820039599988,0.13014926380565117,0.8206600277733368,0.4878631576166142,1.436426386886686],[-0.72285510460471358,0.15476450826697247,0.4035940990839087,1.5055646598868573,0.23054293560032269],[0.73207316549598789,1.473876104654037,1.4025882548034645,0.1760637297880277,-0.23513671324184821]]},{"rows":5,"cols":5,"data":[[-1.6407115764400222,-0.30563487464437561,-1.0489823799253977,-0.72270559294977066,0.30739530721161157],[-0.86316936507569286,-0.35369290875018944,1.2063916473791037,0.15129661388806331,0.17045056753219975],[-0.812184918830012,-0.94428503030821176,0.027850873407026869,0.040092765024195239,-0.72098640743150866],[0.29849331079189989,-0.66480859176160068,-1.6910086773473632,-2.1238683120337107,-1.3334620368958325],[0.060329140804987941,-0.9016722463940372,-0.11654200271072673,-0.42308410531751511,-0.14726242060957342]]},{"rows":5,"cols":5,"data":[[-0.30303651507000356,0.27750729826399922,1.1094691140976414,0.697246312746942,0.13791956827900226],[-0.82631224098324962,0.42601723231366306,1.7796283646205804,1.7833208915055354,0.158708189525175],[-0.098110492473528016,-0.10753438049029399,1.4939564714295748,1.4876756853234465,0.50834536346277526],[1.8353688112003492,-0.41736736689971854,-1.450056138705031,1.7600702193213522,0.76667037634990765],[1.9214206805134,1.6466793308829313,0.90024912351902586,0.7886730660670076,1.5170270894134885]]}],[{"rows":5,"cols":5,"data":[[-0.57213916690020172,-1.375781493478476,0.059794197331212683,0.19628108577087775,0.918547984542022],[0.36214029564588818,0.68714538142420034,1.4145662524739155,-0.48880645198731837,-2.7689146304125862],[1.5876547040848377,1.5085828301877315,0.089222522742359228,-1.3134524860054644,-2.4497593936749094],[1.4765301391723511,0.57246472203686694,-1.0192753844396889,-1.4357242683675386,0.62009932595284289],[-0.036319985496610911,0.020948755808557727,-0.44876956211439661,-0.86315409852089453,0.73584229414865021]]},{"rows":5,"cols":5,"data":[[-0.043019232497612019,-0.93362547028506171,-0.083048409344539151,-0.11267271217921294,-0.082115491578564279],[0.78430359724140652,-0.6370126472256924,-0.42157720864559728,-1.3548832646460594,-2.1335211117990829],[-0.90420947022712483,-0.51716961654477167,-1.3723252217394288,-2.0957164461737681,-1.7622485293681509],[-0.38366469634043887,-0.35239552180745193,-0.8711658947499098,-0.22152890926525537,-1.0713439020968982],[-0.54452657568545049,-0.4791632301643004,-0.63414481957946545,0.70919423948848515,0.99912474772260185]]},{"rows":5,"cols":5,"data":[[-0.060476681773390197,-0.80483046305214567,-1.617868879838108,-0.014808853227662889,2.1414524945081879],[0.269904866568829,-0.35123940183082913,0.12580175107531627,2.1828884119477361,1.1179105461902323],[0.41144295330306163,-1.1137081775782549,0.056822268617426841,-0.50706274581209942,-0.70976030549490021],[0.62556761550397444,0.21022544634811222,1.0474191528984906,0.61873607312216561,-0.84994383016304],[-0.18325412095997481,0.74720252844118329,0.51149977176427952,0.17706843210729972,-0.20681343134954966]]},{"rows":5,"cols":5,"data":[[0.03342326396705772,-0.72282043881103941,-1.0241721056914015,1.3522486498989264,0.41287572473504031],[0.37795796135888038,0.837699420846485,2.2839376848940782,-0.63090043578843147,-1.6788701189847999],[0.40302741571278078,1.4474635962285518,-0.10950166465062185,-1.3170489701231603,0.01028047514972753],[0.20149083058163492,0.18849581373373503,-1.5940055700125468,-0.27389583272487644,1.8042441184329747],[-0.23088735944928857,-0.35923096885856981,-1.5486200227929035,-0.90515702867120662,0.030070439714425835]]},{"rows":5,"cols":5,"data":[[-0.15441538076883002,-0.27212401227387795,0.21395237074368267,-0.18154814803517183,-1.9921278820071113],[0.040216123543749462,-0.21204336728607029,0.3368387552771247,-1.4919634032663376,-1.4141074086707335],[-0.97098879243051972,-0.0893699282027231,0.9844346549521743,0.39958773417796734,-1.0223010525182676],[0.78657410476716183,0.40942602940542633,0.80369962235934223,1.3320170450419164,-0.024105931874056231],[-0.47811103306751879,0.7797506319627705,0.255380844659973,1.5546466099532277,1.5940390137774196]]},{"rows":5,"cols":5,"data":[[-0.0732800667503522,-0.026012191388850619,-0.78907978758903341,1.0997539459547914,3.2288981193038393],[0.66668359768312491,-1.918228649625684,-1.4694912366136754,2.9234861229237006,3.5839953230083106],[-0.76140928287635379,-1.6893144772662125,-0.41090146883625017,2.2462720424708209,1.3658304950144971],[-1.5688718013375929,-1.2143219218018098,0.52801002080791981,2.4975060135987972,1.2143934387160211],[-1.728505959738496,0.63407043550138276,1.0581027264931913,2.6185663614274173,2.7390249031941272]]}],[{"rows":5,"cols":5,"data":[[-0.026129618349057755,-0.10168304961314544,0.55212263124292149,1.4061768769713237,-0.74550277107945806],[-0.053348677194096222,-0.85689511084756254,0.69673594078230527,-0.37233432022319773,0.97403727931605344],[-0.79866693067349637,-0.80261343081630976,-0.18271394537407598,-0.27492750718047015,0.66328121316443212],[0.87966707398390154,-0.50215187549730944,-1.327822367280155,-1.1939406184428387,-0.78298281326511943],[-0.31852187381780689,1.12408135934051,0.4137519388407141,-1.141625778209642,-1.1707334973969661]]},{"rows":5,"cols":5,"data":[[0.44377285864851512,-0.49481094867115644,-0.6783723967681804,0.9919892023771969,0.090464216861819949],[0.096747968442405324,-0.64662608953706369,1.0709811355349264,0.60126830089246608,0.65945983313340406],[0.5788675323003617,0.79072766875972389,-0.024725272042371321,0.51259029958003011,0.29046163552242654],[-0.023798066494932123,0.50415999293736646,0.25114561948503666,0.56365505297251617,-0.21007789510994365],[0.529996399036077,-0.2655579913714512,1.0990889628967224,-0.78091205273112052,-0.43398268084622055]]},{"rows":5,"cols":5,"data":[[0.57701529032363508,0.6870507713691274,-0.73474098245141606,0.36813932324822879,0.22941580137672449],[-0.21475931067976628,0.54643101592858356,-0.15159495728265526,0.28149088990564025,-0.58384752425835751],[-0.18863749754695555,-0.62213872340138565,-0.87674067494473062,0.34406598186653842,-0.31838195982658729],[-0.28978194003944446,-0.29127390111905804,0.75531170347400511,0.90802309289693106,-0.65217028463267745],[-0.46039579682539905,-0.48290365993990814,0.80268722603861353,1.2791237932583319,0.62582518905380757]]},{"rows":5,"cols":5,"data":[[-0.28017487201026481,0.017256821679884515,0.53160825852623828,0.25185896439818772,-0.79995639117914186],[-0.22779800986243137,-0.17594513113907218,-1.2393790480826308,-0.14250165735163461,-0.2885017567303223],[0.18242814925182604,-0.037462098040472583,-1.0274259728068818,-1.1132461542346197,-1.1781878645377963],[-1.0368686910948266,-0.90181149199412358,-0.78766390195903679,-0.12276044941306133,-1.4466847811134669],[-0.73724566023582128,0.27334257506995896,-0.36054001552208614,-0.89176190569536384,-1.4108332769481446]]},{"rows":5,"cols":5,"data":[[0.69533896722404875,1.0854752296468768,1.0650866070687339,0.88815732107591094,-1.0085490207747316],[0.70390790395854974,0.98804857827024473,1.210776446888034,-0.79842464284256331,-0.80101491420147863],[0.56151065293994751,0.52719152901296717,1.8181754849785139,0.22601024466438552,-0.27323932327902145],[0.1641520444156627,-1.1426201816111088,0.73487457232108178,-0.92731702331135279,-0.74083954999773538],[-0.84162901552390024,-0.69038503035490262,0.61496431298632759,0.74287256157230075,-0.47920424876975387]]},{"rows":5,"cols":5,"data":[[-0.479454327381464,0.83311362276562417,0.69213403627372172,0.37769514347049971,-0.43613485025963111],[0.773712577658388,0.22879106096895352,0.69217548614233992,0.59639698770584659,-0.089312194122623978],[0.40675472954646968,0.17169283848271275,-0.89117801567400812,1.2123523029280372,0.31452035688201874],[-0.84977524114453606,-1.0620149524053077,-0.98795882870123408,2.3097884197993328,-0.56151644379914611],[-0.76332331529445785,-1.4374355316650902,0.9815155835952043,3.2046345551933029,-0.080136680891790213]]}],[{"rows":5,"cols":5,"data":[[-1.1896414680410909,-0.6005957858619474,-0.58703974430642292,0.9733143214508726,1.2506414397003125],[0.70504980618827284,3.4347392574757709,4.4953467715614,3.6560129018498975,1.33354050038308],[1.240094238628638,0.97778794094480126,0.65538359743152064,0.088991212622804947,0.23848297295934326],[-0.32669753001686125,-1.3050723150282901,-0.39392228119747219,-0.54977318639980255,-0.67181004620945761],[-0.13743394288154445,2.2123909347280333,0.48116963805701463,0.33865575578197904,-0.34854834581653621]]},{"rows":5,"cols":5,"data":[[0.8743467733758199,0.531138259262476,2.4549657959742839,1.6215742438102303,1.650122382413846],[1.1754302104769705,-0.33532079882798738,1.0672623393971681,1.2160764380297957,1.2885655553330646],[0.789050686853185,-1.0590178614245007,0.37767723384196761,0.98255415900379506,0.73570370429255927],[1.4302301807725579,1.1197391703264585,0.065763976637783841,0.15881016677702733,-0.54182878082843322],[-0.2390756442747381,1.3116625866233727,0.66293549925343531,-0.26211779461598061,-0.087943668729144026]]},{"rows":5,"cols":5,"data":[[-0.83389958612476678,0.92078204459073743,0.46178512884347955,1.0663343300654808,-0.35469379204324875],[-0.75180423573447042,0.55818887427331521,0.14049744680498957,-0.29883505719768355,0.69865404437473544],[1.9024177197855332,0.92834742764503519,-1.100136355730291,0.075892738694482945,-0.59063520169006078],[0.48452489745163779,-1.0388945163794818,-1.2042939747310346,0.47835518998136378,0.3158809792692997],[-0.38790158517789447,-0.62414352232609882,0.45954505854086475,0.83597016763495569,-0.685810793682077]]},{"rows":5,"cols":5,"data":[[-0.79757806986158375,0.5335108458549791,2.3897567742964494,1.5115195988986661,0.54246682156021442],[0.46657987188746591,0.69640469007507333,0.21832899487226978,1.057899810732722,0.74244948846775527],[0.81528225235521679,-0.36255223019019944,0.92044446327778406,0.19638928476621786,0.55092204334511574],[-0.75426929116395058,0.48835666901582969,1.3203202051690932,0.24008534276508642,0.075582235659892236],[1.5093689809532214,1.365838487654057,1.0599354769351022,-0.779649924765872,-0.58575496195048171]]},{"rows":5,"cols":5,"data":[[-1.020102055993406,-0.14125013624690622,-1.2881233529597853,0.23934569929084332,-0.92995037951456272],[1.0450778189160936,-0.23585383937778814,0.70436026385674189,0.68300424461884313,1.0655691447805855],[0.6898665972240533,2.1010136998875373,1.7521570044650359,0.77932530693339108,1.38889286849596],[0.33284278589357441,0.35369218284976395,0.41424453279251211,-0.29441584077940092,0.30423598420187525],[-1.1295801533266989,-1.3237265192481149,-0.16802678334140078,-0.97379748968064728,0.39090103383917096]]},{"rows":5,"cols":5,"data":[[-1.0417726467569475,0.044508965072273671,-0.23872136520315804,-0.34441859271741376,-1.0024500061636505],[0.54977937339836191,1.2458673678892209,0.15372979138113629,-0.02787957066446781,-1.3203552139760191],[0.77064701840404448,0.79907370084211771,1.179050533903024,0.70253913176981586,0.84473801516298574],[-0.29234852266029027,0.71867373097640508,0.04810969498926377,1.0966778794826808,-0.31936714360118745],[-1.4546847365119109,-2.4628368635225617,-0.57085181750481973,-0.21543067307580965,0.55665588187242176]]}],[{"rows":5,"cols":5,"data":[[1.1242220941561052,1.9230514377755208,3.1970166376792046,3.5640576506493042,2.4288753308084985],[2.5372879827207822,2.4423921433327016,0.11846673881173235,0.31662208475897941,2.3327211426035293],[0.33675583254219404,0.74419003199674361,-0.74338085896774264,-0.43236764496550745,-0.36711449257704959],[-1.0656462566100675,-1.9973919516414003,-1.1224643617970866,0.39357573526358308,-1.1506531412184189],[-1.54899336692626,-0.35565981730455726,-0.66498351511708909,-1.2556419860403156,-1.654949345262883]]},{"rows":5,"cols":5,"data":[[-0.44136739617279697,1.2724084425063393,0.044235675376566516,1.8541193144515025,1.0405718893369893],[0.018210145366225249,-0.84452258983735251,-1.3412372521746705,-0.51879798697031854,0.86627988107238685],[-0.61701519789567127,-0.86284811552433649,-1.2501288819197725,0.25878916900561322,-0.24104761571401046],[-0.4313768739311839,-0.71622745528147225,0.01148350148505769,-0.86768556286400755,0.47529073409205774],[0.39587387773700744,-0.028380172186372964,0.1378969137448188,-0.90184017147251339,-0.56190322786776536]]},{"rows":5,"cols":5,"data":[[-0.90263502723557143,0.41591213486159379,0.80299644529909575,-0.1712592058930438,0.77021106890569446],[1.579105690828623,1.6496673512734155,0.36546225430057078,-0.18859098176115216,0.44114981883875215],[0.055104313741550448,0.83800954060881239,-0.85609108922309729,-0.23341025922204878,0.021072589878057088],[0.85193619596371384,-0.0885857745499867,-0.96814349937148692,0.87911694053169442,1.1173330170660758],[-0.72068953273775282,0.38685279607484424,0.29130668154286476,0.47717527306666119,0.67316713852605237]]},{"rows":5,"cols":5,"data":[[1.274940899102972,1.8429275686205597,0.977478787051866,1.249908812953183,1.5027090050665763],[0.80614864160112876,-0.0318544986448203,-0.72562189907195929,0.61691906565844523,0.36536639982592162],[-0.39676321632634393,-0.59924631519301885,-0.76320661471948592,1.6701215662529458,1.5371543382066792],[-0.76868796806419815,1.4951551298430963,1.3196782522840644,1.4956531138343072,0.28850831707168678],[1.3174237050561315,0.50374008995846464,-0.42734669032296879,-0.33592697908140917,-0.059039817799627824]]},{"rows":5,"cols":5,"data":[[0.79683776162520559,-0.83874835014222882,0.42742793438254367,-0.94889126281913228,-0.92053550340497625],[-0.53002152547855119,-0.56377858755629329,1.7261059025543495,1.3063068132294919,1.6537228483365924],[-0.773088229800894,1.6078395081080896,2.6102521304552453,3.7814842600612733,2.2316704509436507],[2.5783441359303083,2.2075558998151092,1.3184527882803565,0.83146810504732172,-0.050212918696400495],[0.41609423716822919,0.49650364368638433,-0.18132402432416495,-0.54085878945421628,-0.031458430078344181]]},{"rows":5,"cols":5,"data":[[-0.35240516960881868,-0.0061137375784366642,1.8566504081075039,0.70012432058567242,-0.7839364331613311],[0.81682751018475819,1.603407583638385,2.6290996497667516,1.9896861036810238,1.3174752168131205],[0.26849764794988934,0.17659382879277691,1.9350872987010619,1.3384686350569395,2.8735518566768095],[1.3280403861828227,0.55337167158988565,1.0077408717103711,1.6848717088311411,2.1713438145719932],[1.3343077969187065,-0.96250993873302593,0.1633114661160377,0.6040551448500695,0.11842791825897331]]}],[{"rows":5,"cols":5,"data":[[-0.925553076367736,0.11136190458165655,-0.0060360759880861677,-0.39871334567749994,0.15026195415596069],[-1.6461108935758448,-0.63816798050170886,-0.34633500329596278,0.531691677375266,0.68714173087968133],[-1.6065012610892333,-1.1424908342372713,-0.76190107467733337,-0.83662532419646141,-1.1999977032372913],[0.046346391095601118,1.3240140661131845,1.8236103662253373,-0.29528274409827737,0.35318790364493979],[1.1848296764009791,1.5632523459151204,0.7899652751623083,1.4294959154196039,1.5730438710915167]]},{"rows":5,"cols":5,"data":[[0.29005913232058111,1.370340088066339,0.22520711925820111,-0.12618803097668344,0.017671816424675683],[-0.93745501637428885,0.28836511193342124,0.89870491627699745,-0.93965257001853686,0.90363898062952508],[-1.1298682765400785,-0.31897438212827761,0.66549029515240388,0.47038964441409142,0.80206216547608666],[-0.21430787679114829,0.26461441060297564,1.8882455519456187,2.1603182444088005,1.7566777692846674],[-0.28454131959903045,-0.65005539937225509,0.079069372876995545,1.1351901079982931,0.65304071508341333]]},{"rows":5,"cols":5,"data":[[-0.79485925378934474,-0.15441777289285061,0.45677150578477682,-0.70624572316547207,0.13955617280118635],[-0.58686106431458751,0.0097199388200615109,-0.45225639617141139,0.54196110350119731,0.49767592605111483],[-1.1327714713522452,0.57823324985466062,1.0987737672998419,-0.16257273804229716,-0.0088242702359391228],[-0.14558051173841802,-0.93361605654391089,-0.4171226438469014,-0.1426775979754441,-0.84478580088493349],[-0.64384658176748022,-0.46217346928512848,-0.32788878954905,-0.41000576385288273,-0.44582459120981138]]},{"rows":5,"cols":5,"data":[[-1.010956997526304,0.47640675314140507,-0.981411954050847,-0.028821241661174939,-0.54149900920459493],[-0.79411472957774731,-0.54907373152193906,-0.0097323536765540741,-0.66590088874247222,-0.69120052455132253],[-0.0161150991045248,0.565820075307712,0.24193267205645436,-0.50484648874814675,-0.47899706493472127],[0.17331771865227394,0.7313233198498299,0.053401233575002226,0.52611412961518311,0.93068759802629475],[0.4464003458435169,0.037498364068190848,0.23195526797763796,-0.51480167993338688,-0.3584958148290574]]},{"rows":5,"cols":5,"data":[[-0.82265329828346379,0.41103012594121358,-0.88899328599847116,0.45791836919117074,-0.40897245637157731],[0.14626133937621377,0.63806481570599238,-0.33890686676106613,0.8851675644924063,0.34580210261045624],[-1.0917121120228763,-0.95441144265874644,0.15735412002741331,0.92521778113057318,0.52906259092747177],[-0.4615746143460947,-1.3132240917566871,-0.15020082174172006,0.94446188198087189,0.97990593650736413],[0.28434930074464315,-1.0762168951518976,0.36898467852795674,0.00952617011063107,-0.168835804878366]]},{"rows":5,"cols":5,"data":[[-0.0809043315308329,-0.39253118051952063,0.32292064854261932,-0.066596827011454238,0.44509789348024609],[0.26156641159692412,-1.2892664221801746,-1.3983334370195464,-0.82545307274409963,0.161480201295724],[0.31785804119249994,-0.98516930487962107,-1.1836402975525941,-0.18665529267032588,-0.26249884597543327],[0.42317898121431918,-0.9469846311502067,-0.32498369344109129,-1.6076172878875561,-0.37522937191527145],[-0.85282223892391984,-1.145892244979025,-0.2904642337472052,-1.2145703996478316,-1.6908014996895275]]}],[{"rows":5,"cols":5,"data":[[-0.24679741050741322,-1.053372022338426,0.393648075914969,-0.31208234651898364,-0.006359195953683611],[-0.90564808299858413,-0.9609586540842816,-0.097795308701113234,-0.79520527824086618,0.26516017256283064],[-0.54547186394878089,-0.76852166003720546,0.65443336685285236,-0.68957617601033872,0.884552950560468],[-0.82225340799099755,-0.65434508716595174,0.087432077214550347,0.94268521427914,0.47138369189670026],[1.4404447264847886,1.2952625349527382,-0.27207856746375764,-0.11804248335142618,0.97634777164348974]]},{"rows":5,"cols":5,"data":[[-0.66582163709859532,-0.454972214470372,0.62675575746090084,-0.34392395936556724,-0.26803452063207828],[-0.28583237442425435,0.32612602767517512,-0.11681957219072023,-0.35398209385793367,-0.087733287484332192],[-0.021202171895714463,0.137993927346729,0.52281136432906061,0.470078159707544,0.78591677860829168],[0.50138569297811009,-0.77390512267418132,-0.62725746697040685,0.46019860427455328,-0.3698649742388268],[0.78322923256329913,0.61056979399195133,0.98100928909703822,-0.74427788129209027,-0.11055703904754649]]},{"rows":5,"cols":5,"data":[[-0.38922590725477446,0.42348545175659813,-0.82806772015076557,0.562358275273504,-0.36492361704758425],[-0.11137213014752452,0.56090423721019678,-0.31763982852871153,0.047343346917965844,-0.059228625834375083],[0.57459852036315262,-0.55993988265318906,-0.52013006958174668,0.36251553612387977,-0.35244565864994576],[0.25269963924213928,0.36524917591064643,0.14888444221370914,0.43194656630945805,0.015056064724840969],[-0.011169604990558964,-0.32918972116839618,0.43281772158203774,-0.857298511225424,1.0033496908915989]]},{"rows":5,"cols":5,"data":[[0.7984114369602211,0.47720484000546476,-0.047290276000795321,-0.6626072654833407,-0.69415681833265874],[-0.27944160674393886,-0.22757579792356436,0.44998460992957245,0.53402210433544617,-0.80682287663070384],[0.27396851071564626,0.12678040647331645,0.42446326555662744,-0.96092312057506624,-0.98934541739519255],[0.71039816693303193,-0.38272914255991641,-0.42146685954951724,-0.35935042544013829,-1.0135984057272582],[-0.025307299614326508,0.79494058202624551,-0.070718378518645875,-0.059835616670599584,0.34365884677591024]]},{"rows":5,"cols":5,"data":[[-0.67638603585654244,-0.34296844392505882,-0.41654175798030846,0.42294523555559654,1.258395833357036],[0.91074860994768236,-0.87958899214826514,-0.80702440189225222,0.58832781975199666,-0.16610070281702119],[0.16000040394143619,-0.594217569820234,-0.7360583395568695,-0.31694939520636251,-0.96796586248598282],[-0.2459750738995389,-0.051126043695062455,-0.23987008291146436,0.0811578255601683,0.17534318527628204],[-0.91156304756622619,0.76945541967415954,-0.090309110702382608,0.34783348781398721,0.49680260700163886]]},{"rows":5,"cols":5,"data":[[-0.5378508020570445,-0.94900943959505213,-0.68917565563225547,1.0671033738952043,0.38939457465476879],[-0.96917661802214328,-0.42372565529213524,0.770739513834442,-0.17597626801436525,0.99745735848637507],[-0.915050654533816,-0.965312433183717,-0.972009871473876,0.486219091034205,-0.79488356779715408],[-0.02218442705538997,-0.19312676782633995,0.83449436085870232,0.24492853705954631,-0.32448255326266856],[-0.1030393234638373,-0.93256213404246646,0.63976268520513435,-0.21107636789840528,0.1815175057846532]]}],[{"rows":5,"cols":5,"data":[[1.1794519273467823,0.097992201482944,0.861992935613852,0.66881112038532931,0.29514506220466258],[-0.38367008600699537,0.80491836952942764,0.21117086296702733,0.66656704354756868,0.47454453386113643],[0.71857067348227277,0.52220118284987094,-0.87942600246678848,-0.48158052603831736,-0.23345137231164478],[-0.49542957617088523,-0.57847922764991044,0.34590386941439377,-0.039604728646005852,1.0015703793068727],[-0.50617424328145977,-0.3014212506598134,0.1275732539582369,-0.16354841265154232,-0.85042372988876913]]},{"rows":5,"cols":5,"data":[[0.10113409711979807,1.0073630548055288,0.61372132010195468,-0.61741265736959472,-0.53757088182312629],[-0.67460252089222661,-0.72437299608913286,0.91868116810287948,-0.26793974422680733,0.2928254935868187],[0.19100493440687011,-0.2259560771665704,-0.76473041142307319,0.7682257755612043,0.5028583110147743],[-0.46731493242261463,0.065896317653522246,-0.5468351734627257,-0.75276332102942611,-0.50494621624151714],[0.48580065365156117,-0.14633295946306138,0.52295875656811064,-0.40007112361642444,-0.70567192964603753]]},{"rows":5,"cols":5,"data":[[-0.47067521691596559,0.035946896348565162,0.10090926584537545,-0.18709098045499362,-0.30023114232393444],[0.070443757969739271,0.68393293850744064,0.093758330018395258,0.65696400158882862,-0.66103284198978307],[-0.44375109642169053,-0.88492679920632178,-0.30177207383217008,0.30050504642965226,0.31739712533185516],[0.64002264432944567,0.92239272114760107,0.452965353010869,0.25196738761186693,0.621534656178439],[0.98955617771880733,-0.54022119096601362,0.69954177166637288,0.35018675814417649,0.471109855610482]]},{"rows":5,"cols":5,"data":[[0.60567211286222011,-0.5223511658084049,0.15181633166365691,-0.65368492979442738,-0.40142787341255148],[-0.78304586176078073,-0.49307700513750397,0.09314767854134616,-0.80009143586278053,0.98126305827218863],[0.49385953893212253,0.39816965813939692,0.039299097085609726,-0.95651725957095779,-0.78173928912829238],[0.58655001971354237,0.70885226366919518,-0.60143513687109618,0.35257860450991829,-0.10462800393720914],[-0.61717934423639087,-0.76101838038860792,-0.031275683414900037,-0.15815626928461696,-0.12038750182567329]]},{"rows":5,"cols":5,"data":[[0.67161564817355635,0.3463183640066031,-0.76708695553476391,-0.089849731679894615,-0.5719796695737257],[-0.59321694214229337,0.379695738252184,0.55351621728247524,0.16435522055755528,0.058112042413784093],[-0.034821557326795004,-0.47101680206799218,-0.4723139770473273,-0.047776950200941928,-1.0995972540949084],[0.95874078521560957,-0.15384669080652863,-0.54128080427516057,0.42125383554814561,0.8144801127646657],[-0.84578718833753119,-0.29249257533718809,0.66683704549580758,0.25524578962945088,1.2252487023822654]]},{"rows":5,"cols":5,"data":[[0.92017414741192993,0.91868845655080777,-0.75563139285138536,-0.627652213379235,-0.18906240117711726],[0.28008178492832825,0.34638821344303383,-0.72846270022163562,0.41855762941374175,-0.14368385745630788],[0.035784772687183747,-0.42117162667459968,-0.79396530080641392,0.60731647072841288,0.65573097869675767],[-0.89670299283208144,1.1909432558488868,0.995222562235926,-0.24026852796963635,0.5976334045533418],[-0.0068016195523663715,0.56406508387430054,0.61562662785118871,0.48584966463044038,0.142824168889318]]}],[{"rows":5,"cols":5,"data":[[2.1903849493224232,3.1677336362101269,3.0191258345428582,1.26499374942264,-0.81811962541486494],[0.63972044035036679,1.3842747312448771,1.3609092486513075,0.10745797515449979,-1.3544729745543351],[-0.049822963924667181,0.69977701745340526,0.98538601104962853,-0.41893465300763949,-1.3433895634234645],[2.4235685399132558,-0.56787689587592982,-1.0919575906050987,-0.31209675080575877,-0.74340212899652391],[1.552413318292452,-0.80675454349434594,-1.5293373743348619,0.032199575237614686,0.68603054316700585]]},{"rows":5,"cols":5,"data":[[-0.28433326062427505,0.29990232182205923,0.70122818844837975,1.2851123770601196,0.41735385941807029],[0.1012198309902041,-0.428006459178089,0.59718356812900919,1.412781722336188,0.99207319478873357],[1.0925966837167438,0.58148094915764625,-0.50864626858982531,-0.2785478163972217,-1.227061805796301],[0.12021770631301075,-0.88895750387411876,-1.515914512709184,-0.69813952207155772,0.020217275159326444],[-0.054403480023981224,-1.3188352977415945,-0.52261264036154076,-0.88971313441710875,-0.947023068004215]]},{"rows":5,"cols":5,"data":[[0.091175347782294483,-0.56794676820458223,0.31510933004191649,-0.71144817451238851,0.72927391381354156],[0.125572744269751,0.02998450333286003,-1.1861893289213588,0.98067541517651258,-0.31300413145660194],[-1.1142723669220866,0.51687465925951592,1.3749568783846422,-0.43907319583144666,0.47897136559319525],[1.1977901171093031,0.5892109941689132,-0.57991104220749212,-0.52769225658769914,-0.75497503627730633],[1.9088896599929697,0.79415502704959273,-0.62952527018183124,0.48529972261004023,-1.0492998959464996]]},{"rows":5,"cols":5,"data":[[1.4281124639147433,1.9499587398451705,0.68262851201552444,-0.51644581806381085,-0.99947745200333815],[1.5935130082879281,0.94644889818729583,1.7472200636414206,0.62086178301563422,-1.8461495535106123],[0.54595394009417553,1.9015480291519691,-0.040965755447322158,-1.9120775091596542,-1.2436759521348366],[2.4699482706421021,0.96403371567266327,-0.12408615266917468,-1.0718402557348155,1.0844591938744146],[0.83124689427003184,0.32096010758784821,0.78410911818249185,1.7680396363371003,1.2430807706999543]]},{"rows":5,"cols":5,"data":[[0.3964644071984848,-0.082016699394908715,-0.36796912832621531,-1.3842267847517298,-1.3225334818255832],[1.2040743345990703,-0.45886353393977458,0.069812345504796147,-2.2853532116812412,-2.0252215698613085],[0.53606577297000824,-1.2229664645481513,-2.1731439746466257,-1.3996820056519843,-0.906161610442051],[-0.15089985581096554,0.26563897765971994,-0.36725746060739356,-0.47611365573270364,0.90892791896704272],[1.5649508597585509,1.8909562803661213,1.541741551927784,-0.2075180090989607,0.13758384882485614]]},{"rows":5,"cols":5,"data":[[0.36305246941571256,1.2090182750522283,-0.8495082926813069,0.15895129793597479,-0.98337266457835093],[0.17770767035023627,0.25418063926133905,0.647971821256399,0.13509766665571804,0.58909072269970386],[0.24663003972525416,-0.36592727090882415,2.681111053939969,0.95565397962037368,-1.4787992642938836],[-1.0461068156517541,1.7686315671810997,1.3702674215027755,1.0379857652734845,-0.29460606469357137],[1.8963716196947564,1.2924013970484019,0.67247612117635036,0.29250199598615051,-0.87696675101104393]]}],[{"rows":5,"cols":5,"data":[[-1.4194134846712259,-1.4175886029564602,-0.38738994111724184,-0.74340326792906986,-1.0081104359598592],[0.56832812701260527,-0.25620225227961485,-0.21701365956387952,0.18721429599956135,0.21730802369206423],[5.1049206999195373,5.7125941704383623,4.81824690837644,3.5294377583403351,0.16552692723895202],[0.22482169981444905,1.6181187443221394,3.246555314684588,2.6969271817266929,1.633404024897154],[-0.60834114133488115,1.377679519670638,1.4029573959844655,1.2049823680865608,0.44560295841284664]]},{"rows":5,"cols":5,"data":[[0.63204002526623848,-0.1042721576019745,-1.3313471249361952,-1.0110295426437952,-0.12217329708602316],[2.2513586416518505,2.5867552480052853,1.5616648120541714,0.93666848552956017,-0.507643058682603],[1.2869760983509351,0.15703814633787405,1.7512131680400314,2.9239139865990125,0.94009384973629218],[0.11521432445614153,0.78822519956931,-0.094717277785884652,1.0694023955014738,0.79472330546093906],[0.36084168070822381,0.50722270361965494,-0.09075183940228139,0.45623659985503773,0.53094351655065153]]},{"rows":5,"cols":5,"data":[[0.01976408520395417,0.25957367917337937,-0.046533591086984571,-1.3551381388873089,-0.90453544015776433],[-0.50987212387957148,-0.14767201646987263,0.62422121858817048,0.13397352555173905,-1.1277869522197461],[0.84903808510149648,-0.58591877645290413,-1.0001726253546677,-1.0052962584916756,-1.2365199615235345],[-0.17160591640105782,-0.18624495954896839,-0.48745646455073316,0.3866667792677943,-0.89295447419114793],[-1.1272740110795736,0.35408515034570465,1.043589730081385,-0.59325126376608117,-0.68960593640232193]]},{"rows":5,"cols":5,"data":[[-0.772024676293147,0.0032507051527382925,-1.110442992510946,-0.73661103859828037,-0.73680503315611245],[1.5813635634772234,1.8217252981284435,1.5528627803651742,0.98428839554399061,-0.79140513219669384],[0.50867627848471419,-0.077807800334642616,0.49777453459189525,0.29100132035017284,1.2811908284375089],[0.90069687389168973,0.38893383265890752,1.8172469502066753,0.85152248299127753,0.10982103242052183],[0.60779091198655222,1.6956622372772019,-0.095516459492143088,-0.20480487374992581,-0.84658966941983327]]},{"rows":5,"cols":5,"data":[[1.3569153208857228,0.9419442365977263,1.4967232301741142,1.6128282289041833,1.3425665549682162],[0.23867868826152516,0.75733255155992718,0.30566013241806678,1.2846363030117822,1.4645472228391967],[-0.089278998678894092,-0.73162439255136125,0.051002361003344446,-0.28715341754984947,0.59486573396340381],[1.7762565081825226,2.4182427210889883,1.5847086772166485,-0.26208758411285421,0.81544968180799182],[-0.366317695297214,-0.38039572427050733,-0.28444707820649329,-0.39752616213467112,0.35896518605952948]]},{"rows":5,"cols":5,"data":[[0.44585963770821807,1.3609906803774476,-0.033433421067755806,0.17402273669092469,0.3331931814605632],[-0.50847366325705656,0.013082351554063112,0.46078383033653941,0.88684912777858815,-0.13682537791332364],[-1.65814873639219,-1.1343222487003613,-1.9650991977685093,-1.1862150793228121,-1.6081143109617706],[0.44601388661876051,0.895435980618749,-0.439411539140785,-0.99144601324101089,-1.5147876351310639],[0.39270924548450908,-0.40444645759008668,0.93056343436991629,1.1707222684107779,0.28688778554194383]]}],[{"rows":5,"cols":5,"data":[[-0.22775026681042962,-0.96436376248461153,0.9456528611020194,0.45631642496942693,-0.40516456809412421],[0.0071123611254838267,-0.89034713525277109,0.1316074402186137,-0.084521998540876886,-0.67467672253721811],[0.47485810220933933,0.18458477574849241,0.3284117255920046,0.97476910386351134,-0.37467326997092482],[0.95294112360136207,0.068939506380860771,-0.26550636689646778,0.27665645892502871,0.79101139750297111],[0.931151174006355,0.0313496994101387,-0.67185687481633949,0.5279100093798238,0.14243049527981372]]},{"rows":5,"cols":5,"data":[[-0.22588173240884549,0.33127115498317444,0.82930126565732132,0.56403281767403723,0.15754498905225825],[0.031285090416118891,-0.40392938554271152,-0.35634651942940132,0.76426797678771663,-0.058182602041481346],[0.14925883296449818,0.25992458288921283,0.5684297649171457,0.31135186266312437,-0.69753732263381985],[0.968730582959307,-0.76322229442172551,0.96360161763903818,-0.1296775339100619,0.23903675355077497],[0.54260472002479743,0.97046398352248031,0.027338621643688291,0.96574803379594543,-0.52312773348158881]]},{"rows":5,"cols":5,"data":[[-0.617000987249421,0.44707080223720169,0.97230731163718653,0.86866351052322077,0.77462735200499322],[0.7420732894415597,0.71733386866021775,-0.55906129025427231,-0.66568133306043664,0.80571228355853564],[0.66503099654329745,-0.73151739114821257,0.56067325095083964,0.73802523202545367,0.28942228409798693],[-0.12342074061939658,-0.44935881655398885,0.57332837723824692,0.043084350552057386,0.48276674809397574],[-0.297161380323914,0.51213980923537339,0.43227508866853009,-0.01151425823269835,0.82531213050056129]]},{"rows":5,"cols":5,"data":[[0.6772342146424376,0.062676524644113163,0.43683300231723393,-0.73269133303024014,0.567714412620232],[-0.19974288451369324,-0.69728842631351928,0.86232394926434086,0.085298711967015814,-0.18319420481735188],[0.6153474217507533,-0.33659104872628381,-0.19921064355323037,-0.98543204559445774,0.23128139764738454],[0.4682566222179888,-0.15145176603710792,0.2650488498244985,0.54440092394761108,-0.32895931513987203],[0.74767098543247157,-0.28362542816926617,-0.76419363402626239,0.60473070681418883,-0.61522184139320224]]},{"rows":5,"cols":5,"data":[[0.012253268153268606,-0.56732213444719126,-0.98071022480415626,-0.4957433145535633,0.80784970167935166],[-0.12515528726058814,-0.96124258612532754,-0.015338180558223941,-0.95780494527783244,-0.895756063817482],[-0.31484335381668493,-0.71881080869908509,-0.832239976064486,-0.2469005463781366,0.0045456923434146887],[0.34656628771260256,-0.61540772680856393,-0.55881459683644008,-0.087016046573444236,0.666652226228375],[-0.80278578935192013,0.70928212005001845,0.50712046663382915,0.77445893141075217,0.9877062630064547]]},{"rows":5,"cols":5,"data":[[0.81918445241977333,-0.79800588281652052,0.84712076995928232,-0.70608845724210778,-0.93964626703159426],[-0.031405006098349633,-0.21313616125957088,0.79810777441717229,0.85489490951376546,-0.46340089813784036],[-0.63423867938236156,-0.71899191154118058,0.35599349121789675,0.26605397473613063,0.9123905149301581],[0.57920021720908921,0.6651112393894465,-0.24467934728743446,0.90932488661702571,-0.46332421561437731],[0.18568585776303107,-0.31959633170585039,-0.50411471264561525,-0.49133454287723849,0.29359644384218164]]}]]],"Weights":[{"rows":120,"cols":256,"data":[[-0.35378454878373405,-0.84948117768869735,-0.87995731082689643,-0.37094171220034627,0.072656088252254392,0.016308359403421565,0.33719187243995979,0.01792115352921474,-0.79237140026010267,-0.35443901168285391,0.44330672104751195,0.90505283294413252,0.39017022644019239,-0.26149406459459595,0.39754274983388227,0.89282421094487163,0.26485452117018132,0.273328794839137,-0.15333477130611711,-0.059992648598510293,0.34522301148057127,0.73456512461979706,1.1025786283624859,0.71351503822521389,0.76315658464655767,-1.4006620689213134,-0.67549702854207927,0.19451772770366541,0.31271087664531133,-0.052655851166525589,-0.45758802875248145,-0.44351995265337174,-0.24647001275274763,-0.39179676555502191,-0.44346861907793672,-0.74156128521996312,-0.723375905829462,0.89374246007183178,-0.6552886417811008,-0.67673222482753648,0.10365711410238934,-0.65897281313034417,0.81835898873057533,0.59323519747218145,-0.68641154389484427,0.28461713475082079,-0.043946471872795975,0.685610765340114,-0.036733959423393352,0.1236303465507433,0.059125919267478053,0.8323150830985051,0.38257936378012208,-0.52448357901490428,-0.51888293850542921,-0.31001770974007575,-0.28861423958695193,-0.0133418225765018,0.19933256260268711,0.056648542387942487,-0.82010435557218775,0.87465868212860043,0.6955933079167812,-0.27729725842481667,0.57537122593237922,-0.88088669259386387,-0.3410839064538323,-0.49349822340682303,-1.002861066762369,-0.28467751392673873,0.32046358511898243,0.29747572473783784,-0.30073632000547512,-0.54265012727241613,0.63543486004969152,0.26596692622267409,1.0665482362069623,-0.97447051582637745,-0.085650247479413744,-0.691206598685568,0.11566031776109365,0.22968262939782444,-0.47310649066269994,-0.21023142141542875,-0.28859485843057525,0.44347314360543871,0.39175835439298479,-0.59324808896367542,-0.52149304635157034,-0.66007741259731023,0.84581997253624008,0.021937608127040417,-0.33600605194829247,0.34058359517454667,-0.8343155556388393,0.24339090365574251,-0.44349482131658108,-0.36259495586214069,-0.953751116657192,-0.5920711716273438,-0.67620861211432293,-0.611356792889186,1.1937662859387916,-0.0021803766461395329,0.20411042206639488,0.94088488955902494,0.84791482603043489,0.78167498287393389,0.20213786426422392,0.47523840708850595,0.047973328550251423,-0.38427326457074606,0.9337553421562792,-0.24028882116344508,0.64774784135465835,-0.067998704233482019,0.13854146203481579,0.49709782094561661,-0.79747653709918709,-0.7784580782742897,-0.53492319186075843,-0.47077356914566182,-0.79586551981141351,0.93285975103765184,-0.13398884074972969,0.76798887301223118,-0.36135435129067989,0.42449684562537349,-0.7634822251504525,-0.65524115287684037,-0.4971750591446551,-0.0038817187931597455,0.9599711705666184,-0.039856786328500413,0.88503260880366708,-0.2516172857387059,0.56840811010605885,-0.58048604565652351,-0.34434470350463703,0.11970857530085835,-0.674338154397768,-0.2689239803378658,0.5557749792288823,0.13101426751988926,0.57954745350295611,0.26257948649622315,0.18031703878411412,0.73921220117378661,0.48593560276120928,0.70749842057844747,1.4944072311288841,0.65163559693076434,0.20806494675028406,0.77787680044694674,0.82774889404527263,-0.54249959454801167,-0.61629163082108229,0.75489718335130451,0.062914928649971891,0.59561381002287717,0.0750758523974682,0.7586707444541031,-0.24858957516905275,-0.23679024299136803,0.12336308077806568,0.77132020340588947,-0.63124168513002865,0.18069889849831744,0.15723759572870708,0.36642739433652705,0.56028391946364486,0.10040544660418149,-0.77557703597177863,-0.21785324625816352,1.0204334401743702,0.92619387875034243,0.037521070440879975,0.25368392591969696,-0.58062588389430647,0.75902157893811417,-0.47728161870761265,-0.19010709255171593,0.9202008121341817,-0.26619852615415479,-0.62045916159151393,0.116803420203806,0.53637483012017451,0.9232776525398565,0.14767331388961652,0.5470754078805864,-0.5407237667370256,0.846089278687697,0.026863271790720213,0.23226786281710179,-0.64773906401562231,-0.29932637584937394,0.87616047143339215,-0.052512450829461529,-0.66261973445670763,0.83400631739438624,-0.41124526003167117,-0.78395266595785873,-0.50518783097927533,-0.87701520159817281,0.72709363513139991,-0.16367454257125311,-0.1263535375360578,-0.76632670487063348,0.90862440946022915,0.73637837998583167,0.68595685537612217,0.42816399080987139,0.55734895090914793,0.86313185744257581,0.55473735233384169,1.47175086041405,0.69507117094013093,0.86297583336573547,-0.68031484227142924,0.6233722545449325,-0.72141347570706638,-0.25405492774704297,-1.0776358778472026,0.25861907960885328,-0.16379428488005021,0.870897029161501,0.97119294905089382,0.32163778438395579,-0.37488429357509762,0.41509093047965856,-1.2019645169835087,0.72400670587842941,-0.12542322874324519,-0.30293210545773774,-0.12302379635869601,-0.96291396657100647,-0.73664264469339014,0.61023937190505628,0.11238908873336095,0.31836730815880887,-0.961242940460622,0.26135978333571491,-0.93465165284728879,0.46959627357959333,-0.668565880805503,0.21572393580952726,-0.88563376675877692,0.35134510659112445,-0.94651020367698013,-0.66533570134662412,-0.066426097642243484,-0.89059428246259242,-0.34874960787893589,-0.532577629399167,0.53686835490253726,0.89373284986076884],[-0.99702889428855557,0.14979301374691714,0.15759232769340165,-0.28542818022780614,-0.065470085120662186,0.44879844197515562,0.39134994521054861,-0.86947299037332582,1.3703381663872858,1.0304851172857128,-0.66113962747094035,0.39902658929723905,-0.38864670472461871,0.10770117839799184,0.89110817785061081,1.2797342693509697,-0.63232490062660263,-0.31648009621375645,0.30091996825232,0.36024596512298279,-0.2913583152354271,-0.14257254415853421,0.9682150364698755,1.2489857192224361,1.7364805992931143,-0.14946704710517428,-0.78067246150824821,-1.5323584198877298,-0.98908978863068209,0.024840392960785752,-0.87862380533071915,-1.3770409840810938,-0.24922211188185084,-0.19588301761852023,-1.0907050282476862,0.52974228936357326,-0.82164780660115211,0.13983099576752184,-0.76621369686016449,-0.61886733205931521,0.54741896173202687,0.46602184638818667,0.8923773857258428,0.070643110937408257,-0.48533347575650454,-0.065291181863724984,-0.25200653455873712,-0.16507512496234003,-0.30795395292027389,-0.050385155589563531,0.66827786015548774,0.83919429543820889,-0.26254497479247318,-0.30287280214220941,0.51273768597142144,0.6721740794437151,0.43851407003052095,0.69424031739466763,-0.66278472491867013,-0.54944162582408806,-0.59086040495419689,0.53070606268373011,-0.67793184468745571,0.84043102842611461,-0.95785136911855739,1.268032618949603,-0.72557527009066847,0.784625359953797,-0.23317683636636627,-0.91349982557683485,0.57194407353409127,0.51495491473282518,-0.37083968652453236,0.43951268548990979,0.30985308253193378,0.10735071354686789,0.2458267548849816,-0.55657012908147552,-0.43901632143080854,-0.51395380904905086,1.1372109138704358,1.0301528107371787,0.51822234487275531,0.19155361821900283,-0.75832672984049276,0.50855785948671461,0.47998583463745226,-0.62760262118247379,0.70234922972785629,0.1087888685076597,-1.2909496437382959,-1.0519452611918121,0.3846862823823291,0.33262808000058613,0.45973897927279739,-1.262116627761444,0.12830017630627871,-0.34876954883722122,0.95601345976070473,0.5795423521768378,1.1001776675556843,0.43209835660090745,-0.41384476955126925,-0.67273117898771151,0.65754372222212576,-1.4186296422285132,0.76456737560912924,0.3292700293942698,-0.81501669508315877,-0.33744032683531533,-0.15263704046525134,-0.081056021389173491,0.13677232329734343,0.39211745642681251,-0.98192686699178189,-0.54630791253015587,1.1076726047591023,-0.82053401498031231,1.0103390647239887,-0.23593873817667113,-0.44600754221426653,0.93947640775691088,0.82125508295949889,0.77687382343534261,1.1165232373631684,0.14119888010993595,0.64384846774643945,-0.24910012311782923,0.047770952601487032,-0.3573790857721133,-0.032695144682594442,-0.41543769197849989,-0.063337414699832534,0.28737033244632343,0.50270055715686968,-0.30944163744975245,0.288114016505082,-0.25941944579379683,0.42884671961310589,0.52136095798089688,-0.45634622567920696,-0.78184883015422268,-0.14340584001734272,0.0084555451720461049,-1.0285336447879374,-1.0549261054393415,-0.015726168479201025,0.94972725228726818,0.1006490363747357,0.165346090545815,-0.39662299943818113,-0.033064743314044083,0.18026827541551521,-0.15864852331215226,-0.348157053534003,0.416811471314537,0.52161984176017817,-0.57713625704998228,-0.51918534549223372,-1.1218406817328952,-1.0511669153266603,-1.0842216315519437,0.84756336547665156,0.37601201580440169,-1.0797621424536781,-1.1538767648764645,0.48099148300711059,-0.52970706994476136,0.11783414194372709,0.65127537351273856,0.35791033515368259,-0.12669460240544991,-0.54102936306246163,0.55679628234936585,0.66298438757259337,-1.0821163566482939,-0.5011955584096397,-0.47370428574852458,0.95284929926454809,-0.022475094042025523,0.23205571707801104,-1.0922336534175159,0.79351132356627863,-1.1849497280214618,0.2981931170376293,0.0072706978602589427,0.79471354333949684,-0.46369084577417108,0.21539764546577081,-0.3875638459271194,0.54557885732735489,-0.42353862936136133,-0.69908492385805476,0.1905059286733202,-0.057077173218877127,-0.92960751785434859,-0.48733477491337784,0.24470294826366248,-0.18105755606841806,-1.0480485055670716,0.33624729075548776,-0.57799727489773545,-0.87338867984523849,0.41983927597792337,-1.0149986605391193,0.0902745843269635,0.756747287078511,0.029354365729522491,-0.1500970971118695,-0.812515055525217,-1.366646160681124,-0.30321477037307171,0.36693220456377323,0.56871737780689346,0.027560783855136377,-0.56402845149725234,-0.25760747890663815,0.68870598767181157,-0.41097678360683743,0.68234900868372916,-0.71705717193030061,-0.025245677107002151,0.72612489111533673,0.14711955407973304,-0.86379418955198606,-0.46414134671137874,-0.42807990071157315,0.54160925898836965,-1.2966752935619923,-0.20285830039304065,0.836708651894507,0.29044450646251413,-0.20256806132206859,0.52504535335670954,0.17250251347483603,-0.55233376448611038,-0.83416525444584366,-1.1251793072625054,0.607762950760725,-0.68418682745603621,0.18183537737899203,-0.42685702278900239,-0.897682969381669,-0.10910217331164639,-0.67188517226341649,-0.51187489601685243,0.42993896592941128,-0.37208745105834717,-0.98817230775586917,-0.106581651821593,-0.99768731003061817,-0.39604718975600695,0.19698505859905269,0.57325990408483685,0.77648010125224964,-0.52876205308146973],[-0.63858880112576966,-0.22924152415716081,0.56290074118651456,0.75057247556182483,-0.951122539968153,-0.9523290773795311,0.34360198885026327,0.41029758081661782,-0.54665886265845154,0.22580370532487543,1.1467136572997696,0.42226657224957365,-0.75819628156316254,-0.55887581917353657,-0.8281829119685733,-0.86978650979510441,0.84264272302318255,0.96765934107263252,-0.78318398530277478,0.67761016410511,-0.20356954586374843,-0.44735392840187338,-0.80285761370164421,0.24239582026220585,0.16872739660876571,1.1516902624269634,0.27014656287534206,-0.032021666980829248,-0.15481569063837905,-0.49921308186713542,0.53995771372578139,0.76115408140758456,1.02852441871257,0.034815085975189494,-0.59164010483454643,0.00015476630042487676,-0.0919426504540792,-0.47471689119249494,-0.83646473873926708,-0.2039941427560541,0.64749399554284237,-0.044267293954888272,-0.57274778765306278,0.2101344636879397,-0.32770909154141376,-0.80319285109163907,-0.55804309127810969,0.69453597956757018,-0.39965233553326146,0.69711267500402041,-0.33549388995309914,0.260330429558119,0.24535732691008991,-0.87061178702211739,0.69140424645314591,0.49427283427272656,-0.55485515327710611,0.681456825302568,-0.70966458113050479,-0.60635943745212739,-0.2441591547636911,0.67148382782489524,0.79305466923408441,0.54692060612886417,0.47664200394038375,-0.57214756433920666,0.43410535737788297,0.4365435330560925,-0.74305392524840486,0.502355256925802,0.772777342042167,0.59478369119509811,0.927794243580172,0.56921309201990866,-0.75186473992665648,1.002587716542735,-0.065916538344086437,0.64114744559461034,0.18007078549168337,0.22877392339634411,0.80437619501578528,0.80588643529157933,-0.52952239128912071,0.58334062954579891,-0.63863418892439927,-0.24941390283551485,-0.6033989998928545,0.71597166837870907,0.21138142409497013,-0.46098396414651516,-0.74996553464539129,-0.28686980287076574,-1.0835457115537506,0.21297351861056671,0.49074669441420965,0.46346562714933914,-0.42554424846478112,-0.4258017548299835,0.58057280441552939,-0.7524898998816637,-0.21799590893947279,-0.38415281195994844,0.59522539428048227,0.775110848594948,1.222605146271698,0.055114562692313428,1.3911220726598961,1.2782644419758629,1.3846835436441696,0.62617212751122753,-0.21814389566470221,-0.40292776465757968,-0.25377912106760581,0.32449807738451059,0.0522490092917084,0.29111938278641686,0.24241109905629057,-0.79252289829571654,0.55707132370607337,-0.37685946755872651,-0.98010626393852351,0.37116686551588407,-1.054400152449692,0.056474502234499527,-0.092637093029382472,-0.40070222407630762,0.69605716789607208,-0.67932981060338482,0.63761256361452079,-0.50123450522438484,0.12481263998155744,-0.5893655572204376,0.94312793092051506,-0.0821880767383327,-0.57242104071335131,-0.27188484304642591,-0.39109808982756794,0.6658260738579489,0.783448273446818,0.26132344878486596,0.031310646883093748,-0.37870287249456636,0.97416369648448742,0.739195803107392,-0.84478089428014924,0.54788690372601412,-0.43713266081325114,0.020330165996557587,0.20495116482466941,0.31900064429031455,-0.280502047569824,-0.52222005996622622,0.75028072741542584,0.0729036847885069,-0.91206972763753558,0.14089055652508536,0.045737075825761794,1.3100078405668176,-0.3827891968086567,0.55699133991157823,0.69380532331733025,0.48363593904559343,-1.0427739130646687,0.33018969177502439,-0.33037132993368307,-0.33417942878828755,0.069105652502135392,0.879914480653432,-0.69763281117042719,0.58158329943439591,-0.58368235132152235,0.55130386576690937,-1.1522698000429237,0.58588876757461861,0.65594588979754564,0.47827192572719962,0.78784777933697681,-0.41432742557337948,0.30950974887878324,0.33614013504264617,-0.6983431784120141,-0.41833784668928731,-0.030852919923818792,-0.36916196745687652,0.70993601174129528,-0.7356417885341634,-0.49379012546405793,-0.28633414136823665,-0.45368660934990473,0.062301567326919147,1.0517160631901703,-0.3479823850201878,0.37734303355679277,-0.43385994227819297,0.80445286322151544,0.63231765630370984,-0.66012471917183513,-0.658411310235448,0.10503504245366935,0.58266582415864021,-0.58314198980128873,-0.21248194772987927,-0.64369704208754042,0.17656076328994397,-0.44018049263587672,0.0329137565236915,-0.49278704492063174,0.71518126418665706,0.18127356423429647,-0.58172767367501854,0.36447009200535929,-0.6867103552494962,-0.44219179138856546,-0.13500465450076102,0.064464678787225727,0.15711060363369767,-0.580528818115429,0.574205498439061,0.64094291874320142,-1.1086836051832056,0.83539862794127262,-0.57096318087487408,-0.20381226910264014,-0.022219314540414509,0.99968501686989342,0.71573314709871849,-0.916288306297647,0.75415047874780106,-0.75658487365513516,-0.5019648437637253,0.38224956343937166,0.36461810261949934,0.4556104384624195,1.0287224882741903,0.092749078283410627,0.45598902975092365,-0.70170081460347955,0.77083672190024732,-1.0118115486118251,-0.23840308800052509,0.86295873681184077,0.096379293519758991,0.44537432556269413,-0.84141555776667243,0.91143436858965343,0.74133956538374568,0.98439219961789737,-0.56583779073165985,0.27620096308840153,-0.3430027583576587,-0.043817198920072596,-0.38307992617551578,-0.47745115459796761,-0.35248080484515548,0.49815265904037,0.848351752223794],[0.73799175886588086,-0.27486182292972738,0.32782501292183414,-0.15378475087756069,0.0077246373307874056,-0.34721963420084789,0.51297471833935282,0.098194992282141944,0.4006296262026674,1.1698596864361606,0.0503924824142829,-0.12263858426683985,1.0982104215028063,0.88935048865967936,-0.12537321392333506,-0.32793153628964455,0.61924512817183741,0.424952733908536,-0.11175999475701375,0.064841723204637741,0.28132918568778925,0.19177766536465835,0.888030357010398,-0.66417821737641547,1.0469858671944425,1.0435114322387571,-0.10830831979533359,0.75212470496984773,0.49918030923278911,-0.02553577434041937,0.37214739129668933,-0.024359392031859012,-0.53344375306727976,0.314559786347097,1.0007334637223451,0.75602961053476869,-0.24911905754608954,0.5549928655265427,0.93606586410711157,0.415401496883972,0.70890334370740049,-0.50921610681551976,0.012501223124960133,-0.95825454216982331,0.001579007945858127,0.34249972634739373,-0.33478203023523839,0.63316030964207,-0.92741316954094033,-0.58726200060578415,0.17300374535671922,0.52617504300115925,-0.866960930223171,-0.31839255790243254,-0.15061316408940256,-0.251779260763861,0.21539438335907951,0.031047226247078317,-0.25629384777931,-0.012385658236926261,0.78400697820095844,0.81137165141450684,0.62558265127782353,-0.59145794560180642,-0.308504931027759,0.57861026096772006,-1.0723018118339782,-0.76410848734559567,0.49568226620494638,-0.28630633467880295,0.57342713751647745,0.71497074893921453,-0.07992620506764736,-0.064771199944190547,-0.029409401469428175,-0.67113676793989319,0.72153597499326849,0.32139831664987351,0.061853294070737558,-0.63626542499557814,0.13081946686363408,0.038449185169170008,0.5058589234824904,0.096805700088428842,0.54955796328744777,0.42805891054636686,-0.33094980285672077,0.79190341225520977,-0.51523061485966926,0.042673831457449039,-0.56035785234952185,0.74789630389030226,-0.18233112293323575,-0.20358204049788517,0.614993445403239,0.98095846677720311,0.0083974391686091176,-0.49924741493301528,-0.10266010788247927,0.071957861919696567,0.26227415115896641,-0.77988687231342857,1.0208569713760214,0.146187742689654,-0.51560471384936413,0.15063980000507962,-0.85007202409011984,-0.062091134214366121,0.23786976261684692,-0.58762640487973739,-0.13575882041965828,0.62298548309513724,0.84246967613478774,-0.8555577068793343,0.69235491067807586,-0.36241144380125651,-0.71569675386292575,-0.27618606360122838,-0.24315141180284008,0.35928399077181622,0.13715950609419958,-0.36971588906895558,1.0021288865448685,-0.48424566275819486,-0.40339323328008614,1.1711327173261537,0.1564572378711879,-0.836214501942006,0.43786001334851549,0.23635279423746047,0.945227832954515,0.48346608383862921,-0.6179593498461472,-0.90561471700803808,0.50890361783700322,0.068758965948577791,0.077293980582912689,-0.52158491419719566,-0.548834094192493,-0.51130156267936178,0.23657841570297222,0.76912406092408869,-0.624966559187088,-0.718487918716737,-0.39116027410505877,0.39350705021311239,-0.7279246800181266,-0.16628327410548585,0.3044796139326667,0.32563528071689707,0.95007900229217124,-0.564499898785152,0.97385519729345271,1.110740520911329,-0.58339197317017033,-0.054231009603364765,-0.583234695314681,0.56337635438956468,0.089084780886548184,-0.25231002085549081,-0.58626208077857789,-0.51489052656647483,0.93062667814524913,-0.31061565489424237,-0.268870779394197,0.5510003104579011,0.47150434511767891,1.0962770841564149,0.18504603823264443,0.16749869278905763,0.79327811519077007,1.2468054811744587,-0.41926795912193743,-0.51378123752710014,-0.54842556906449158,0.56876046007975856,0.754775599517961,0.40549566833419909,-1.1993995271134854,0.12890166980889853,0.858884952867766,-0.7173989887992136,-0.21686302336174321,-0.78678992823106519,0.26542473532266947,0.28784276821029492,0.25934292497768285,-0.629220259578836,0.76344442560864267,-0.51541515040978636,-0.5269237539927617,0.39419294756907486,0.30812447542236665,0.58212911704475856,-0.74057429969528932,-0.16190774042676653,-0.96752729186729292,-1.0704530564538644,0.67260093195525272,-0.16262366598223116,0.50196531302329828,-0.90656292161640928,-1.1248742556333222,-0.84135615383806206,0.17208208221044963,0.70081380523085324,-1.1839963822574295,0.33697207626670361,0.65582330885035045,-0.1155667844209855,0.0274850249884138,-0.48300306218650213,0.40618934257944633,0.41673659311079,-0.36572313152248287,0.56327158174384939,-0.0088025914149755351,0.068340129438355227,0.0053736960891905307,0.14379878406529115,0.74988541010666854,-0.38217205621964195,0.792905100679532,0.99762601059716,-1.0461148904637789,0.87164636252803085,-0.72640942785846452,-0.52856633169707712,0.72177731468619766,0.039948703746184554,0.088722157246975589,0.89100567000311226,0.83584586534990157,-0.0506421473713073,0.63196344385487535,0.64032856324240339,-0.6070065296034356,-0.21347256263233072,0.10578127821650225,0.53088474767336957,0.43525594274319368,-1.0086768015861656,-0.1464754405182386,0.043366191789686835,0.75338088351020216,-0.81316793100239837,-0.82762931148526564,-0.97698660395722359,0.077797082712781532,-0.18674423591051725,-0.99514090418396961,0.16915253576792932,0.2293543245317074,-0.14009575300439991,0.2639690679082356,0.04936159512207592],[-0.72214315972629683,-1.0087259687231185,-0.75168574276971523,0.392720932794852,0.35769548473300966,0.33106693454616076,0.57904973476585553,-0.48746729240887043,0.61910800189119786,-0.21049750400238798,-0.45104996260554042,-0.83506744226369978,0.52037866299071245,-0.286072488140279,-0.0071378143773376179,-1.0280635477041964,0.69924427318441318,-0.1002818116113898,0.074460055139881423,0.27169160185713365,0.44604449696515747,-0.53198041412969765,-1.1012097208660341,0.43479555350349447,0.47259027446998003,-0.97419614940627242,0.15815620814940065,-0.13643177979826357,-0.37982987168671323,0.40723411415264182,-0.60082782781047417,-0.22562387466891148,0.64384710026496594,-0.5144021435190903,0.14223289184086041,-0.76559520540781723,-0.649785232116672,0.58679261845361275,-1.0416744686568962,0.86239406973586985,-0.76193515971372638,-0.74864621305625911,0.22209796019460479,-0.22056001226633012,0.4822196623631167,0.69794425938625848,-0.79190631937164135,-0.79892732211523854,0.61473279233358491,0.72363352751621246,0.22656515820750517,-1.0064772495701164,0.41862900210334764,0.53485863375338671,0.33031632964060004,0.78581108055298943,0.82630544190525557,-0.501398368582814,0.768407177480124,0.32547141230945953,-0.8636634387810288,-0.21250510352013424,0.65605713705141955,-0.92888239750123591,-0.47430306540832373,0.92368213626954121,-0.047507171399642632,0.45826649148437903,0.81943340328802416,-0.00709613463939189,1.0229485869529928,-0.59708894793305833,0.31168677272287415,0.616296941158534,0.59199183675227851,0.57379201094940124,0.55376817393335531,0.52763179207087352,-0.58227116031569337,1.0521980543724274,-1.0987441951024615,0.070257810458682138,0.20472484701811172,0.058108992971292683,-0.48339839034509219,-0.62231050473438843,0.31496666350684965,-0.97417083667385185,0.085026843734795979,0.19399156084505548,-0.57631067843775619,0.76118634447116384,0.79559148266531743,-0.34701319361475397,0.62393850058150435,0.31142483847816926,-0.47485279894545052,0.040555358015643993,-0.77471631287769827,0.56654988544600127,-0.33682476021677893,-0.12806787934960215,-0.60082594196162109,-0.33171252604001888,0.7255479036434388,-0.070892956178717492,-0.45926682324182694,0.83682699900445112,-0.95889641143020043,0.58571874713442706,-0.92248536134844927,-0.59850625816330683,-0.71167277315037414,0.87764506854354674,0.46322311628569218,0.096899034727430833,0.57892849488691178,-0.46003057962633909,0.54629697450776338,0.91427067394307115,-0.60086883593832507,-0.26591379140264065,-1.0270410267943972,-0.6535136599249004,-0.54631989022865024,-0.93645231822027042,-0.48880758538088914,-0.47114088126872256,0.79244724873459282,-0.97522145038901831,-0.13252818119568807,-0.78236059330817442,0.071081146348500393,-0.44331344326560207,0.026762101661612879,-0.00707665548998676,-0.31429849390620812,-0.44325078486598374,0.46227122650380853,0.51883723541447724,0.70821368177282229,0.61872343773206906,-0.9720950418609221,0.39089499914829523,0.05949798639885371,-1.0023799938348084,0.44387094345605183,-1.0481919524755572,0.41301065054057695,-0.4080587567254334,0.62355305148678031,-0.93052517973752513,0.5809576180021303,-0.64640491300184155,0.32322368749431279,-0.86633916201430339,-0.13424960053504939,-0.90454710222414658,-0.74908776925765286,0.71610542013787648,-0.518500552437349,-0.66695407144210606,-0.92005914718140591,-0.96779577857647547,-0.12654387650122448,-1.027488373129126,0.29183510816528691,0.60707578170961263,-0.34384631237549407,-0.78610472135840659,-0.75577337021432611,-0.055750535716734308,-0.14111273143220032,0.87239802705597047,-0.86479143517429946,-0.3514683554073913,-0.11695614246673859,-0.13797621095896,0.40005017438506507,-0.41752720527924131,-0.42120877807042673,-0.46475373136518344,0.19685562770253354,0.26018009272788062,-0.71112453726905656,-0.073475270948393248,-0.20218765891372142,-0.14601324507716687,0.364773429322827,0.044242619892496754,-0.70740793314856243,-0.27329526009249194,-0.65822788949064859,0.81498692358947356,0.186803298152934,0.45094108379582076,0.632972781684118,1.0930537772856706,-0.48483083444866876,0.15507660665305648,-0.076454673193036213,-0.77383404749164975,0.52892917911806,0.3933708653316032,-0.39351987296148361,0.059085505723102276,0.45026229280773356,0.91851517209419831,-0.747216299084764,-0.33451905440992796,0.44339866571461645,-0.82106088592110149,0.0041424333759841362,-1.0154269008648558,0.33317841824134031,-0.92627563373672361,0.3894369581705916,0.10483631697193624,0.89509105165172154,-0.78930110367059425,0.44070830681613182,-0.30576564964208036,-0.63584513295423017,0.84573500724443884,-0.849511099515185,0.8427200792622952,-0.29495257090140831,0.033763039538149776,-0.079963180464967767,-0.15557878597434816,0.13736805453445322,-0.25881913686522146,-0.77764423290884022,-1.0053669519360033,0.41536159391142119,-0.7181960440797549,-0.13384673952334783,0.65468649494763986,-0.50380153517483672,0.14384123188031175,0.41594198698702384,-0.071573056326008355,-0.62388698528603859,-0.48444498879731546,0.31783932101647466,0.79715291498562679,0.42019233240909126,-0.86928997320190138,-0.68942075921633494,-0.20894620390082364,0.8639134946425413,-0.61240467404664889,1.0088978080383211,-0.86345171764575956,0.63115400501792662,1.005309370092742],[0.69591485223243987,0.42883282265037376,-0.035564008961113988,-0.49168169286216096,-1.1576002013615159,-1.2311034998531687,-0.42822638468166324,-0.11590042357680196,-0.073142819158371231,-0.5081032610470283,0.66498285553227121,-0.30445587583969325,-0.91298597552976568,-0.46897483126857414,0.3788856635294322,0.90312845383252471,-0.23995620409700941,0.024459580089402893,-0.31775536479387345,-0.43887194930187357,-1.1377159253827169,0.98645411643251479,0.099796439879624457,-0.39376751440225166,-0.86362484719511634,0.26925146424730462,0.97058162165689255,-0.395982494172224,0.17837930038273053,-0.52644665748608477,-0.20972751570256878,-0.66515254838168136,-0.46934803887793353,0.59080408008533769,-0.25927921497621731,0.55816894878020107,-0.1734884514289671,-0.95612245694699061,0.049379239254328133,0.40416658114395171,-0.86879222165621961,-0.01855373240211286,-0.024382143204621582,-0.35416556341961219,0.799097189992976,-0.48510973076044689,0.65534100882530122,0.17696910863333193,0.53121308811783163,-0.82503348687248412,0.86920516465665465,0.15057478386702514,0.28322997046842419,0.04635572309749867,0.53669646096753854,0.63552878263855384,-0.20951405006024043,-0.42495196733889229,-0.98002697953320894,0.44145472073773262,0.34261868170497378,-0.27645923704191527,-0.80329217466582281,-0.41440886998497906,0.73518562321259584,0.59241178285949281,-0.67375668561182833,-0.26639253330034479,-0.82678176850240426,0.645556276168091,-0.16897720108121114,-0.73294201208258247,0.53562016486553654,0.47959803225885222,-0.723589448368805,0.25163504954708943,-0.18045273237095663,-0.9981960084335697,-0.40225723637125438,-1.0956797301330157,0.25826316792928222,0.90871658060648264,-0.10269745858550017,0.020414578567244213,0.03940034516460398,0.4402485790898602,0.24681802206082287,0.76748646594083247,-0.93840487511362369,0.31074976142719946,-0.33572113639987211,-0.56042648192736833,-0.67339361601308667,0.71932868966406061,-0.93451013606445366,0.547143715882272,-0.64529568189717368,-0.29385197580539968,-0.13527334766937468,1.1462489523235564,-0.79081921690818879,0.15625258390298411,-0.1103877272419749,0.95927112187844266,0.57997808668529449,0.43375125003006393,0.70569927992116466,0.413764482814411,-1.0471503259088189,-0.65933707442120582,-0.18723246692436651,-0.75920388729961463,0.76217037189025072,0.88676265858495362,-1.0438308555279834,0.45995864971023082,0.92985006066123732,0.089184120831452912,0.062687719478006679,-0.98502355890256932,-0.426245553958685,-0.23918726414693625,-0.22349473423167482,-0.26236526530995991,-0.41806112149028957,-0.28202916909936954,-0.2481479773584731,-0.64685774103675631,0.62893522961245063,-0.068986633396580607,-0.221303184967581,-0.095633398174132134,0.64880900601774294,-0.23330877585938581,-0.78589294408142851,-0.54880894253015411,-0.16317250737836311,0.20976255756308554,1.0048644812203811,0.83504143520366469,-0.68489576299929911,0.49356355232819366,-0.00947603092193226,1.0502583445141491,-0.19311806591592223,-0.836444441186086,-0.32908933429652915,-0.55918434782015825,0.49133034190788544,0.16457168869921554,0.98963777944505016,0.3875311444838932,-0.33768715164896729,-0.36073412853640441,0.571717325376512,0.28635308614677984,1.04657816491917,1.1030234079391017,-0.21533627653708362,-0.31876290500221643,-0.085880143002553644,0.3225565928500741,-0.56951107121777689,0.9486430570953418,0.69557344920449071,0.97895776473933038,0.12753600669028614,0.36168605690381661,1.3375264687354642,0.93091076320687938,-0.75975158125773967,-0.38857806257601113,0.70257512631275132,0.67020223917117661,-1.1719542529081541,0.30608248267903948,-0.94773341828731994,-0.041898916370784058,-0.66938028163966368,-0.17770444579392544,-0.83602840079864915,-0.590465350693898,-0.29054824122619877,-0.38184328340288909,0.029713475234110245,0.21514123045794834,0.618265695242841,0.037480098540143274,0.56959229036795667,0.0037079720423370977,-0.82913541498710985,-0.20333866270048037,-0.70573928721578782,0.0021051829550964066,-0.22397355136098898,-0.20670625528024955,0.011528551095291254,-0.044500887711666035,-0.46410736792628887,-0.49614352835323772,-0.022881911000754616,0.23970819706240423,-0.90138218323441532,0.31218566954827148,-0.77359067923229463,0.000668086332545069,0.68390310038367641,0.0037067438140881586,-0.8661596321432935,0.91097875585845434,-0.210669720716395,-0.10304342429348783,0.39356014019301877,1.0128475499709433,-0.55217761047511282,-0.21910606632896484,-0.61400577450591032,0.56876794671781894,-0.10903771214717804,-0.57584561237952714,-0.8223986624011006,0.79810100645954418,0.78357578191190314,-0.0805119233291452,0.68670323196015892,0.50483731247081964,-0.79585308937907173,-0.38830962304823763,-0.23782244758731921,-0.092761047258763968,-0.91836667982485709,0.072814887648654861,-0.62951515925767187,0.7646985296771891,0.72136822762086827,-0.25068456202916839,-0.45608907326121195,0.5703952185725697,-0.8966790837265517,0.81982593776078327,0.38367205414265293,-0.41731787301759504,-0.015241304645631591,0.62369061710461937,0.94825398392662874,0.21718954022326811,0.48705185682234475,-0.40045230027455692,-0.15209187588983128,-0.36230125314970907,-0.42385461807705888,0.46363790021885709,-0.6970737985346328,-0.58813109701197119,-0.61551250698514492,0.30153738287403814],[0.58924493049450222,-0.13365712182274836,0.11763959855324759,-0.054823905651880611,-0.12989053640819798,-0.029685684302771166,-1.1848543885686051,0.3523249804021637,0.71065828509808315,-1.1562881552873865,-0.46315264171635556,1.0454350129526182,-2.0189583377280949,-0.042995127528182242,-1.1525293587368539,0.43514608121073611,1.3923997342403871,0.607034381429289,0.19065257809774816,0.44918435447564509,0.2486171830987311,1.0167999156446723,-0.13315683655041333,-1.192301273807179,-0.35430099284306155,0.7875831435591697,0.33792863804144563,-0.79184560216604283,-1.3241009867526157,-0.45580975611169156,-0.70866992420817765,0.76799509321823145,0.37697163040509962,-0.41682548519724388,0.271307416926357,-0.15281087272528321,0.52261128152137526,0.086850115186598367,-0.063524280414122641,1.0849946110260251,-0.972192175452812,0.82652151531449314,0.927780127813399,0.78373733294894166,-0.71106084780067658,0.78734924938566508,-0.5643560647001219,-0.074658185940556426,-0.46361350517171862,0.49568871293746009,0.94187140958146276,0.38735576866166127,0.90693815870364958,-0.30478588115588046,-0.58310848777776636,0.751575070664557,-0.33583004962132856,0.60474844730715993,-0.37733273762120856,0.26558599787149767,-0.54800683974409858,-0.633416136440842,-0.38771484801229139,-0.10998831083803334,0.2779414350590228,-0.33160291993975877,-1.1091873607175058,0.44403384037446791,-0.15409130706810831,-0.12398593053555658,0.134488918148582,-0.958648611551632,-1.1192712046315656,-0.39168771231054178,0.21147314102976214,-0.21599402743493912,0.84453941686380019,0.0427355989929532,0.70193270138942077,-0.83473456203814267,-0.010386500517767447,-0.8422482829003709,0.2043908199715499,-0.545491328989929,-0.43367644356238239,-0.10458418113402558,-1.3068977799724941,-0.26229854732594343,0.78138504115959129,-0.068763026726848753,-0.37497196447221381,-1.123866640266906,0.15719515410723384,0.21369520891225174,0.28636389563491632,0.53305638387689935,-0.69576714451418276,-0.993790003247796,-0.65618438893875386,0.068596554043629826,-0.17098401474154321,0.45204051202265094,-0.79034558296394608,-1.3351841294799351,-1.2453699724333633,0.61633208425880237,-0.16245568245872225,-0.76496970322201929,-1.0959931506452474,0.12998644983404592,1.1573687460110254,0.44681781958428352,0.1230931354688595,-0.42911301094246723,-1.0909863105948732,-1.3979925274212861,-0.21304922935073267,-1.3085472898964539,-1.0668638882447719,-0.78631263426343279,-0.30177068548532904,0.65251849922821881,1.3517868135368196,1.0374883208880474,-0.41963707845866316,0.88244178055310984,0.98492121207290861,-0.36176364840886621,0.93745439881321724,1.5134461632976635,-0.19565251499980782,0.48476822400968506,-0.0056237177899979736,-0.37034598259155171,0.24996806681781519,-0.24164097436696111,0.71239099289145191,-0.17009549083350578,0.19647874212181371,0.46589296137553249,1.20681686697191,0.61552861748247367,0.51306401427719883,-0.60074389238949466,0.89782553854690317,0.68305144379992355,-0.18280915037263093,-0.68991599071518961,0.42162710531230024,0.29924900854205333,0.88554181723864878,0.36206302436173243,-0.54006143305453957,-0.75748733084900077,-0.07301351828518729,0.43436784267787243,0.052094583846941607,-0.21854797682510527,-0.678419684236312,-0.31911899890187623,-0.9700284889456805,-0.41617515598098648,0.24300524232090429,0.4929718620198289,0.39899618449150454,-0.52212944710553078,-0.67702514114974255,-0.13875380032159765,1.9434252665246392,0.84521421292975607,-1.0433038796001488,-0.822564460638233,0.52521945707362139,-0.1763239733835156,-1.158710575054817,0.0040383805143432228,-0.50354182459116958,0.70571108051894149,-0.31020653371927931,-0.89178845355214842,0.22652795200749806,0.86063564981579188,0.96567728725308033,0.98623569312270665,0.27172836077951557,0.57545981265254254,-0.53257973027213379,-0.6069544901799544,1.3062958315713968,-0.003411656426013729,0.85565008690481337,-0.40211195123101423,-0.87317714912259958,0.866159805259053,-0.082538237174464027,0.013109333454387993,0.63353304451871473,0.64077575574846513,-0.18845000683753543,-0.90494175083044,-1.0008777145201848,-0.060035038499228671,-1.0108829237093127,0.10688980372835226,-0.46379097536544173,-0.61302246325946474,0.52758063790413223,0.49521478256783019,0.77021558333242157,0.22160758673979897,0.72150754169602094,-0.44378327161086578,-0.760064623305102,-0.51812307916913869,1.0711969554809371,-0.61967495864711863,-0.30579422304182236,0.3692309411653395,-0.28066748226211552,-0.15646866551862865,-0.72443246836658992,-0.38883965646266166,0.97947156700580984,0.77843804343286582,-0.91315116795461759,1.1446449835736705,-0.49753056841258708,0.63887518030122781,-0.69317453917020033,0.055120882489089029,1.0949010455440362,0.089631403417014047,0.32634655059751283,-0.045426482743316537,-0.55951025848860136,0.99463776861448439,1.3094627058612034,0.31159642159349127,0.2189016767285607,-0.69148948404828781,0.59680208787439659,0.13250786961681507,-0.22277813935501858,-0.099838893406680784,0.42120099377424774,-0.25682469799177104,-0.70912933679919621,0.90616746187399211,0.9336084754427818,-0.44052289478730605,-0.61254132229082492,-0.9051319292184532,-0.23495958858232405,-0.53908783780034542,0.75903867253971713,0.71455943540238775],[1.1193006309077473,0.15352125854316384,0.078226412601540785,0.027793793656913073,0.99420465803023983,1.3335505789896196,0.2007836488593189,-0.048713773193379474,-0.034975602055590312,-0.36303851467491854,-0.67202655276025347,1.1170502628986743,-0.89880371441638407,-0.39211892918458108,0.24395470178277739,-0.34282328179964705,0.0046493821519645586,-0.49832969085406204,-0.19244085197086805,0.16531938490955675,0.56417333952152626,-0.42819180596607775,0.6096608979014243,0.23638554103412948,0.1955232404451426,-0.56152719868939227,0.81845356993361329,0.71351706838962825,-0.94766034761707141,0.87051607566868683,-0.687715857051852,-0.51453188875817013,-0.35610078336244672,-0.636679403636027,0.82264836703377,-0.34778940811877396,0.57123409201822162,-0.76132375102484318,-0.13736165842781217,0.74048576341726224,-0.89093927100820547,-0.98895432357522162,0.83074845034039757,-0.021166833640880633,-0.23110009463332809,-0.54001198156818842,0.75582786449983,0.80459239407652239,0.70022602005401491,0.83984933389350092,0.47891828288312943,-0.46784710391754258,0.73228389855314968,-0.59657022539875926,-0.904064849382019,0.47490895689192608,0.18965517577431826,0.40117372098721749,0.22171157854866433,0.23840655493928165,-0.73758964146496708,0.21323759824950284,-0.86598447515459387,0.17594649590396189,-0.772033668005872,0.45399304168698923,0.21371447621921294,0.830577634031598,-0.61830040366522732,-0.81213796561192109,-0.13483530598333984,-0.62056373559754052,0.42543975417425894,0.028197892745899674,0.20346657607003885,0.48994245089936656,-0.61207070924410478,-0.34379015379607186,-0.22545955321464817,0.18150939004282948,-0.23284706344661119,1.1318474601156434,-0.71784186147417239,-0.34383596672226313,-0.69202781794624957,0.61501013747508981,-0.27426483288180165,-0.8062595179859483,-0.806677773271061,-0.78517735889372431,0.58264073336879019,-0.7653143409440657,-0.097253660987552032,0.50044456256797643,0.42215225482572072,-0.26424108788855738,1.0594041368357285,-0.296700771149919,-0.26013837084750063,0.32479803100399135,0.025064558574456084,1.2071624964987584,0.67730467291303786,0.20760815883744505,0.17562759783519577,0.50734979909178712,-0.1054343848146229,-0.92904114198624543,0.7851324989237628,-0.014301313213503039,-0.34515293551272741,-1.0398234018620995,-0.19092498644089714,1.037418699352352,-0.55858255261491019,-0.81477557980983539,0.50060241920764947,0.70693491004065168,-0.048180500832356886,-0.6169176960267323,0.012629714979550726,0.28861573323317308,0.66889193793717872,-0.97905015031952858,-0.19186910290585271,0.15982380452080938,0.4485535937036198,0.743041235883899,0.71468000277226384,-0.617631044732767,0.65781329670893807,0.85948773769029541,-0.904801788466211,0.58657622804992482,-0.92423475681882072,-0.11402108847152685,-0.46544501187420834,-0.54556240929205613,0.5970683215027901,0.11499929154124337,-0.3550703173595578,-0.98610962095322707,-0.16447936642523686,0.45468473559770778,0.20890984722436928,0.015141133977739479,0.40553130127370574,-0.28548587134857506,0.0054655002603283551,-0.23223293242223791,0.50007743321199938,-0.51313118068730768,0.60576445107772148,0.95071417477686126,-0.905443228272622,0.72178904745173711,-0.94486663525118253,0.16727500887532679,-0.36052040586836631,-1.0032623877432105,0.51563161423857207,0.085855831339017058,-0.057012774020306564,-0.065711732003244511,0.15279485148004676,0.0099019526498727618,-0.71319073053755855,0.056069347235888668,0.876315947471403,0.3824704610722876,0.81821821404353179,-0.15405765509446187,0.81223694109050371,0.66598253908357685,-0.96030418026927133,-0.17364500935700664,-0.8268040101027847,-0.79539942324591206,-0.16315061234039494,0.76098337404947292,0.48348568675611481,-0.41974287123705051,-0.23570582465105647,-0.26108286008385073,0.0261798670310678,0.39311595046844766,-0.87144989853750676,-0.93619211580897987,0.39598444963558382,-0.78735656094382966,-0.42923639336342173,0.29663954223314842,0.83615994439521235,0.6472526589614721,0.587973713920237,0.502634406279281,0.039499328873644823,-1.0312378888608715,-0.48630742960901813,-0.87121458923343253,-0.42560643837007311,-0.71509714648956213,-0.05077686134039535,0.50828284442590765,-0.039400477365934078,-0.36380800794452989,-0.63019787471795141,0.85160287296407489,0.834576237925418,0.46778131195481543,0.75805518814383654,0.95265300337930914,-0.80934196239120382,-0.223957124807391,-0.49853040293345352,-0.25904040329116673,-0.88292184953289621,-0.92641178877801611,0.72382048730579751,0.33789366547783667,-0.17512868585826144,-0.75878521305508584,0.51646006869065209,0.51935162110619326,-0.062727398941111942,-0.51395054826167774,-0.28606163380863187,-0.91096077703247158,-0.83393157629323644,-0.47164157197466389,0.5421474394581165,-0.82758056648549083,0.91227047452579857,-0.364110864358448,-0.005755123408085358,0.12303155057096117,0.731982653657846,0.16865991991610119,0.594767718342788,-0.6673571903758011,-0.049066480386070942,-0.77327874432436061,-0.77273012559455589,0.8872957731749459,-0.61687352497378423,-0.22549973853248542,0.15707848309110498,0.1000369857233103,0.17644921850425246,-0.11868815664025435,0.4052069843951715,0.082156373412023712,-0.76344524036604033,0.075279591235517293,0.365363472213443,-0.52418375676348461],[-0.21484916241497015,0.4173516452872415,-0.2008312920397331,-0.34236552524266989,0.98347795540467287,-0.48721942549091235,0.8735100755791364,0.38267799356464915,0.95980227963338449,0.53946220541674672,-0.73099874241690666,0.52869296730810822,0.73204029547629479,0.4301204615602876,0.2608044874760328,-0.0064896047446853381,-0.32466405467708204,0.87233060069190316,0.072035393902507766,0.055469914062722364,1.2232426465812096,1.1671034090731554,0.43460037274783359,1.1807421167654528,0.55133536595260868,0.95462793155131376,0.22166061816016972,0.44218247567280367,0.66310452113083973,-0.071199135373607308,1.1693011660390533,-0.17754942256781073,0.35284279893485637,-0.26166378641797161,-0.45885277671747737,-0.55880194904744229,-0.50115802191599834,0.289427407060978,-0.41872447530363588,-0.39393750023025348,-0.63072640214290154,-0.032208978388795773,1.1181713617139442,-0.10263608947167435,-0.28989745176332632,0.79170534993915143,0.49104012431912092,0.79537840931673687,0.72675823032548459,-0.52611667930275385,-0.22868429741605867,-0.21844890396422115,-0.37306262167523613,-0.21423427057475158,-0.44248588452118282,0.030919426769250833,-0.81335859738201632,-0.15932722003982264,0.37815350770980771,-0.755978997723014,0.74031968568771966,-0.1546736228923685,-0.600812680818428,0.42927007361556913,0.57531363554794412,0.39049643505269666,-0.87761891779234757,-0.036775423237557954,0.020980942497564412,-0.16805389762927478,-0.58709187197322643,0.15247463392063043,-0.0582691663563999,0.88345060869350822,-0.83626768121914108,-0.024478206475184023,0.664090298433973,-0.72833407622052193,0.25904484446090209,0.53792173306792479,-0.7593729607265971,0.12505350697831011,0.421173224110138,-0.4557762236875682,0.77599093266829611,0.14558150769023784,-0.88664293839534036,-0.33307685540540533,-0.86861155662373912,0.39180052420001377,-0.89180250907209158,0.61528655343104643,0.69367462649619283,-0.86731176186167624,-0.1546716215291776,0.55754885300679657,-0.39053020720784215,-0.36088752355285264,0.29650929737974779,