{"Descriptions":[{"width":28,"height":28,"channels":1,"filters":0,"kernelSize":0,"stride":0,"padding":0,"activation":0,"layers":0,"neurons":null,"fc_activations":null,"layerType":0},{"width":0,"height":0,"channels":0,"filters":6,"kernelSize":5,"stride":1,"padding":0,"activation":1,"layers":0,"neurons":null,"fc_activations":null,"layerType":1},{"width":0,"height":0,"channels":0,"filters":0,"kernelSize":2,"stride":2,"padding":0,"activation":0,"layers":0,"neurons":null,"fc_activations":null,"layerType":2},{"width":0,"height":0,"channels":0,"filters":16,"kernelSize":5,"stride":1,"padding":0,"activation":1,"layers":0,"neurons":null,"fc_activations":null,"layerType":1},{"width":0,"height":0,"channels":0,"filters":0,"kernelSize":2,"stride":2,"padding":0,"activation":0,"layers":0,"neurons":null,"fc_activations":null,"layerType":2},{"width":0,"height":0,"channels":0,"filters":0,"kernelSize":0,"stride":0,"padding":0,"activation":0,"layers":3,"neurons":[120,84,10],"fc_activations":[2,2,3],"layerType":3}],"Kernels":[[[{"rows":5,"cols":5,"data":[[-0.65559713217310289,-0.89180503411994494,-0.37546666840391263,-0.61354937363122053,-0.85668012262465487],[-0.23992504383673968,0.21708158712419562,-0.45652454626051836,-0.16946044787515291,-0.13876475014729417],[0.52522476777210658,0.24318739864889163,0.0017511301320658787,0.49166313889730945,0.14553422353691822],[0.74679144013198273,0.56105860250712558,0.27300574325927573,-0.033199608682940328,0.95019521977187071],[-0.80318779233593962,0.046852578771646114,0.43265692370710729,-0.17847775234605948,-0.17389321218526119]]}],[{"rows":5,"cols":5,"data":[[-0.36005952207157449,-0.98030436817431477,0.010025694629791906,0.91291418417578951,0.37300413801899485],[-0.21638346135323883,-0.50182834281575028,-0.943424355835396,0.6634177256190642,-0.42007530514344488],[0.73104756994056386,-0.89664175387747236,-0.41504915495624234,-0.40104185237673029,-0.987185880636169],[0.92495336191750643,-0.7496702380278818,-0.77783540789744054,0.95276799046630367,0.12686990898419212],[-0.28333544229858942,0.9782848654267231,0.46972621962659256,-0.51575232853713515,0.3067292596056736]]}],[{"rows":5,"cols":5,"data":[[-0.59654753463020826,-0.40896434723217151,-0.888616281778921,0.53282553936169441,-0.23580583929675009],[0.28683713393750748,-0.348925784198671,0.761007973368268,0.51063075084191523,0.45483710496395452],[-0.26424842185919928,-0.81134905514826028,-0.40361666183715472,0.41457171508691476,-0.95545070937546828],[0.047822315131193359,0.19187058929731773,0.34105039636346157,-0.088926904060162154,0.42469798049165031],[0.64289521240226843,-0.021867454069060623,-0.31008982256753642,-0.0352921105539243,-0.94824867319647754]]}],[{"rows":5,"cols":5,"data":[[0.94987042645648112,-0.17639244660843975,0.47523589948921208,0.69359101341202645,-0.86540439480709],[-0.32799314056701945,-0.4539168881032809,-0.48716157067485788,-0.40893737518858675,0.0014938073745210841],[-0.77716344357750544,-0.5989762876813306,-0.47793674653614926,-0.10434112464219358,0.3137080445490214],[0.095276649015010886,-0.65471122662285153,0.0770308381742953,0.13672902460030265,0.29746673853761757],[0.74756803107821035,0.65526263161439,-0.18807031535329835,0.92620044692919845,-0.89006193453682814]]}],[{"rows":5,"cols":5,"data":[[0.51394160004814271,-0.38430729006681247,-0.43707132738479282,0.071473396562807281,0.67660454017736571],[0.37816867514543584,0.86151294120244581,0.13522234905710062,0.49740123811995129,-0.15638723051684914],[-0.550708141947021,0.16239131561624487,-0.89492961650803982,0.42352264673372852,-0.17531514760221456],[-0.81019320964584751,0.67230114452733192,-0.96473745654620724,-0.54567191881087651,0.85859723929228182],[-0.34285616131566121,-0.31723668971718605,-0.51686732669278879,0.63393019082584179,-0.63480689754441322]]}],[{"rows":5,"cols":5,"data":[[0.28246291643738652,0.89946096035412926,0.55970476986994555,0.67118251219112568,-0.694514317289495],[-0.72732600596781061,-1.0093901815668722,0.52962910977474076,0.558781934193964,-0.40526005759466882],[-0.97813044285218886,0.95877205738437443,0.41539023466056735,-0.10423021353804512,0.58959843469240092],[-0.68571186443336918,0.23678463775122821,0.022791386081660113,-0.950396324426116,-0.16868739171401614],[0.87749531624419741,-0.78212007739544576,0.658998244420916,-0.67981279599741284,0.072334224144448817]]}]],[[{"rows":5,"cols":5,"data":[[-1.7323018370193055,-0.650109202416839,-0.65977188503375239,-1.3292019665456025,-0.23989018163984183],[-1.8238048625821743,-1.2624345911392643,-0.35564046513832775,-0.48900223122351472,-0.70764137375282876],[-0.38194215316813768,-2.0133904789845447,-1.3493643988999249,0.39151210869554215,0.016946792316553883],[-1.355063146953817,-0.6892285413001682,-0.53123351829097243,0.69202564756145069,0.61442767096982176],[-0.72126644105655491,-1.3139301129278607,-1.1387404613403347,-0.97418069214692071,-0.037893069200214881]]},{"rows":5,"cols":5,"data":[[-0.50613163978722686,-0.16486103992883291,-0.33082274729576111,-0.6713997086894451,-0.56049163339368568],[0.43212178423363296,0.075404733031612062,-1.0479418243643777,1.1378203147293933,0.20391831408718256],[0.20676087380170732,0.20855365323654138,-0.68242479900923081,-0.49475144958663314,-1.4601475021281076],[0.50620181879227755,1.0763573462216185,0.41600583962232546,-0.1639852997276208,-0.8184355856846619],[0.010807963891325654,-0.12710273699667496,0.30745375604718617,0.41002667467681758,1.587799449241674]]},{"rows":5,"cols":5,"data":[[-0.85606169112554831,-0.26038338758625029,-0.17363904265273861,-0.77462700946056284,0.50685214857027783],[0.7552142572344378,-0.736196047145361,-0.59920718967934872,0.17331554557255238,0.36428850018758224],[0.66155930431270915,0.059674329173740284,-0.42103873458532143,0.63265991936068522,-0.16251020755618451],[-0.38060742227401778,-0.74135898426935176,-0.19077614953540037,-0.1083541060619618,0.29105823412748816],[0.63712007362968726,-0.51347996771727766,-0.36450135908771203,0.30755354288255315,0.45921347324805151]]},{"rows":5,"cols":5,"data":[[0.0577419963970079,-1.1961060172920666,-1.7194563637118767,-1.2233147215896389,-0.11056601949020434],[0.049323017620074794,-0.91587192550660979,-1.4909299599397161,-0.90695948759767475,-1.0684733448616139],[-1.7036110609385109,-1.1074862289189105,-2.016347356535042,-0.53522316008957171,-0.6824685607203258],[-1.5657029366569231,-1.4773692983585329,-0.81047508349862374,-0.82981565801155865,-0.51398359635506652],[-0.77327374113688929,-0.42549926138155314,-0.19954740277070523,-0.24271672093336044,-0.96785249283009767]]},{"rows":5,"cols":5,"data":[[0.99333424684938,0.46276930488387025,-2.0380836027953317,-0.74928704539697444,-1.1522703294525751],[1.7052820109929006,0.3485599386772093,-0.59224690398227342,-0.82146883737503418,0.092808297070011009],[0.21012472379547345,1.5620352231098398,-0.5570734278015631,1.4702171630106555,0.81267982295892416],[0.55390184852066893,0.80013924837194994,-0.27351816739124868,1.3959977806270141,0.5637875109328675],[-0.10797834250782526,-0.34682530642099607,-1.2524618622006614,-0.7506367605470331,-0.64680917116790781]]},{"rows":5,"cols":5,"data":[[0.75775183937433066,0.87318672596546543,0.8923463152524036,-1.7391917122021452,-0.74503053677670328],[0.69875207113279014,1.5754343946127871,0.22752395917735171,-2.4907459342571587,0.510998658688545],[1.1779919083451964,1.6416278614909559,0.077936524377525962,-1.2675472008418736,-0.1619429209646259],[0.64998411780689525,0.83816056740848432,1.0860495883056218,0.31822491871972597,-0.053467854488419606],[0.062198007747337289,-0.69386151710127664,0.53930092637341343,0.14622147029900989,0.20826533662605776]]}],[{"rows":5,"cols":5,"data":[[2.0512126983650663,2.1535339391584127,3.2612772677294868,0.83601257427599451,-0.436022314420157],[0.23700789859065707,0.38143680085312687,0.98563532947596677,1.4154309469425384,1.2346489864243118],[-0.36103425954680762,-0.15522444511154229,0.48134193030056577,4.2278040211941308,3.5486285455151854],[-0.14541066422561841,-0.7516718482757897,-1.3925438513615915,0.84403905994197637,0.21083981786495346],[-0.81138898700975748,-0.471126403628171,-1.7969283421066664,-0.9171333778652061,-0.77734568619096678]]},{"rows":5,"cols":5,"data":[[0.33219865689673483,-0.11918921947920948,0.27189685322297369,0.37795419798685564,0.4399962599872913],[-0.14121227245749626,-0.22090672319755478,0.0018283749131210445,1.7975638084100607,1.9342729110741974],[-0.51749754387810265,1.1816727045041067,1.2111267189341866,1.1120386721052629,1.8620915183234565],[-0.11741648798870071,1.2812870310607989,0.387795821483555,0.26740303024165085,0.8643969409021045],[0.6792205251907496,1.0981120920239385,1.8392677874856056,0.02891758595947877,-0.0082082447287063851]]},{"rows":5,"cols":5,"data":[[-1.1094315610853391,-0.5986389988356039,1.2133999372122,0.78767630844570846,0.31836915300399471],[-0.15510575282927039,-0.67175126840561517,-0.58816266506974346,0.29449909892258608,0.713055633295427],[-0.31704867138328341,0.21054823606569037,-0.73870591283518117,-1.4411071534175648,-0.65409970376089854],[0.15841614033255674,-0.18353826227321812,0.27774733884901248,-0.5146870482150131,0.15563325368417991],[-0.64364016669653623,-0.17525796481888797,-0.22157262515438911,-0.20926049072157704,-1.8003944256140583]]},{"rows":5,"cols":5,"data":[[0.77949255212081314,-0.14330653853617006,0.16446585669307279,1.2479140801942059,0.63593346126089523],[-0.40119111494303927,0.15376019748578548,-0.9168897661880846,2.4156401241734393,2.9030748672551097],[-0.30863558743783936,-0.39748728023925112,1.1167267861066443,1.1337418910726993,-0.014605638989492003],[-0.63277577624389669,-0.60648677909094817,-0.38215447326190671,1.1679912809250532,-0.081358527725179458],[1.0253224566539192,0.18436211802845356,0.8493692305296594,0.75897271256531673,0.65955534268423333]]},{"rows":5,"cols":5,"data":[[-0.87710310013214121,0.13413599946892374,-1.7797120967659879,-1.227406555153101,0.058877175745471785],[0.73420010315921069,0.886043908035122,-1.548725017930642,-1.2987331002591156,-0.1807747151113914],[0.72095475228277273,2.5028270436439608,1.4878148340259441,0.69979631230872541,0.68999439960539888],[2.7522158207163914,2.9878079581977426,4.7249597323288866,4.0268891308344079,3.7617045148226897],[1.7452156665626601,1.2030680678031713,1.091140428385587,1.1700901587605412,1.6654308518291932]]},{"rows":5,"cols":5,"data":[[0.56978294103424287,0.60197577524867318,1.3640765653267319,0.58557799170506064,-0.4772324130106998],[0.3274427243866031,3.0006185868324358,1.391739409968098,-0.56007968890747617,-0.37178828429400568],[0.46583054254455036,2.0973259267870588,2.6066754244849077,0.90149868304134617,-1.3987055450323209],[1.9723250676482238,1.6703974750496893,3.7461520625709919,4.273654443748617,2.2460089595006334],[0.43635077684599788,0.40782878944265438,1.8488741190552653,3.0386593855713349,0.650793099707004]]}],[{"rows":5,"cols":5,"data":[[1.7463377100661606,2.2481877466161264,2.7241030364563219,2.5183628135477192,2.4421571712231231],[2.5067030730246453,2.3817574055745925,2.6497735705243817,1.5789028563073702,-0.088645956278251614],[-0.31267269872481768,1.592857501539396,1.2842281671980065,1.38072701720919,0.38708664344857385],[-0.5521039092180855,0.00077790647334788213,-0.18475629951696404,1.0704113649685512,-0.29533413939229419],[0.83773636409217245,0.61992071419503714,0.52042609146160668,-0.08507598657645446,-0.863421401479905]]},{"rows":5,"cols":5,"data":[[0.91127165535987065,1.0290738225331026,0.31815636827954319,0.72538275269753272,0.14577590387316072],[1.1281919988918483,0.64176750297590257,0.28513803739484883,0.74037971344217979,0.54387063731862184],[0.89142777907602755,-0.6527722285279,-0.070817890629562,0.047008051616269676,0.52392279471391889],[1.4303917487681281,0.070194660477469958,-0.69876360469916277,0.81624129646952426,-0.75733236574771834],[0.93189864345575524,0.13146136013869295,0.727674305989709,-0.34456580844584656,0.26990482535042482]]},{"rows":5,"cols":5,"data":[[-0.81775735555532869,0.487506538086648,-0.59736060038628347,-0.59143068897830575,1.069820643361042],[-0.74085305641907284,-0.3995553148495079,0.29108013271912336,0.61842948033781919,-0.84572849868037625],[-0.3256567956228949,-0.048543166729015194,-0.49645426495467249,-0.61905126171770752,-0.62591536362203859],[0.03061096677183205,0.158918099294213,-0.83164857871808573,-0.798378624704282,0.432980918244725],[-0.82378206730183623,-0.79927423059389691,0.8360841526027103,-0.86585584113703373,-0.36432211677693183]]},{"rows":5,"cols":5,"data":[[0.5574354870551621,1.1475738322372757,1.5376987098913795,0.61981845825154114,0.099201287965902163],[0.053429025325844551,1.3934556810968481,1.6637406474121155,1.622698045894005,0.20581484610991777],[-0.0676191710512737,0.44915746312045046,0.090670204709243307,1.4944679787565005,1.3848870324075628],[0.81263323485748673,1.2029369925189972,1.6425255018834017,0.59277190091339,0.5430400739647705],[0.199369770493823,-0.512781035577747,1.0442687936434472,0.5096959981476491,0.364716958740934]]},{"rows":5,"cols":5,"data":[[-0.4963857226307708,-0.45000518449146309,0.23973138661594515,0.32155186368354194,0.45235830042924552],[1.472471486499686,0.85870434330669931,1.3638118039583549,1.0918625342030792,0.962608138122424],[1.018215759558432,1.3560815773411641,0.8619148427174258,1.098093920875574,1.7525796391621618],[0.25709443653666147,0.62355789566993891,0.463987712180554,1.2357191820009821,1.1781887927357897],[0.42259201731746254,-0.71665302170534984,-0.64330208123204391,-0.26488424524608023,-0.90877217856368953]]},{"rows":5,"cols":5,"data":[[-0.57532230480767832,-0.30483035310594736,0.018736269640385286,0.26067199633187921,0.6613602764927744],[-0.20898912673117834,0.83543532629505257,1.1211041213143009,0.923432883210456,1.3869311772081263],[1.8047227854184813,0.56798633207828153,0.288924465474529,0.36832469511676019,-0.12671946406466103],[0.9941376335883203,1.2309954844242819,1.166072149432277,0.15251274375443652,-0.49060219595865784],[-0.62418974298401808,-0.24043069291307448,-0.32607287001479385,-0.36551749501745173,-1.4258236415453898]]}],[{"rows":5,"cols":5,"data":[[-1.2068347387576988,0.15842113317878906,-1.422567284618165,0.46029973395010348,0.41461560085965876],[-1.0527574611251289,-0.857837388089609,-0.73275658534513477,0.07107047332087725,-0.37752150990985645],[0.55267638437357747,0.055516993656960237,0.47270403447002096,1.6514105676508615,0.38075951916879608],[1.3048426580942114,1.184188257670743,1.5385548276839645,1.4680234998815995,1.9046846396783661],[-0.99232023176199458,-0.785088616645573,1.1548887440874991,0.28235194936375241,-0.45014480013014818]]},{"rows":5,"cols":5,"data":[[-1.0030401215596612,-0.1979437577029789,0.2677535275703572,-0.76681740306970869,0.607421519712636],[0.49320419941371108,1.0092348349237288,1.0952948431627076,0.27916173804578409,1.105970784307492],[-0.040506382965019044,0.65415562024763907,-0.27927344607053933,1.0329242608992268,1.3449258606001235],[0.41201939247110619,-0.54511316465431425,0.90021365371775286,1.2989014058531181,0.62728637218182692],[-0.19265061953103044,-0.29743836943731317,1.1085922988516128,-0.0090124174455637855,-0.019707849444194729]]},{"rows":5,"cols":5,"data":[[0.44400507695986263,-0.449617568554451,1.1140770812377927,0.52548753511092794,-0.87609790046859126],[1.1286608662259299,0.7578420378105738,0.043601912256806631,0.33301703170994357,0.585112464736336],[0.39788015353166345,-0.0439992722601529,-0.88434527457148426,0.37550535548076941,0.53654079862519166],[0.5053665975876912,-0.64654105738565615,0.85511303176194842,0.89458374423521192,0.54672070737999434],[-0.78860374755171259,-0.12910368048430088,0.79312296707812713,0.2561444337991301,-0.81892773559474619]]},{"rows":5,"cols":5,"data":[[0.94159740779417278,-0.66840681701525162,0.70894035387431986,0.6582665150637248,0.45930283980702669],[0.36048140473189805,-0.021225180538420936,-0.0037314940055056178,0.78673510304649241,-0.1285322855892459],[0.29843856772329125,1.1859668851760836,-0.20762368724954025,0.45987570661787486,1.7017434873413038],[0.14730477590771721,-0.72395495105924612,0.026891171389774194,1.0784016924655653,-0.42655880998909612],[-0.6736824755569083,-1.0126480024316991,-0.87866776850709671,-0.11201701124988522,0.90417007847040687]]},{"rows":5,"cols":5,"data":[[-0.57414569825440165,0.2387490463291706,-0.44566995196133075,0.9429934982722088,0.16607555272008892],[-1.0082975565191612,-0.620756413051241,-0.05249061984695072,0.44257097842780291,-0.72164151682470778],[0.017130134480376223,0.60859354066295079,0.24863162834062402,0.72194209298902046,-0.77367584184295746],[-0.65826545125853375,-0.60226511025470275,-0.22801843173038083,0.16148192563813751,-0.6152214254735785],[1.5307849100459623,-0.37408267973180093,0.23158882895957725,-0.31701981500474219,1.6417563643494679]]},{"rows":5,"cols":5,"data":[[-0.8093989281262155,-0.46182607166386724,1.2910356146218851,0.081750232178923993,1.0510800693706681],[1.0610689731490428,-0.64051239713779029,0.15776935432031097,-0.77734278877831309,-0.09092797132944247],[-0.6924133948400093,-0.54996997672945458,0.12744083691306918,-0.93280903997133646,-1.3469474926108864],[-0.28577105530159852,-0.27473138955214166,0.1427954150963158,-0.37353768392151077,-0.66995150666748327],[0.903270694886947,0.25310413723328229,0.362577457615486,1.1537552064280727,1.7432032084173472]]}],[{"rows":5,"cols":5,"data":[[-0.80859794854038414,0.404605523150808,0.313012693251314,-0.30679478517253356,0.94486380618980148],[-0.27442559285175105,-0.56069999527385062,-0.85858685256270417,0.4444778883271428,-0.26154031140490319],[-0.58816910887445373,-0.31942038063091055,-0.70334203650386218,0.80811864340325879,-0.53132828652925557],[0.35326746246632695,-0.15200748820246104,0.45548354867803004,0.046520119829129535,0.9718121944036695],[0.76630478892920861,0.064069414868254126,-0.9208926268275146,-0.18090311482588861,0.27693924626895078]]},{"rows":5,"cols":5,"data":[[0.018013900370642644,0.052456283708842082,-0.83965221115160127,0.78623723032931747,-0.39922956015373362],[0.23837558266939887,0.20374142898807682,-0.52495854969543687,-0.0765949429540571,0.79169655167475],[-0.40367450102216834,0.1522615132399345,-0.3482047911950083,-0.77794395585503917,-0.70141428768272007],[1.1135708624717577,-0.1615337883635859,-0.9392406609798033,-0.96569930039402907,0.75493161163825462],[-0.6993148402685152,-0.14359380289511703,0.39463050425308072,-0.48040884771309161,0.120590888408154]]},{"rows":5,"cols":5,"data":[[-0.11840632858907357,0.59044625301607212,1.1593235819281829,0.61286980075485264,-0.60960409540252525],[0.13018886890721226,0.502075804040193,-0.41141288440179241,0.33172482450786062,-0.0073927997045523325],[0.75670904370864422,-0.64402637198875035,-0.62773172027687663,-0.084802902513314529,0.58591839783805533],[0.35812960112559739,-0.74313116351115671,0.46467836400727613,1.0425225778727922,0.85536408010098119],[-0.72527549049325235,-0.75521590282665974,0.26472036881297506,-0.17765106823545043,-0.89023605551310225]]},{"rows":5,"cols":5,"data":[[-0.076819943083158759,0.063375482293369589,-0.9125440590091024,0.11226425122753146,0.27337765482958826],[-0.81211112014583675,0.58085429273368072,0.63122004393967435,-0.27829823313268015,0.8922534803038854],[0.84477984789708371,0.1549691030318156,-0.083327941134631739,-0.461015643357148,-0.38995326873676561],[0.15402677299471471,-0.44019079779650444,0.32742144448329363,0.29946448478688209,-0.34630007561110049],[0.77448269477349418,-0.42734464380735665,0.29275537875789764,-0.42322745478270007,-0.35960089886100866]]},{"rows":5,"cols":5,"data":[[-0.86741458117757675,0.528013451691769,0.47309562748667822,-0.23085146916499022,0.22536610647898536],[-0.25417958989013451,-0.7605932821236786,0.25112356620232468,0.51611001725487293,0.50376529978822737],[-0.89503597566959148,0.30947079789266124,0.42305305151443023,-0.96371084322049883,-0.22835829525467724],[-0.95245466275766244,-0.41562560797784348,0.60361370355969834,0.10164452640124076,0.81463296161425414],[-0.98565142657682159,0.16099141808579087,-0.24114220153332913,0.4206845376310131,-0.31698039177958109]]},{"rows":5,"cols":5,"data":[[0.51293740601211635,-0.1638803572681902,0.9765129042873355,-0.86687828097273611,-0.60197766543923359],[-0.80730620426769484,0.82286839091099817,0.40015732544384724,-0.62474107257159284,0.21184587025953403],[-0.27572335037218432,-0.8063446379184499,-0.090331698287175535,0.43132523056369415,0.091467225591557982],[0.547972137782519,0.85075530858909409,0.45219831588038151,0.00068350578421961128,-0.44883404487569362],[0.88053953983031519,0.016130112112018681,0.24979493647156309,-0.50894829979532608,-0.32308419444595782]]}],[{"rows":5,"cols":5,"data":[[0.41545238801655071,-0.66969772899524838,-1.5163268657291822,-0.78485453022373908,-1.2128155248707648],[1.0189579707825072,-0.43198688306763505,-2.278648744690968,-1.8803057357787412,0.65375919641802371],[0.93826116238845325,-0.29475677538254308,-0.64800750046386413,-0.41171681467250359,0.14778648308671877],[-1.8232522217049421,1.3319332402074793,1.4490773016874023,0.64968019189749782,-0.65204955418769139],[0.938277458391908,1.5934636471713592,0.0065193832156732823,1.381633931099606,-0.93887911296440429]]},{"rows":5,"cols":5,"data":[[0.14641790237974203,1.3645180973557327,0.55773965453420027,0.030660686694004614,0.096692705863682435],[0.26220242909785996,1.5522714308555283,0.45555635943087031,0.72419219496080056,0.7977453933790859],[0.24491693480683188,2.1013474460366419,1.2589989913667821,1.8473200804431704,0.10935955730758497],[-0.78887578956642179,-0.33478301695393431,1.4046456037721258,-0.20308089969121962,0.12268423737084735],[0.95309175570321847,-0.013383608288886678,-0.32091478105756516,0.87588589318435983,-1.238033504828417]]},{"rows":5,"cols":5,"data":[[1.26273778523116,1.7035195397302143,-0.089860875354869335,-0.22904697035578861,-0.17885151436364488],[0.69366174744883835,0.53795117763044042,-0.13675276654442944,-0.41565733759581891,-0.62282801773391194],[-0.38971878851875519,-0.096381985129496264,0.59530591091915752,0.47838837590282796,0.6184102206070653],[-1.0534205200906606,-0.15586892138149319,1.4277157775169154,0.31479783989315785,1.7394165695491219],[-0.56800802992150357,0.14425752675753115,1.10951701976468,0.20788152149761688,0.99102226506104862]]},{"rows":5,"cols":5,"data":[[1.5202297366120916,0.17327886748108387,-1.1893521168270453,-0.33149263383399158,0.27085448314325683],[0.71746259314874972,1.0200888686445016,0.57645568496393929,-0.91838638862908151,-0.12529910447400663],[-1.1071785715827829,0.1230143302675703,0.708908786515867,0.41892087818906604,1.3843278407888726],[-0.627428662001631,0.24977628106487615,0.3541932708611964,1.4307319186539806,0.18789456406166125],[0.69446338884143044,1.4698336619407504,1.4519562266711688,0.25407712625153966,-0.24244009476574824]]},{"rows":5,"cols":5,"data":[[-1.7167420901355877,-0.38157607432677643,-1.0419849985069494,-0.72029312390755451,0.22846471922383488],[-0.91818073909032016,-0.51840127929726421,1.0420763291280228,0.09455520479529822,0.12648553338273633],[-0.76392960635523921,-0.97643320271311318,0.023928207469664363,0.015633566426398782,-0.71781220456750416],[0.38388199340119511,-0.58433046945181055,-1.4541997207010451,-1.9795367342208676,-1.2914376311793836],[-0.031121061461872119,-0.96691702047643857,-0.096938533623561973,-0.38655012043834458,-0.15295118521668261]]},{"rows":5,"cols":5,"data":[[-0.402117123508565,0.20043919202067018,0.96787700899561047,0.65461432235733874,0.10211398944558756],[-0.96828075272378622,0.22756554749411359,1.5538477313432682,1.6908602458740167,0.26471696324237415],[-0.13088275918770143,-0.18326257607755384,1.2042724609081383,1.2959241232190712,0.43409584140420143],[1.861931630083759,-0.25161930389466747,-1.4069762243554396,1.7598676246853877,0.63629137142358849],[1.7629904388341191,1.6080845212024846,0.75880898446987233,0.93848646224485455,1.5757824399571581]]}],[{"rows":5,"cols":5,"data":[[-0.48619061928467483,-1.2948555054365174,0.074885372214746587,0.10300257011486366,0.81101919886802221],[0.34838071065817888,0.51727547275906693,1.2306783609442036,-0.52240811288399969,-2.6855075092288021],[1.6066205763945187,1.4231659181089478,0.049322203093350558,-1.1640839150099431,-2.3211049705608096],[1.6459159136802937,0.71421704041123779,-0.91000986428881592,-1.4533321238088091,0.50681237388054678],[-0.12829292124386948,-0.0074603287282223709,-0.48416011657092445,-0.96533152023081326,0.53488190334228469]]},{"rows":5,"cols":5,"data":[[-0.12800822053812422,-0.98256335267307948,-0.11174047991121326,-0.11284168327579626,0.027445319727318451],[0.83361074124204393,-0.63689403919130949,-0.39999305268158236,-1.2947867982115193,-1.9873777484462933],[-0.81505536849737226,-0.38912050011319732,-1.2881519064346245,-2.1229381593743928,-1.6109840745759017],[-0.37501293544425085,-0.290304169859853,-0.8677040132583651,-0.21684801914652038,-1.0449633278013268],[-0.65619907480005624,-0.56020403387542572,-0.57908914338297568,0.7386894966456703,1.0447739956045872]]},{"rows":5,"cols":5,"data":[[-0.084051833105302967,-0.80936711271088246,-1.5906479958266651,0.0040739305580034177,2.1114437273263378],[0.30110200733600362,-0.32997011860156622,0.1590954598089544,2.13451904065595,1.0669462501668228],[0.46232640056111529,-1.0714612067673692,0.101167135239543,-0.46072086823161329,-0.71001816907672577],[0.633376011631426,0.18522325965359132,1.1799042522586958,0.66279364088125914,-0.80771461122747079],[-0.23919748093458862,0.673159711547436,0.47282583723532234,0.20162145709799673,-0.15869994262627257]]},{"rows":5,"cols":5,"data":[[0.08348815232782511,-0.68999329184775,-1.0236888582040005,1.1876687292745214,0.37049113466748529],[0.48610605031122611,0.83284195973752129,2.2407760289898486,-0.64778264681037889,-1.5810862250645468],[0.5421246398123486,1.5485455635813392,0.01616067219683158,-1.2606249122618289,0.008894404637716069],[0.19622843126815862,0.26008489868226692,-1.5300835111543518,-0.28636038630171473,1.6875992525848857],[-0.23005904511086231,-0.33587831170820082,-1.526830192635646,-0.8552380361301285,-0.019341945296452442]]},{"rows":5,"cols":5,"data":[[-0.17332612641998055,-0.24711346393248079,0.20345246451131324,-0.24802780659858414,-1.9811353391388347],[0.013036370990287477,-0.15351617943620197,0.49843409310875481,-1.4665459013448632,-1.3415211727303951],[-1.0145640093272448,-0.13543656717333183,1.0461772523635213,0.329468689738513,-0.93055211290094964],[0.71201555304633113,0.30917039954727982,0.81886511538714579,1.2639046193458292,0.067953295524252333],[-0.34374149878162669,0.76374089362198516,0.15283751031244044,1.4957187284317075,1.55414553002626]]},{"rows":5,"cols":5,"data":[[-0.090637126831657117,-0.064932440676925246,-0.69674405490566838,1.0714997809280362,3.0718519389792944],[0.68301420615518238,-1.7708019176722372,-1.2546036278752526,3.0640559407922616,3.2687126343965747],[-0.78012820865568344,-1.6020872201401342,-0.35561868833768728,2.4619212031614461,1.2732218693754029],[-1.5360480573288926,-1.3684340051785757,0.41475560350680413,2.5512944739481447,1.1571728209475578],[-1.6189952106734256,0.55093948889693267,0.93583294441038978,2.5715308986429677,2.7392523761401577]]}],[{"rows":5,"cols":5,"data":[[-0.049695964835313806,-0.20757331774806639,0.41136085035466058,1.2552098722337288,-0.796699070033748],[-0.10764271455151868,-0.90409867626635088,0.63710225859026326,-0.534983711009795,0.83725244679058],[-0.84821095655807088,-0.84910174640441571,-0.19429230721419746,-0.26786152724487566,0.59102243054354309],[0.7588860229571226,-0.57735894859619408,-1.3128061040579377,-1.2138724326706207,-0.79100217420761287],[-0.40902266861625297,1.0619238155017947,0.35687276425694409,-1.1587360124031203,-1.1182694396822286]]},{"rows":5,"cols":5,"data":[[0.44702066870869211,-0.46422125813981097,-0.70099136458688538,0.8817135452831405,-0.0080071642001597349],[0.049090978308928467,-0.674316915130309,1.0482497571757627,0.60130739829285274,0.56351201546047347],[0.49861105988226428,0.75519090412670342,-0.0699220876940288,0.62554114658501991,0.23599686892508318],[-0.042216447679231391,0.47561272661340243,0.17565493790109141,0.54362222992964149,-0.20520769956131157],[0.56235094426870713,-0.25805715701822557,1.0579906351496253,-0.81800219654874962,-0.37520193247916506]]},{"rows":5,"cols":5,"data":[[0.55425977722565012,0.68449680648375788,-0.67634679485909666,0.38265641370522319,0.19208309052247616],[-0.26340941126406264,0.50246626281309714,-0.1544675031261715,0.27619595502169014,-0.59435309135960745],[-0.24377409301494907,-0.67285914514360179,-0.89735015468764712,0.40849951536954937,-0.28576577220270133],[-0.33088710858718939,-0.32839768581908496,0.77743220571683436,0.99244456160757177,-0.63627379001193873],[-0.52212305792617464,-0.50498422227755835,0.77153083745058293,1.2205354515298961,0.64098988254080369]]},{"rows":5,"cols":5,"data":[[-0.27243499447438035,0.00573377498628356,0.50859037482338287,0.20823509482780142,-0.81434446659753679],[-0.252399853819561,-0.21067011998790472,-1.2357927481756996,-0.072319387623654821,-0.27243715061828816],[0.12034390884680693,-0.0615892945925055,-1.030888483990575,-1.0882221058895154,-1.1235818420037169],[-1.0755030003200004,-0.93135263892829334,-0.73280501968359113,-0.1072138682744349,-1.4145511165322029],[-0.72784043124235431,0.29561004442914379,-0.38949492519709628,-0.91959467086778179,-1.3173679431915679]]},{"rows":5,"cols":5,"data":[[0.61566961283553356,1.0279616642937302,1.0995140751596513,0.92591647089111084,-0.989852520285725],[0.65605039965289413,0.92766655579017443,1.1344009188745148,-0.75563626279660656,-0.74422156762320157],[0.52607600243520414,0.502572841111677,1.7501255731518119,0.21383927650296888,-0.24011747710868583],[0.19006409125930926,-1.0977963545209983,0.65663353144855907,-0.98753500825469365,-0.68998704714688663],[-0.84557367851420018,-0.71243102261729885,0.55105503591738669,0.690748829348997,-0.50617144701673344]]},{"rows":5,"cols":5,"data":[[-0.46134051947971011,0.85721617600685251,0.75074474974139838,0.39062111054330395,-0.38032035877532783],[0.776403937004241,0.098236964327581486,0.714466375944834,0.61920775991265686,0.0088082908308033912],[0.43832914074911145,0.14689489687935436,-0.92424595446207,1.1427830700251949,0.42631761216966063],[-0.82609669796364593,-1.0468860537953442,-0.97626080219464317,2.2915082602096852,-0.561047940317385],[-0.77873863576336022,-1.3941350503529855,1.0134466979874628,3.1063193092867718,-0.16736306798105077]]}],[{"rows":5,"cols":5,"data":[[-1.1822854010455719,-0.61807998609306625,-0.53816471011008871,1.0524099173225403,1.2996609616330048],[0.58512869766935027,3.2550391870452318,4.3083116063617082,3.5452599997890357,1.2281810368197799],[1.1665594666428671,1.0029486481471719,0.60775043928811512,0.037022959233517616,0.18049516140854158],[-0.30955696614083505,-1.2502613786875194,-0.41290434654150454,-0.5839626221525902,-0.67060110525024752],[-0.14890596839893866,2.1684101267354179,0.47610233656994139,0.29117941698719263,-0.3477175262290732]]},{"rows":5,"cols":5,"data":[[0.84692530651576725,0.421836298281749,2.3689067893581153,1.5572556987595714,1.6494621923364314],[1.1660166710516082,-0.36554183866223083,1.0323991520945208,1.1554024547121884,1.1624822623344082],[0.75911402939648953,-1.0374588237430462,0.39012373340866069,0.96779225508286226,0.70899511512836833],[1.4318450967561793,1.1498071220801152,0.080290278971803727,0.0913655284387048,-0.54570712533196775],[-0.20049674050825642,1.2999766776759443,0.69849256741975063,-0.26940873519307856,-0.1215777949948026]]},{"rows":5,"cols":5,"data":[[-0.80304902574161463,0.909024606620466,0.42419754711111146,0.99625912468870437,-0.365277828930349],[-0.7433046871676291,0.51266905187125011,0.16545813084389968,-0.2943875536967962,0.71118945333153982],[1.7898009102242551,0.868351853885389,-1.0685267582155671,0.090827193328656325,-0.57021538170842645],[0.41663342428461952,-0.99233501428906279,-1.1461978691202368,0.45862110113290994,0.33258227992937212],[-0.33179746843396379,-0.623635036604146,0.43844118292320911,0.83545866726442131,-0.667858484962335]]},{"rows":5,"cols":5,"data":[[-0.78685313317069683,0.48321908250851203,2.3329703965457282,1.4489795211516645,0.52066115599583462],[0.37798797170353066,0.64250329890985114,0.21224330932673235,1.069933571010284,0.70580224170177519],[0.76548306971669156,-0.33454241236049942,0.9031861573802259,0.15058083381013304,0.54175257340644023],[-0.74249687150367316,0.49160071294907026,1.3036907468398931,0.19475110924697972,0.064182522863176827],[1.506756320955726,1.2600755227517291,1.101730794146254,-0.760129997380292,-0.56757257241860481]]},{"rows":5,"cols":5,"data":[[-1.028869751553142,-0.12140910750950122,-1.2797829660814852,0.26830842246305936,-0.93210424306280371],[1.0235494593954295,-0.1849749819619351,0.71972586208907785,0.71213039015311685,1.1089694998471908],[0.70846147087524169,2.0827403573421068,1.6196794134778347,0.70016044030766378,1.3364895661745762],[0.30558781262387119,0.34196800686060741,0.37065853037766677,-0.28006749717340973,0.28839325620254019],[-1.0738313067183147,-1.2896089022881008,-0.13202978488874731,-0.96662718778760637,0.38832926028974918]]},{"rows":5,"cols":5,"data":[[-0.96866964874725336,0.090109548353798488,-0.24385578055737231,-0.36992863469416087,-0.97619863443515509],[0.58406258057202864,1.218322581634975,0.17268874267467468,0.041784032491739148,-1.1690910593293287],[0.72983687405461983,0.72258902532595592,1.1926869892222254,0.72050129664228879,0.91542326445995947],[-0.36189744076597186,0.70405754961444234,0.090442725767488186,0.99395796645478751,-0.33532326407740853],[-1.4682165864201107,-2.4127791460802013,-0.52192818415514575,-0.25807563223386842,0.63039034520534509]]}],[{"rows":5,"cols":5,"data":[[1.0030877022458848,1.6929913885686676,3.0508640257033464,3.39869431941892,2.3225066640757754],[2.1983312218283286,2.2668103720075408,0.108420597276081,0.451652564270477,2.4650641555108876],[0.31738432178482745,0.84344411419958931,-0.634536508696597,-0.33745642102347068,-0.2910675574781168],[-0.97571167900046452,-1.8704170737987171,-0.997635272208844,0.51966412310901677,-1.0675052002017609],[-1.4497279815586261,-0.24803596540259182,-0.62898648207408681,-1.1716644013302766,-1.5773103977646648]]},{"rows":5,"cols":5,"data":[[-0.519313844017681,1.2440143695456365,0.11705978244837806,1.9625784444126742,1.0271855118272382],[0.0358345837228908,-0.77589892164767338,-1.2646689848785044,-0.47243120411634165,0.88799346200173435],[-0.58425044063553266,-0.76673765643455871,-1.1340744360482957,0.29190168195350391,-0.21390787253164981],[-0.44578780130845347,-0.73073171930442782,0.054044180463713086,-0.8478913069873133,0.500049612634673],[0.41859874158256932,-0.040193341224168337,0.173348546893201,-0.90197621350490942,-0.51843646828383594]]},{"rows":5,"cols":5,"data":[[-0.87990359446179411,0.3683620832523396,0.73621662408867206,-0.161983493336795,0.74127848158091025],[1.4716242866829086,1.5318615143468077,0.3906150793061528,-0.14448024023457723,0.45902294383439057],[-0.070281068024740323,0.84643584518212667,-0.77358627398765634,-0.20921112419287843,0.071615224700648572],[0.843554077089996,-0.012692526702404857,-0.93793722883084163,0.89482709515082315,1.1349752465318332],[-0.71441681276494851,0.41623671642635585,0.32080238143909512,0.41744768780721014,0.67171281510366165]]},{"rows":5,"cols":5,"data":[[1.0949537858166181,1.6047059514350237,0.94807754674955358,1.297798563252367,1.5334669137670818],[0.71114272984731364,0.023287811582607461,-0.59819017753793735,0.58662436502009607,0.33622362154527463],[-0.33013049964699176,-0.495964587689366,-0.75989371534236438,1.7016642421163255,1.559798228847131],[-0.67851699946238087,1.4414676773750006,1.3479574657075095,1.4649420144746463,0.27918378084536938],[1.2874283840548966,0.45249606197160969,-0.41877580475395954,-0.29897042814559116,0.063904434509185828]]},{"rows":5,"cols":5,"data":[[0.80926435140393671,-0.77327792209701551,0.49929734432971878,-0.91817592387610225,-0.90647533705551642],[-0.48211982541929183,-0.44941143552089097,1.7072505328179068,1.2432581688853013,1.6055886986842372],[-0.7884481119673743,1.5307120394895144,2.5158022789925587,3.6819233929297046,2.1890097680674012],[2.5256943244186609,2.1710499576748323,1.2862936831922214,0.802591130613309,-0.0090586776396442345],[0.37009902839239983,0.47921678645548327,-0.14373953705255513,-0.50237883621121071,0.041228794587259]]},{"rows":5,"cols":5,"data":[[-0.2830136845835,0.0037794154038142632,1.6910435691441705,0.67183312919398241,-0.7676489998280086],[0.86140752012511557,1.6203875993690036,2.6513261748367953,1.9592393774077235,1.261291510603423],[0.0496590398306011,0.078689587636967137,1.9224064061470312,1.3726799158674665,2.8749660221971887],[1.0608358697107914,0.46350863440176776,0.97627457246008453,1.6971512105757629,2.1181970535916173],[1.1395936611363546,-0.96766050680917126,0.20239302763345385,0.68248234440642563,0.16241946903101842]]}],[{"rows":5,"cols":5,"data":[[-0.8628425024730193,0.25980924198192029,0.085038346967265963,-0.33509724436242577,0.21601444215750593],[-1.5985633028023871,-0.50195831418591708,-0.2782968390161541,0.5766884439299792,0.71088091527090447],[-1.4866584207379736,-1.0449645482969863,-0.67350316473171745,-0.75058187249044928,-1.1190155637480577],[-0.0098890054750796347,1.2087155065136546,1.7441121555864756,-0.25433267970501328,0.50687449373122873],[1.09317130685766,1.4031993648060086,0.74193148274616916,1.4020623549759497,1.4668829527258125]]},{"rows":5,"cols":5,"data":[[0.28358950414744627,1.421698196279676,0.25866635798550108,-0.084071574151572515,-0.041139283916991336],[-0.89895805953623209,0.30025537081370363,0.9499775013407713,-0.90378612720927987,0.88313466321491252],[-1.0985294395685428,-0.37795873117127243,0.64325226454459883,0.44677729455003351,0.86919821976146927],[-0.16990781111284192,0.21679576491805408,1.7802218203176448,2.0070511970755103,1.678363041582305],[-0.22049028497609816,-0.62733745185536938,0.088255293917975833,1.1594396354264094,0.59247657178882263]]},{"rows":5,"cols":5,"data":[[-0.79581869123968763,-0.18946938216402287,0.489741243993796,-0.69883318763454,0.12082537517947761],[-0.618483050523879,0.013589392370438472,-0.40512037205837187,0.54610737872358139,0.48889330296745626],[-1.0932458774040728,0.62369524136833654,1.0919223093767758,-0.25746529519972006,0.00053228070659847634],[-0.13307987538426111,-0.90711679726251992,-0.45259182936348236,-0.21361052436222333,-0.79411034215459442],[-0.6298187609803797,-0.49370126498868305,-0.36875077291160413,-0.3514990180705162,-0.34132924666632147]]},{"rows":5,"cols":5,"data":[[-1.0421408798081306,0.52169139394346642,-0.8953296354508018,-0.0017128481901280968,-0.53963263278762841],[-0.73591369143468044,-0.47888346241764929,0.057573965941525744,-0.63402889314759647,-0.64592107872875271],[0.049738448053060137,0.56307190347225788,0.24982966337052959,-0.44318623255903417,-0.35899728845214385],[0.1574481684251289,0.66070324810577918,-0.014719595552905538,0.507823143432798,0.90653622982809634],[0.41112358533342436,-0.0037037758213883006,0.23040121484739223,-0.41923385797685409,-0.41210681033881091]]},{"rows":5,"cols":5,"data":[[-0.78978109331529367,0.46301701574564841,-0.85210800904092954,0.48540308440012608,-0.39757093999279575],[0.1956651542156215,0.70825723078574987,-0.38826552006944776,0.915347969790501,0.4040464905295903],[-1.0433111956461625,-0.93680462374940188,0.11323149825656649,0.848552300230681,0.39501982867314173],[-0.40649848268946021,-1.2650412578763997,-0.181826798423403,0.97146178970407671,0.96376563154844319],[0.36266629605833239,-1.0742313997954049,0.294472366608708,0.04175100842651424,-0.1383215299221591]]},{"rows":5,"cols":5,"data":[[-0.048952780705716091,-0.36013181638863045,0.41804154281235606,0.0085737220844481522,0.39249231020139025],[0.30531820669713522,-1.2435282038148836,-1.29136702585911,-0.78039673377298291,0.18200870737802236],[0.3109495430483587,-0.90817000998902575,-1.1280037609025446,-0.34010684583865169,-0.34785979906617176],[0.44654988700432985,-0.8255815305982116,-0.21910412239206697,-1.761790383717178,-0.46881598410128639],[-0.831848182757802,-1.1194150576334678,-0.30335218061414543,-1.2148110543902704,-1.5446037657550522]]}],[{"rows":5,"cols":5,"data":[[-0.31193837391858753,-1.0894440864842996,0.372946970600338,-0.33403600546319306,-0.034795022199621682],[-0.97879290032580679,-1.0189460677472388,-0.16554849647149811,-0.85252818986001666,0.2681106675705997],[-0.56094287940887289,-0.85111354939434958,0.56833481486508131,-0.72837640216143984,0.92162771601665749],[-0.87938798553968733,-0.75163312966317852,0.019002985922411116,0.85505832741699694,0.3966998921312011],[1.4348664055214717,1.315396518167149,-0.22631640186398491,-0.068598809080489778,0.97722588029516066]]},{"rows":5,"cols":5,"data":[[-0.66977633097445988,-0.46996875117396347,0.60119687197623184,-0.38606791235796395,-0.31518758038021327],[-0.309599398259173,0.27436125736721523,-0.12271663627737382,-0.35112267358194077,-0.082562948028203784],[-0.034608698283513512,0.099172825360447511,0.51805247344890759,0.45767930132174145,0.746927628114292],[0.45440938213340182,-0.77394814680704516,-0.59453658770426976,0.49514340817633756,-0.32601587828116158],[0.7676950482418069,0.61377341134489716,0.95451862563293044,-0.73156724698089159,-0.10739582244681227]]},{"rows":5,"cols":5,"data":[[-0.40394275102429222,0.39620204715475321,-0.83976206629237782,0.54484996354337967,-0.40445350567572208],[-0.12957684471282424,0.52362704362942714,-0.32869050036321007,-0.017375022945038666,-0.10735023319436128],[0.54168926695308917,-0.579386481799801,-0.5382081575470935,0.31298201473094667,-0.35757484062842648],[0.2049699000459036,0.34335695220962964,0.086857873528596266,0.406766786070059,0.036086741965338988],[-0.02798168104026124,-0.3405897494577913,0.38996909086384807,-0.85190216908434691,1.0145883860126594]]},{"rows":5,"cols":5,"data":[[0.76308603783383855,0.45273401715001083,-0.054294431011606116,-0.68674756148577054,-0.71013468890875986],[-0.2908916060198124,-0.26090565929157056,0.37105475749550615,0.51673006256573017,-0.74694513983729727],[0.27297602502262719,0.13221901879413806,0.41233327795588376,-0.97882600066712677,-0.98756908471276894],[0.67601841080983027,-0.4060791335024011,-0.40745343973341458,-0.285299369517547,-0.94132699585375645],[-0.017093709427490097,0.845058671886381,0.0043237856178220818,0.0069740643515434578,0.306131555792116]]},{"rows":5,"cols":5,"data":[[-0.67258544706681966,-0.36732523120570676,-0.40011310436702957,0.40625784018709582,1.2176790422215587],[0.92493707826520077,-0.85712962986792285,-0.80512066893904843,0.601244986089346,-0.1437210810588723],[0.14046770193004765,-0.6069513698028588,-0.73772933467128488,-0.28592288683493594,-0.904965932502394],[-0.27696310731042079,-0.11259604240114317,-0.25678435508209524,0.10574813243651018,0.19273737663530693],[-0.961414649787183,0.70471212801379046,-0.1543212207738037,0.3082101497487455,0.49386982372673932]]},{"rows":5,"cols":5,"data":[[-0.55695348462253258,-0.96957514067300488,-0.71802859849095324,1.0768053605775902,0.31830385008695677],[-0.96290527541319459,-0.433366451725438,0.748944230023532,-0.22965483193847183,0.94938514886056313],[-0.94030315877257886,-0.96599753269258049,-0.93449160856702262,0.42700783122995256,-0.75327100411601333],[-0.079120047465855325,-0.23342659672868379,0.75546282366820183,0.1725305476166385,-0.20917078494958755],[-0.12104437109150219,-0.95284756502855816,0.56537133432053666,-0.32347707591891989,0.19984485889073525]]}],[{"rows":5,"cols":5,"data":[[1.1784341304292205,0.098152191834215016,0.86272025754551918,0.66969814274247419,0.296480057155338],[-0.38431299358233173,0.80409905658354186,0.21071334823211588,0.66576843435859345,0.47433599075234639],[0.71661569389934043,0.52028735512596347,-0.88134301228176359,-0.48358495217058794,-0.23551831329183343],[-0.49738389898188895,-0.58042294994088839,0.34423347588474273,-0.04049561303722321,0.99996457173553277],[-0.5081068426129014,-0.303354268970598,0.12564545432431187,-0.16547442324493106,-0.85234584384018752]]},{"rows":5,"cols":5,"data":[[0.10084268929714646,1.0078556307174731,0.61381013415191632,-0.61690145234746274,-0.53753331655845971],[-0.67513022134270162,-0.72498479814224837,0.91806778128075761,-0.268551049468911,0.2921521812744573],[0.19115525062816402,-0.22633543788881319,-0.76560623145993512,0.76915466634205842,0.50340850888122646],[-0.46734653001893134,0.06549395666652913,-0.54750425845810335,-0.752492432959149,-0.50504811468158173],[0.48561181381825474,-0.14604344701284641,0.523106821186272,-0.4006811038373258,-0.70631261484346919]]},{"rows":5,"cols":5,"data":[[-0.47167438018735969,0.034940728343753835,0.10019038337398128,-0.18795252788604211,-0.30092503965826539],[0.06944230981627017,0.68312540132966726,0.093352636643862869,0.65618289444064715,-0.6619392582221979],[-0.44449471484427422,-0.88592165748284413,-0.30277313896192065,0.29950247218658632,0.31638436520218249],[0.63942061164739417,0.92205571415388921,0.45196150972917815,0.25090284519102923,0.6208687406260599],[0.9887336847612338,-0.5406989078954374,0.698792954523241,0.349170154341737,0.47010450374525359]]},{"rows":5,"cols":5,"data":[[0.60562219867588718,-0.52236166907874793,0.15214935943393124,-0.65335476541172732,-0.40083920030234893],[-0.78321514105467549,-0.49370252985851276,0.0925233445867088,-0.80071543986644667,0.98057028061191309],[0.4931899089954625,0.39751892292379704,0.038660468779043791,-0.95614566723323247,-0.78179455206840032],[0.58591723595062517,0.70835663342127786,-0.60205287775839034,0.35189225955167497,-0.1051968965430746],[-0.61778612891861306,-0.761562507812233,-0.031544523411090486,-0.15817942000761132,-0.12111469281191319]]},{"rows":5,"cols":5,"data":[[0.67177104835493628,0.34599399458473717,-0.76741381537521036,-0.090172490793073379,-0.57229965356321177],[-0.59258105839557129,0.37932524911099552,0.55331576347500144,0.16542421826292941,0.058386430565813531],[-0.033810304675022031,-0.47096878103042028,-0.47273418207164819,-0.048167472439238905,-1.0991634392591956],[0.959419289861802,-0.15289346823778979,-0.54083843148917288,0.42187298299067039,0.81409494599829668],[-0.84569120152046162,-0.292176326289902,0.667198541005047,0.25720387307042192,1.2264743863427019]]},{"rows":5,"cols":5,"data":[[0.91910617646807813,0.91814760582623156,-0.7557801253065578,-0.6281825156555273,-0.18961612483469689],[0.27915517452755867,0.34639963469588636,-0.72819182422949635,0.41848908259261219,-0.14363617801385858],[0.035073021663510257,-0.42058801574921112,-0.79418326909977965,0.60831183303399017,0.65696233021949013],[-0.89716513612112869,1.192633816906322,0.99715296630189443,-0.24038504977972269,0.59817364153227592],[-0.0073034841435081462,0.564080119315374,0.61706125525242106,0.48714721514197296,0.14327125920236655]]}],[{"rows":5,"cols":5,"data":[[1.9993856235379988,2.9611013662493639,2.816162376158251,1.059698481555476,-0.85456983322607671],[0.46001612199925462,1.3035193199792443,1.2583313018148605,-0.026690476450528064,-1.4989281037496556],[-0.29578542129649382,0.4278602251618544,0.75246740993149752,-0.55793403858546142,-1.3910371485108266],[2.0329220457136055,-0.82913014155834508,-1.1868393050956863,-0.30269449227233525,-0.6615925889845492],[1.4348023947460959,-0.90519158633919994,-1.5218940548865587,0.048334169889591487,0.64702662342757078]]},{"rows":5,"cols":5,"data":[[-0.28762598311006421,0.23672781906577625,0.5785867161978453,1.1261117588338905,0.27465656286099788],[0.034549603799747329,-0.54274228920647682,0.51464326191858922,1.26337217994937,0.85558121768480788],[1.0437398691372626,0.41186625125229004,-0.55015431180615071,-0.30270790381662849,-1.1836236546323509],[0.086513400891962675,-0.92778978759953445,-1.4378955946034673,-0.62671221603381611,0.031451974661611495],[-0.085453225410651423,-1.3319555815892996,-0.47622596964405123,-0.83162164307611608,-0.96332461887348531]]},{"rows":5,"cols":5,"data":[[0.067680566824518867,-0.58230872415532731,0.41469691446985735,-0.70145742883862283,0.64871316837048287],[0.0899918013033029,-0.024921931563815971,-1.1562785686320285,0.95912318516822259,-0.3626273920568257],[-1.1187401370871237,0.46177205715596548,1.3274502838841558,-0.4820908615241144,0.45378413606500023],[1.1916112951772993,0.45547971066930237,-0.6544606048845738,-0.50652232282711074,-0.77064196107453775],[1.8150363947869559,0.73504584514970106,-0.69743220221730684,0.47545423636246026,-1.0411548769419705]]},{"rows":5,"cols":5,"data":[[1.292808020937734,1.8288549186241214,0.6384341078827489,-0.57815598616177888,-1.020179457088948],[1.5244433143630893,0.835754637407016,1.6203212260761344,0.59407148969735568,-1.7395483678737664],[0.4229946120556507,1.7092036745622361,-0.20581908121750625,-1.8838770393277304,-1.1024131622366793],[2.3515770941988383,0.90844389528231151,-0.05365731773836984,-1.067897464443359,1.1055220615808383],[0.81024291940226412,0.25258423497604576,0.61552164267932707,1.6403518907152703,1.2299033804537989]]},{"rows":5,"cols":5,"data":[[0.31812548888813796,-0.22331694038301464,-0.30477877883311971,-1.3423649621679232,-1.2185486468483826],[1.2588463848515565,-0.51860177907340366,0.088656313018466312,-2.21687567122409,-1.9013464929962032],[0.64412762243878863,-1.1357834657938328,-2.03700186512059,-1.3594300430460733,-0.95158069496674369],[-0.047284147973707585,0.30923377513985928,-0.40423586749298757,-0.56504460350697527,0.8423707462671528],[1.4006567360015891,1.8187554783946218,1.5157972591756925,-0.21242666435709992,0.15447387201747856]]},{"rows":5,"cols":5,"data":[[0.30886216109623177,1.1983546882599423,-0.81942537861922959,0.36251036902067751,-0.92550337653560877],[0.17545987502381519,0.29107731331274134,0.64858622395837684,0.2393427125782957,0.58511152651509246],[0.33641437968219029,-0.17754045894858728,2.60140762832224,0.8577127835819669,-1.5010048190211944],[-0.984415898567658,1.6432990917477444,1.3296641584328419,1.1238116827212332,-0.38751673291161648],[1.7756689198438542,1.1130075134402477,0.66037696580090144,0.26873446215732466,-0.75269233855744855]]}],[{"rows":5,"cols":5,"data":[[-1.5834385336232781,-1.5509059992633814,-0.46946919407533427,-0.78532745639900059,-1.0373016080252167],[0.44277248143394138,-0.37684422559033659,-0.29983728186561465,0.15547779121969158,0.18088686141001645],[4.9728993537230552,5.524216171792272,4.6615151959191765,3.4291636573862374,0.092856563854942328],[0.041979343778244624,1.4846870939818881,3.0388108860997414,2.50704182499125,1.449193389904883],[-0.72575601201533779,1.2677943348794727,1.289312574920755,1.0389426138393711,0.25544263602120171]]},{"rows":5,"cols":5,"data":[[0.5875001202925707,-0.15178494752173988,-1.3775458259735665,-1.0202012655884614,-0.10332653900758071],[2.2072724183166632,2.52514792813051,1.4828374052741078,0.879479424341458,-0.50937767533583556],[1.2654091726813455,0.12976770539036039,1.6858689731589585,2.8073124508716485,0.87367957836742893],[0.053768339891881345,0.78218015669796681,-0.11717217709750549,0.96575948100493225,0.67866800009995532],[0.29601097059625853,0.43134556369123916,-0.14606239813316752,0.41369131239177109,0.43929733366001544]]},{"rows":5,"cols":5,"data":[[-0.028750976785337494,0.21367383553003141,-0.090647884636972043,-1.4172563089191372,-0.94643335007530793],[-0.55085984425325119,-0.2290360716728084,0.54406464344532457,0.083107641454950518,-1.1375486279381042],[0.75179323081953309,-0.64938215415459621,-1.0521423774604679,-1.0899400677949469,-1.2629376555096512],[-0.28629052022591955,-0.24062576740653707,-0.53739649559176306,0.35213996750902704,-0.96048789838080162],[-1.1857284127873469,0.29907257333585291,1.0054964619712241,-0.64299989735471474,-0.75772179547113283]]},{"rows":5,"cols":5,"data":[[-0.78530926995518024,-0.035287158315252039,-1.1492561757223634,-0.73110235355049591,-0.714402224227735],[1.5241333756885154,1.7531240520992173,1.5125342958356784,0.98443761143046826,-0.75139103487187964],[0.39469054512737672,-0.10563278829375553,0.47039649071982353,0.23180372575903058,1.2596326240569311],[0.83954952957142559,0.32408935239506209,1.7918301425651209,0.80658991789987355,0.047221078252799871],[0.54547822650169919,1.6775106261210278,-0.14850699929050373,-0.23023003443364754,-0.89603421661157767]]},{"rows":5,"cols":5,"data":[[1.3220156264118288,0.93571640980582149,1.4803500313209954,1.6279608424960292,1.349964934584168],[0.20083989728369317,0.762322609090873,0.32935759374241763,1.2998516333992511,1.5016254421381583],[-0.10417162459873827,-0.71234147784748625,0.04884745515567316,-0.24524629005523124,0.61665995435565812],[1.7176364751727877,2.3855923570597097,1.5589613360297396,-0.26372604657597659,0.81863248333225314],[-0.40693067039114311,-0.39936702988855449,-0.32962788571825685,-0.42406863778718396,0.33281853324715815]]},{"rows":5,"cols":5,"data":[[0.3814307908038968,1.385077137194793,-0.049125355818444495,0.17065045951713986,0.36266293322157084],[-0.52856431244657875,0.026700256950407262,0.45541244523595109,0.90447844395465993,-0.05465623204526119],[-1.6968808430822469,-1.1430426804238458,-1.9377929410973316,-1.1648145111586505,-1.545231088450973],[0.41493058091924823,0.77209918173884262,-0.45519138905612316,-0.9681686856040369,-1.4853873221250689],[0.40045194941351109,-0.45810747564655308,0.88118169467664176,1.1473010154388159,0.29397281360004363]]}],[{"rows":5,"cols":5,"data":[[-0.22776097483399865,-0.96437447050818059,0.94564599455685994,0.45631480217328629,-0.40517196857161508],[0.0071016531019147807,-0.89035784327634016,0.13159673219504467,-0.084527984005503487,-0.67468446754123335],[0.474859164870207,0.18458458610444362,0.32840265041874805,0.97475839583994228,-0.37468397799449388],[0.95294644741558654,0.068943388191282887,-0.26550971179107097,0.27665508706231978,0.79101671645627081],[0.931140465982786,0.031338991386569655,-0.67186758283990855,0.52790141869546281,0.14242511137904124]]},{"rows":5,"cols":5,"data":[[-0.22588268303976272,0.33126775851968032,0.8292978691938272,0.56403636811911217,0.15754776506693971],[0.031284349713646541,-0.40393004074156574,-0.35634624691234779,0.76426458032422251,-0.05818234611291738],[0.14926137139835358,0.25992803055510449,0.56843216989556045,0.31134846619963025,-0.69753824973717626],[0.96872718649581291,-0.76322569088521963,0.96360284958313547,-0.1296806895894331,0.23903958847645998],[0.54260132356130331,0.97046058705898619,0.027335225180194142,0.96574463733245131,-0.52313112994508293]]},{"rows":5,"cols":5,"data":[[-0.6170065606569598,0.44706522882966288,0.97230173822964772,0.86865987466621741,0.77462473088952866],[0.74206771603402089,0.71732930701986686,-0.55906585977445633,-0.66568690646797546,0.80570810331289122],[0.66502542313575863,-0.73152296455575139,0.56067270291305193,0.738019905719593,0.28941671069044811],[-0.12342631402693539,-0.44936438996152767,0.57332342616649035,0.043078777144518562,0.48276117468643692],[-0.2971669537314528,0.51213423582783457,0.43226951526099128,-0.011519831640237172,0.82530655709302247]]},{"rows":5,"cols":5,"data":[[0.6772336224544494,0.062676022944648774,0.43682957132228567,-0.73269476402518841,0.5677153551373938],[-0.19974331489270886,-0.69729144592256731,0.86232629487670887,0.085295280972067525,-0.18319735782131197],[0.61534949538181827,-0.33658919804695203,-0.19920484943886987,-0.985435476589406,0.231285788603813],[0.46825319122304054,-0.15145519703205621,0.26504541882955024,0.54439815061134567,-0.32895520229117725],[0.74766821934182637,-0.28362885916421443,-0.76419706502121065,0.60472727581924057,-0.6152252723881505]]},{"rows":5,"cols":5,"data":[[0.01225672207865605,-0.56731737259197568,-0.98071065008149449,-0.49574509245011283,0.80784792378280212],[-0.12515471114304949,-0.961240684265789,-0.015336009609614358,-0.957806723174382,-0.89575744125519274],[-0.31484513171323447,-0.71881258659563463,-0.8322417539610355,-0.24690232427468617,0.0045443605649753338],[0.34656886145541937,-0.61540528549252593,-0.558814154839935,-0.087017824469993788,0.66665044833182541],[-0.80277936923941762,0.7092882341190675,0.50712795838793723,0.774465767244446,0.98771263469428183]]},{"rows":5,"cols":5,"data":[[0.81919053421670651,-0.79799696824960487,0.84712443723186792,-0.70609121621693316,-0.93964734644918324],[-0.03140707918912633,-0.21313300254619683,0.79811393892846416,0.85490249284830067,-0.46340365711266568],[-0.63424143835718694,-0.718994670516006,0.35599995444853416,0.26606416990704518,0.91238775595533272],[0.57919845149202109,0.66510848041462112,-0.24468210626225981,0.90932212764220033,-0.46332697458920263],[0.1856912260746787,-0.31959141465599544,-0.504108804268031,-0.49133128860222414,0.293597180795248]]}]]],"Weights":[{"rows":120,"cols":256,"data":[[-0.36541370574761689,-0.77915838708153162,-0.81769811321121033,-0.28060369836798515,0.10394523441464335,0.16589547502912233,0.52355706869518848,0.18320621636689846,-0.812954794464511,-0.32209155780136661,0.49908019503878481,0.93011348630053259,0.39314672614119234,-0.2137752026024462,0.3162340624103952,0.82096536363170614,0.27596436028822624,0.26139001270663464,-0.32841211550143429,-0.25655382511277519,0.27366798202650822,0.71261807718195247,1.0462762849811547,0.69290207772743362,0.5153301622960913,-1.4932689514696591,-0.70659209142279988,0.17556341376240559,0.28200172837714121,-0.035699706065597157,-0.45821531825248235,-0.37071108966003519,-0.22527901739261688,-0.35938983982161143,-0.40589859399188888,-0.73132151922360911,-0.70218539377236067,0.91493837906910691,-0.66058640992218887,-0.69460283320460625,0.12484762615948503,-0.63765641233701553,0.83770835489610285,0.61371238809302686,-0.665221031837743,0.30566501484189007,-0.014988135125930696,0.70831770800358462,-0.036240664983965304,0.12551613790836594,0.03456629116269691,0.80506182370384793,0.38686116106182822,-0.53467065755600074,-0.565403234210612,-0.33413632427687212,-0.28418093236914588,-0.0043528175072266428,0.23634999573562898,0.087882624815497287,-0.81253133259093568,0.8922096903707899,0.7037210288802892,-0.27028785487055895,0.59422363057686667,-0.85738509996836632,-0.29782628954841295,-0.45198787710987193,-0.9655861827448613,-0.26652515593741283,0.34927940871851154,0.3587903074751409,-0.27144428918132535,-0.52426614143121253,0.68883197029049936,0.30537362789919303,1.0811506867770995,-0.93014638641021641,-0.0555077980848929,-0.664111118256803,0.10054863510504906,0.2093998630124857,-0.49728877066529037,-0.271106299699289,-0.32059822575992697,0.38551509819162427,0.37430892773258956,-0.63229013870781492,-0.57528389319949969,-0.695063813601118,0.86038390369672868,0.079034260224398592,-0.35209674315453277,0.2817289637520321,-0.8064030521203791,0.23449562282559236,-0.31140583914650832,-0.26315573132589781,-0.96305307064086332,-0.62396134663619152,-0.6635023186926472,-0.50826125400959132,1.1853102019701589,-0.095578346633754419,0.37356203826827195,0.92872680422022946,0.80427764746953934,0.7026217087330523,0.32339491085479682,0.48453008280861004,-0.034811387673829935,-0.370276596427232,1.0264965977449145,-0.13262927443368391,0.75844117812531819,-0.00026266553869702918,0.20380490264923673,0.53939518767744221,-0.74310382941254527,-0.77390150950484871,-0.48453013827420843,-0.51139613990259,-0.86037779460285713,0.92739364882420161,-0.11569211592825415,0.69804821103622661,-0.406385466045149,0.4517241175843435,-0.74468249661625174,-0.62717908892028829,-0.56673339863891592,-0.16254302561881862,0.98057461701042459,-0.077643223838286687,0.83168357920912506,-0.27788351026848734,0.589361593985959,-0.6235985823161494,-0.33086113437695003,0.14000672332228353,-0.65285558222387785,-0.2526238446721597,0.60726769090754673,0.16888774650049257,0.61472826915538137,0.34442727855897137,0.19952245076651642,0.70017989694261584,0.44125516437425455,0.6356773477767379,1.4232834537586627,0.60219620694524323,0.22278938236840087,0.69615010841865521,0.59010460015070632,-0.67415259812600425,-0.65366341605007849,0.79639171015730059,0.13926424587650843,0.65498242815368757,0.0073455668635005328,0.65552091549399916,-0.31388873942152817,-0.2625328106862525,0.082558844783227461,0.72550297599917846,-0.66073122023250963,0.16386920590294124,0.19754187957360175,0.38059568229671736,0.56734042900814718,0.10767846610381403,-0.76275962851707946,-0.196418679407585,1.0533102856504739,0.95005455501405178,-0.02266352190527959,0.18347708333707546,-0.63779131494330732,0.72616795799039957,-0.47101431393085308,-0.20841221642151483,0.91745019325672739,-0.20152927882858374,-0.62227526290091051,0.14805726114442433,0.59506470747220452,0.98415966174628366,0.1468743797561943,0.5947714675661685,-0.57135051720478258,0.81797362762662784,0.065248920792911488,0.26583680720320757,-0.61035863238530308,-0.26183253608184426,0.90051513351634749,-0.031684986751379492,-0.62631489374539762,0.87246900763967639,-0.373271177449525,-0.74528694030759612,-0.47305260120647108,-0.84842790340596952,0.74997916152618893,-0.12503108269791607,-0.099962949831749942,-0.71902021650687287,0.88995576781620511,0.72736800707223248,0.65032014454965648,0.41178975660857059,0.53849980669921416,0.83461657717417082,0.50479112415508587,1.3929890872140549,0.67632840456748611,0.84429897425969924,-0.72680361537556737,0.54827968559676743,-0.74009078933033412,-0.27389542320091803,-1.0941273440596178,0.26112886884010122,-0.172915494792809,0.85748199425466509,0.90762719482294518,0.21542367134744361,-0.38399732601537212,0.4034833886857408,-1.2913374249332703,0.65210926197157,-0.13452102968489374,-0.34186648557687294,-0.1581994585955562,-0.99274553951807931,-0.74429546874064612,0.605794095779628,0.12632685121828793,0.30919374030241681,-0.95423854440593858,0.26836417939039758,-0.9276472567926054,0.476600669634276,-0.66156148475081966,0.22272833186420918,-0.87862937070404379,0.35834950264580712,-0.93950580762229674,-0.65833130529194073,-0.059421701587562506,-0.883589886407909,-0.34174521182425321,-0.52557323343128348,0.54387275095722065,0.90073724591545223],[-0.94850195272368576,0.17222864617644237,0.27927143748209071,-0.15252394181241283,0.0084698495285371878,0.532464372416064,0.48267327673690746,-0.73243451980767638,1.4364908016763465,0.97632689686146568,-0.54791009549996939,0.42517661882029556,-0.28536814506224922,0.27909603070432082,0.95065142386951051,1.3539188718817101,-0.71987238678679211,-0.45620148234608071,0.19820265931945863,0.20832905518099951,-0.23086900077250316,-0.15158421103180542,0.9230685839063324,1.0625898596149381,1.7010186455034937,-0.2311238561831841,-0.59302567510966708,-1.5778316737121805,-0.785238121735145,0.32211278659719622,-0.7419895424473768,-1.3289348111318751,-0.23571957592910089,-0.20901887148167569,-1.0875706752685621,0.54295360022247641,-0.80721314363097552,0.15436957766673826,-0.75334194040950819,-0.606211010654432,0.56094317646542646,0.47957537591636779,0.90676148687733271,0.084193773116970141,-0.47178018784831,-0.052522548529058105,-0.24338108853626278,-0.15397692030238985,-0.30551899892488221,-0.043958304753518258,0.65757429650005206,0.83534952624612457,-0.2760490650735799,-0.31699353238396655,0.47455992834283051,0.66217400157690764,0.43954499280146325,0.694922196735868,-0.66462059431100251,-0.552010614878192,-0.64420859072013015,0.4989769025873374,-0.673883648749684,0.835743803852066,-0.9127256572182767,1.2845611567954909,-0.68803047135055351,0.81076836744878367,-0.23545846054417161,-0.91942627560293022,0.611736424107194,0.52196980030349416,-0.30909563310995852,0.46803824507120095,0.32274020558774019,0.098291080879260043,0.27241933908462579,-0.553096560509009,-0.44659552902641908,-0.48660448656440242,1.1328221485105046,1.0390221443818579,0.50943899866321951,0.14391857688446313,-0.73284570367684654,0.538884564711642,0.44589114530895962,-0.69028663485905317,0.70800075346559888,0.11907863535795321,-1.3091058581680481,-1.050972495045267,0.38024225903158015,0.40033893135522308,0.5816377149542985,-1.2411323940877728,0.13742311253926309,-0.2273945285171762,1.0007927211993917,0.640424005763975,1.009571165757867,0.50279701054204373,-0.4103415756820602,-0.65755847294519021,0.65357689981986811,-1.2242765261091664,0.74451123525894769,0.19766130366173082,-0.55327724129740208,-0.332795995675761,-0.27177095882520275,-0.092262991857087251,0.14315592641144018,0.31151919620750479,-0.94969979414817784,-0.5680122864305539,1.0616072772388638,-0.77364314215469587,0.85649118512339284,-0.29300647274302277,-0.46127949128673917,0.920492857326049,0.79953186849482016,0.75676311302665944,1.1580731198703296,0.066963875948056084,0.63647744162896147,-0.28126735786911528,0.0811439240707626,-0.34266803456902145,0.0834440999794468,-0.3934959594996848,-0.025310639055429074,0.3153414311112876,0.53723896673342131,-0.27750631819570409,0.31356036993986197,-0.22581908005270471,0.501696801375339,0.56190131615174166,-0.4523883253534558,-0.74338965866949447,-0.10878829334620321,0.038669028181042751,-1.0995862649741242,-1.0503790560173008,0.043100231463849663,0.95871829900644678,0.094664656681979431,0.040126582022845546,-0.5334943507094102,-0.092076316866403843,0.12673741142235431,-0.21267184698258915,-0.44435136613094151,0.313628783617579,0.45672892893656125,-0.64265243775077174,-0.58911977548890437,-1.203242420576937,-1.0895258932476941,-1.1197252540649749,0.80418417859931146,0.3574404790953139,-1.0394043760730527,-1.1288039795489679,0.462241576831455,-0.5305939471072969,0.0897783203913854,0.60312301633126253,0.26319465719439905,-0.13983187153144069,-0.66373585750883712,0.44666300558431882,0.65245778423867,-1.0827197330233869,-0.48120735953201832,-0.55971727332704024,0.93196225540824829,-0.050888919228386405,0.18160389309202413,-1.0979845414222968,0.81875650183371651,-1.1926914808149929,0.29743247802872208,-0.049569191560920982,0.75968946814805638,-0.44442562039813954,0.16997018868005717,-0.3862932436596942,0.51506180742857766,-0.46594839985907477,-0.68840057393750131,0.20704146295070547,-0.038403918989261682,-0.89716705973308064,-0.46745682440808922,0.27598687601885441,-0.16423142818261613,-1.0428306034380501,0.35399975582560017,-0.56350499503626883,-0.84857120036884437,0.4378705175535112,-0.99030031649078776,0.12834013219366655,0.76323634700747778,0.050817515966831664,-0.17103943962383708,-0.825354282706023,-1.3506905763421002,-0.22221281752772804,0.34688982930421397,0.5573863547835316,-0.044911479996337773,-0.6086576407076999,-0.28964787554559246,0.62251471685039517,-0.45889665398975582,0.67447666822200159,-0.73767260683304781,-0.056045131913064,0.73780277847650155,0.24675461946899555,-0.87850488303999086,-0.46833837010748308,-0.4653911527182828,0.46746939902591822,-1.31463034002066,-0.25807036670808287,0.80972730259647663,0.23213858399955656,-0.22431803081113763,0.536610625138856,0.1916114464083476,-0.561871293387798,-0.87203505800763848,-1.1790996380050403,0.6125239029574775,-0.708778799340602,0.18515847139731104,-0.42353392877069806,-0.894362137199126,-0.10577907929332715,-0.66856207824509861,-0.50855219178595867,0.43326205994772954,-0.36876435704002886,-0.9848492137375513,-0.10325858855798979,-0.99436421601224367,-0.39272409573768863,0.2003081526173717,0.57658299810315472,0.77980319526994635,-0.52543895906315186],[-0.6592133641596446,-0.31137247926770567,0.55507587636459232,0.76775894276207268,-0.95774388412512945,-0.94925765730760692,0.29534417001855273,0.36048756268783028,-0.6206533192992234,0.30694588052416555,1.085139029608901,0.4368272509339905,-0.77021809709091016,-0.50785559336348218,-0.808398360049171,-0.76778356939260828,0.91302716196625755,0.99978327442438963,-0.77514288171553325,0.55285268262350906,-0.13328974820605744,-0.2682999085790605,-0.7362654473191,0.2408038405712653,0.1016503769259237,1.2785422486715383,0.34136281141234087,0.011460986848730776,-0.21675837845241328,-0.39206792732818718,0.60446226190628582,0.83102527597448772,0.981269608675125,-0.00828971515619054,-0.63887678804777592,-0.052600413355465683,-0.1392349020598157,-0.54123269213893554,-0.90113238167299714,-0.25662425431498914,0.59993917146631293,-0.0810189590358355,-0.6204205764335996,0.16237187212816234,-0.37097923493199014,-0.84818898647319652,-0.6059511749224733,0.64684136556746918,-0.40031188122313377,0.67979605849080849,-0.3499836638090254,0.23913136001049695,0.2572208878732285,-0.85495257795852608,0.6896178871618579,0.48630180165791914,-0.54850464601314675,0.69104539663165132,-0.72444764749995616,-0.61570825992636669,-0.23339097767637179,0.6895724340051973,0.77925567199231227,0.53929088130212122,0.39347434706256484,-0.643059520559054,0.38649928204962725,0.37195754831868216,-0.802511338201813,0.44041813474852221,0.703884323218976,0.5464496829316049,0.88713867913826938,0.5394005463998699,-0.837029086236595,0.97315811145296038,-0.12784583335198602,0.58272467943352291,0.150712562904163,0.18447394773307549,0.80013329154375823,0.81007879028294649,-0.40004873479924097,0.611189484964491,-0.632036986551089,-0.2303921688023276,-0.51377830079126574,0.73047003994539494,0.19030195700689556,-0.46048383019136835,-0.69836127186648522,-0.21278454551842777,-1.0816679636117585,0.28273017556551089,0.51857291899166469,0.4760921179452296,-0.38287551851753987,-0.30727345340581069,0.34868244794496933,-0.88928647549776474,-0.12593528138479709,-0.36994857731803538,0.53202452371067865,0.64694108833265251,1.3640739884596773,-0.003085413651093433,1.4178561983371656,1.0348358399119941,1.3368398128007004,0.64480843716020364,-0.089391869299382087,-0.53600155025911955,-0.24425888681067412,0.3405729340095931,0.015232783857348135,0.29575318412644819,0.339936562524215,-0.81333536362157044,0.58193389429199349,-0.39104203151871664,-0.873371594220713,0.39685059474681011,-0.892825127438897,0.03684446250273804,-0.039167063326422148,-0.2793200831677099,0.772742808003858,-0.7174335757972341,0.64110626077373267,-0.49928938849525056,0.068150813721083031,-0.6913238838816631,0.92866503301206316,-0.079552466136093528,-0.57925309821001281,-0.29104690562210722,-0.38212106289679365,0.66145180744604681,0.78633426924736627,0.24755721633968397,0.030243374838980965,-0.39620865558935975,0.95699910199739269,0.71589156039117363,-0.803604821556685,0.61149392686578452,-0.50778125106493188,-0.09473901797565619,0.24629071082936077,0.2950472965511749,-0.3341142664125058,-0.56731811921399578,0.7406526036335277,0.10315858701808363,-0.94154597485632263,0.11840880295408904,-0.0027202543846670032,1.3492185485580812,-0.42685259654887,0.58128295034142963,0.76791164636286913,0.583403639423466,-0.93226851837200952,0.42363084950074037,-0.30118534139658532,-0.33198249770033705,0.097589697375615014,0.88952198283454953,-0.6543719008229586,0.62198233139270132,-0.62454330563586924,0.49561372286811367,-1.026206848456543,0.62346354333205722,0.61888600588527887,0.45652368962681372,0.78625844525663158,-0.37842928311035923,0.30576480438030579,0.36196235380159963,-0.68662541144793365,-0.42250386175740656,-0.051404799521192326,-0.33205157008825958,0.73785746424775367,-0.74478218146825859,-0.4846254708951151,-0.29950361536383541,-0.41194673609836496,0.099097779362577437,1.0264869794571081,-0.42410007642720765,0.30959905510644664,-0.506814381469012,0.72169429158872922,0.56220020098028289,-0.73030783429345658,-0.70689968269791459,0.071924808902824738,0.52040138310128237,-0.65060775503926893,-0.263563517189204,-0.71767061722526138,0.11309904392716955,-0.527317765718125,-0.026863100802621661,-0.5574367695469733,0.64829189074087856,0.17907025997692458,-0.58151302638818769,0.32895873303309636,-0.7222256573805832,-0.44429855544397784,-0.14572836844964954,0.10899763354234551,0.178018812250013,-0.58053730128751746,0.56808088194170225,0.65152284431300689,-1.0285126025269682,0.81327968377050952,-0.610414747976313,-0.13844754064170298,0.051931373811107392,0.99482378827900542,0.79634576088590381,-0.86844430741333589,0.67838546553675616,-0.73568089655092472,-0.45740705197643045,0.37808589539495913,0.34371585077534572,0.464525888922284,1.0341222318987735,0.11075260961104792,0.47230585958580085,-0.705532489087386,0.78162757185179821,-0.98877156660283216,-0.2429804442965206,0.85078311117480565,0.084203667882725944,0.43319869992539733,-0.85359118340370754,0.89925874295261832,0.72916393974671057,0.97221657843809983,-0.57801341636691039,0.26402533745136519,-0.35517838399469492,-0.0559928245693607,-0.39525555181255212,-0.48962678023500394,-0.36465643044724305,0.48597703340333365,0.83617612658675888],[0.80548311336770329,-0.22727589346495555,0.32023437539646443,-0.11761185736526456,0.060365909127452488,-0.29286520493941709,0.56223529607972111,0.20138981406204565,0.4479990702442766,1.1536872740595241,0.11254528831368026,-0.04943946029043432,1.13010249271454,0.87808592379895078,-0.084157421196862037,-0.2485633359986294,0.60597423470533618,0.40342976016825016,-0.1036981909595954,0.042008385161437164,0.27606297694481247,0.15134505417450239,0.83122126435739441,-0.67651452779031651,1.0357126463862674,1.0226015133006223,-0.10867132857791763,0.72860589065852577,0.51294854533458112,-0.032149485237868952,0.34089147560358135,-0.0362699496593416,-0.56332289925985268,0.284679859106854,0.97082483184395418,0.72603724622929566,-0.27876338376832305,0.5257565495398131,0.9061067004062735,0.38541062087208539,0.67902419751466958,-0.53911180429048344,-0.017399807914135923,-0.987930638105363,-0.028300897513340233,0.31257171268498629,-0.36463666395412869,0.60328116344933913,-0.9306339983499865,-0.59117895997324132,0.16658846364603061,0.51785761338951264,-0.872038228936009,-0.32356984584031051,-0.16141858935036671,-0.26199426764494876,0.20879170893043605,0.02506883005868334,-0.26246786837761837,-0.01861383733672729,0.7783708170507927,0.80912353985658714,0.61715986301320913,-0.59767634612417186,-0.3513299104634372,0.53825437405006693,-1.11325774845076,-0.78313594186176094,0.44929194671131933,-0.33048369470924488,0.54851775539316039,0.69249770922740572,-0.12021775368085243,-0.12134259442264067,-0.055594311752050707,-0.69335809733200793,0.6750174624661075,0.2871989968915068,0.037431598263031843,-0.67536765509877972,0.12346520021270432,0.03088978435241194,0.50968886951824932,0.0972425656849663,0.54145275175878327,0.43555957931495931,-0.3145075218339255,0.78863662760958064,-0.53777560387390366,0.060374815432904,-0.55177457118396078,0.73498472647701119,-0.19996830117436065,-0.16365234198864917,0.6236431016338827,0.97266782526276874,-0.014030183345433158,-0.36147627860105952,0.042883181843583855,0.02977488839139281,0.24053614937594484,-0.66710103164881085,1.0979477280505448,0.065127854130280119,-0.53070307233667557,0.31443142021828918,-0.8194550065812316,-0.12098795318619139,0.39185918802869962,-0.46943346719071871,-0.20480238353201521,0.554596694652936,0.83160403168928432,-0.798603314553989,0.766808499682412,-0.3655005275205942,-0.76475615983059531,-0.20775683590401306,-0.23101850021975812,0.3616206227923115,0.13453094397049323,-0.34593530719538718,0.99450599419740082,-0.50586510437024523,-0.38637417019278619,1.143315881761118,0.1351839892710846,-0.84933286491816362,0.43393607059677319,0.22871084026277549,0.93119504043417223,0.45725574107664951,-0.6141004690435502,-0.90313704766102232,0.50846210040071738,0.0673509279019763,0.077943525133306588,-0.52312986679248241,-0.55337780925124092,-0.51777436668337107,0.23489477059709041,0.76811474883785258,-0.62580807015608275,-0.71920621320433842,-0.40525295297969888,0.37929135668182529,-0.681021291591781,-0.18466471729086106,0.30792212077903119,0.33953348300098557,0.957082260634078,-0.56966720576556784,0.97132373251010362,1.0760779676460355,-0.62044084916154141,-0.079674886364015082,-0.58795688750241215,0.56625481957284141,0.089904087421681309,-0.25316410478864437,-0.59351006362522085,-0.53851349250799119,0.88835867020510551,-0.34219440199038592,-0.24548346432575605,0.55791547710473566,0.44385601346017989,1.0605382118098576,0.17686671906577436,0.14905838111718522,0.76762958807333048,1.2170071347650751,-0.41741774482558514,-0.52349664985588285,-0.5691713847030907,0.55948392059298391,0.76925242938175153,0.42322900847267486,-1.2044069010173104,0.11472776716656848,0.88070036472197122,-0.695937306012395,-0.21938275506289495,-0.80183722337868313,0.28859550418189822,0.326007161747978,0.26757970799452008,-0.64088595468987142,0.7924633733065457,-0.50166727568151936,-0.54472137075123406,0.4024560496528653,0.26225457168342092,0.53512367292750462,-0.788605007190576,-0.19984679014415843,-1.0133482929685158,-1.1179379324830225,0.633464149193894,-0.21029358007518981,0.45609208770904736,-0.95253695046903186,-1.1703239949782753,-0.88727976237662809,0.12862249627200775,0.65654330443039832,-1.2299751009271505,0.29107249453821082,0.65798577469911834,-0.11316209496414412,0.01689163644865382,-0.45251695663352731,0.40857742771163846,0.41768880779489581,-0.36036780708143956,0.56228296262232225,-0.0065679515051856726,0.051677194757785774,0.011717469203373855,0.13908209065820967,0.74731123432851532,-0.37743867477723325,0.81300155724077439,1.0044319306977543,-1.0479668321388747,0.87175791605817321,-0.74068929542130335,-0.54205188904400692,0.71854254046671062,0.0392828650783909,0.087365409149250978,0.889321683008737,0.83181972345449806,-0.053609546940281388,0.62729553208842714,0.635744281527541,-0.61008009829456611,-0.21634361253982914,0.10024530415559367,0.52629916196994331,0.4269503460123753,-1.0169823983169877,-0.15478103724905754,0.035060595058868278,0.74507528677938317,-0.82147352773321736,-0.83593490821608463,-0.98529220068804257,0.069491485981963322,-0.19504983264133616,-1.0034465009147882,0.16084693903711045,0.2210487278008885,-0.14840134973521879,0.25566347117741722,0.041055998391257363],[-0.72273548977034541,-1.0016213380673569,-0.737248892001315,0.39569394003832442,0.36445851963407588,0.34974970892463347,0.59125471109471517,-0.48925157252034146,0.61799396401334217,-0.21455366643066956,-0.45792032789305726,-0.81624418940056431,0.50411051291403075,-0.2983318408189003,-0.017999170298023039,-1.0129555846519842,0.70881078346590631,-0.09928449905212558,0.060164328990207558,0.26510476533418764,0.44854371283618588,-0.52502571014651545,-1.099703080192791,0.4421143024832076,0.46613086165713513,-0.99985583738539563,0.11985482062255906,-0.17429265930606125,-0.38073351573106,0.41239209543902128,-0.59638886501245647,-0.22446933898639196,0.653860433845316,-0.50440310354565576,0.15223595247092336,-0.75559414145047488,-0.63970362378994772,0.59259472720944484,-1.0367675162064365,0.86806092505942345,-0.751934095756384,-0.73864514909891676,0.2320990241519463,-0.21055894830898861,0.49222072632045866,0.70790326660356218,-0.78193567964102073,-0.7889276948329722,0.6154878217537646,0.71854056851347947,0.22251122341046448,-1.009758264283328,0.41967175129169521,0.53590138292863121,0.33135763093527271,0.78684984347402842,0.8274222581054147,-0.49889710388083325,0.75538726544693957,0.30947376458853981,-0.86275790275406972,-0.21174262209062195,0.65675115424653852,-0.92776324971517166,-0.45939091845209751,0.93684205376302732,-0.037506032745913215,0.47350007521585374,0.83299850576827184,0.000508612637492517,1.0341282513032677,-0.58463411555045908,0.32706594263371219,0.63038614952696914,0.60755632932832582,0.58611677463219691,0.56218338331297846,0.54194943811783813,-0.575093516779751,1.0651810618440953,-1.0982261583189177,0.076442194300364058,0.20606352111967144,0.055427696190616223,-0.48300529476784021,-0.62185964904399138,0.29494162933575668,-0.99338365059423361,0.08623352675723707,0.1930266725270712,-0.57533545594098345,0.75432400113479214,0.79384046504225181,-0.35374000918128073,0.62236834877904756,0.31227063571646868,-0.45873176345692218,0.012316047250048331,-0.79845744520693784,0.57917847467995531,-0.35838535738294247,-0.15598286708125728,-0.60180600001839812,-0.31983200218267183,0.68845803263496852,-0.0753817851058366,-0.43556871260300389,0.827512633525683,-0.9746626186413222,0.57072766669660491,-0.8991711584474178,-0.60472593617085724,-0.69928691654663955,0.88570018833346276,0.46595756215216932,0.10575403704920576,0.58591064514028346,-0.44246339410499563,0.561864674870854,0.92070713745653743,-0.59969771095759972,-0.26661417611173438,-1.010622514796395,-0.65163894479872531,-0.5531018227532607,-0.95661928913465322,-0.46923421909675805,-0.47184338396854852,0.79337347545643766,-0.97511744915830723,-0.1362968205283511,-0.78061069955425577,0.07289567507756968,-0.43833013855876651,0.022148767653411703,-0.010378018317762517,-0.31225059971183106,-0.44120289030022275,0.46436149446277936,0.52071806447361957,0.71292627831215971,0.6238413633458294,-0.96888861338280985,0.3798374080859892,0.060531751760018779,-1.0051624465021809,0.44373381108367588,-1.049546316317691,0.414793973872576,-0.41200136419310479,0.6122591541997856,-0.93515082779302638,0.58369880359749271,-0.64369846387192309,0.32591420514028113,-0.863851411960614,-0.1316703659783306,-0.90062745607240646,-0.77470380154042129,0.68455817833973387,-0.516151612577125,-0.660460233733433,-0.90556839813129475,-0.952523298885922,-0.11825129246931289,-1.0161640519541701,0.27635645447948542,0.58165851494857335,-0.33445174208531886,-0.775499430026761,-0.74652589459311125,-0.0431259340282007,-0.13162319170322417,0.87986350938304381,-0.85875598468904846,-0.34409472349865805,-0.11064591724768234,-0.13225541093650287,0.40806930575791117,-0.40287063027469688,-0.41673814158338385,-0.45854189916677751,0.20640663243702553,0.26666178653036865,-0.70753472155180908,-0.063692415204460118,-0.19758685015961758,-0.13822283195831411,0.37727588418100411,0.054737224700140218,-0.69701841350433746,-0.26178343675816856,-0.64327563852646674,0.82915645043339969,0.2010563573015702,0.46504890844397773,0.64725149274616478,1.1073387332923488,-0.47089150836156485,0.16862822586622611,-0.067380178477904326,-0.75943222491143192,0.54366393654307377,0.407569849216796,-0.37932430837406012,0.072374180445457639,0.46482602781068283,0.933557629902711,-0.74944325970449877,-0.3366342030487206,0.4396701045548404,-0.82382532861424229,0.0018482038672002715,-1.0175920717886711,0.3352671978519659,-0.92983836227478933,0.38716452430536119,0.10257106243824866,0.89652655227820122,-0.79153850289871319,0.43844726677047013,-0.309506964725152,-0.64144048007973942,0.8445070824841433,-0.84606668278540087,0.84468634888652283,-0.29465391845749239,0.030782173387593953,-0.078494307779051073,-0.1541099131396716,0.13883692722041674,-0.2573502641794097,-0.77617536022292244,-1.0038982402750281,0.4166787486169653,-0.73517586392870227,-0.13226593783493607,0.65803937780746158,-0.50208712639423225,0.14532855729825056,0.41849618276429418,-0.069018860548738972,-0.62133278950877047,-0.48189079302004512,0.320393516793745,0.79970711076289491,0.4227465281863616,-0.86673577742463326,-0.68686656343906682,-0.20639200812355391,0.86646769041980942,-0.60985047826938077,1.011452003815587,-0.86089752186844237,0.63370820079519474,1.0078635658700079],[0.75439579103531584,0.47505616984687149,-0.063295835020005992,-0.38502921976878185,-1.1279314114296604,-1.2969840270145783,-0.38858717339894638,0.068035546586157181,0.00068469197026301107,-0.51886215187083973,0.74938996696365212,-0.16170072648169426,-0.88865963570988182,-0.46043219331308982,0.40957379310215586,0.86559731679104912,-0.17967493543929952,0.13234071985471077,-0.20563352707281282,-0.37515498411663767,-1.0452420193380145,1.0354547995072156,0.072457750208359137,-0.40028308032624677,-0.8154117636039544,0.2902081377356866,0.91843914360931922,-0.35836921762677632,0.23824220784192832,-0.35557462439332743,-0.059566475814259792,-0.66413213828713813,-0.48292898397384643,0.58247911434872113,-0.27105436033109725,0.54139953101154481,-0.18800685978221432,-0.96918073219185019,0.03604108450652227,0.39054469027623467,-0.88241932746971119,-0.025405107851363816,-0.033186939056459495,-0.36757414611575034,0.78552762894710371,-0.49866250951994961,0.64304309040939278,0.16363504298902284,0.54928009809296929,-0.8064428828844693,0.86283431394835131,0.1482232688630126,0.29059753839348162,0.0361909621418542,0.51256528213834662,0.63120859276885566,-0.21144769584894319,-0.4122533818662561,-0.96537762186213172,0.43990997948671462,0.33732899432505176,-0.27752115297861524,-0.77223934024877106,-0.41137565494647232,0.70985507585626606,0.58755284736127056,-0.69796782542209534,-0.29089700702497184,-0.8384468835592559,0.628751546048252,-0.20870498203596863,-0.75701076801014489,0.51558546943244044,0.43326273247100905,-0.74194933576040867,0.24657287866017028,-0.20920604299741441,-1.0173373842468925,-0.39541308166244421,-1.1165207865116864,0.26831159104927704,0.90865752776160691,-0.045106400713549988,0.060222886532739425,0.055340426938165252,0.48005317729141356,0.23770182178276289,0.80848473276511423,-0.91898220292510291,0.33704267233982693,-0.21562785685703767,-0.50655578044067051,-0.65595419039497971,0.7620736917821006,-0.85491380714851639,0.59316713864209969,-0.66169742855087033,-0.3456832620976133,-0.1245129072365459,1.1386304117560555,-0.83836603000541332,0.19285629890418946,0.0766172236108034,0.85530300565323714,0.541531463188605,0.58009314253691524,0.65082934439537488,0.34594683424842426,-0.99464243114721762,-0.61909442532729053,-0.2133488321536556,-0.70124302666563032,0.73683418546081836,0.912890608518476,-0.98019869427053419,0.43402927774355027,0.885306557217163,0.13902627423962674,0.10805023265693144,-0.96040366826855461,-0.47357437302142075,-0.23104350275857713,-0.25909928233380458,-0.17492938909276096,-0.41474086574748187,-0.27636501903938204,-0.34809609077695175,-0.640915214420704,0.63122627920091423,-0.015624792467642812,-0.14988634903405135,-0.094394728983684714,0.64900531553336616,-0.22811406377935611,-0.77788958758347693,-0.54473417593818041,-0.15576132883849572,0.2051228996407064,0.97408005455547575,0.87190229099277949,-0.68163878031214242,0.50466440683451008,0.01976446284468451,1.0638368113876153,-0.24065246144825478,-0.77014358451102194,-0.25358313122849091,-0.5651716476523414,0.538482211196284,0.23178959400456492,1.0111803163539386,0.41566578304473473,-0.31367631867961554,-0.36511466862023334,0.52947378056178018,0.24276402632419847,1.0370546627318673,1.0934777290656654,-0.23854911238838353,-0.3276358691919129,-0.051353977994799328,0.29369432472682583,-0.60876176616649746,0.91411882872754424,0.68924995358134689,0.9753359208329212,0.11611328890371822,0.35631564222468171,1.3548964750204164,0.96380357909955006,-0.68878098457702785,-0.33320248047778228,0.73055118942626773,0.71621776204036725,-1.0800292041747284,0.378059164412608,-0.97044349403325036,-0.057727327319518004,-0.70682507403825356,-0.23725853987615708,-0.85294134335825855,-0.65366553558348139,-0.35230583196605447,-0.44470079743754826,-0.012413606881558639,0.20066593150622636,0.59640970005097693,0.0055059212832882093,0.53116325458867086,-0.029436149692371533,-0.87540744148887262,-0.24310193490280446,-0.73599602885407223,-0.010672104941545475,-0.22821540107057392,-0.21700532406510362,-0.0043521730697383288,-0.045358564856392461,-0.47597828554369953,-0.53355020414490661,-0.051514493534383039,0.21114331309527057,-0.93537882978197051,0.27460945072598997,-0.79684026029686417,-0.026980360106899776,0.658294130871027,-0.02906405367867498,-0.85293268109937,0.904667179779737,-0.078241414130691786,0.084490508606845122,0.406975703402894,1.0396332189681283,-0.3489823449147218,-0.21031015764043998,-0.600787484499153,0.59813391666850335,-0.13392978803223171,-0.57963694961716172,-0.80925689802923051,0.839708930654097,0.8069867633704364,-0.0058106640118197753,0.681707388633146,0.595538662815292,-0.71226631554568665,-0.40573985674664426,-0.23980584961158979,-0.12900827412623891,-0.95680662742207712,0.082476505006537082,-0.6356784944459638,0.76669525439348885,0.71914533422505922,-0.24742938833337586,-0.46658201993745418,0.57695527541975578,-0.85151976336759272,0.84412791267414311,0.37827118682561139,-0.42271874033463663,-0.02064224820718635,0.61828974978757378,0.942853116609583,0.21178867290622611,0.48165098950454793,-0.40585316759159928,-0.15749274320687329,-0.36770212046675066,-0.42925548539407049,0.4582368484057372,-0.7024746658516785,-0.59353196432901689,-0.62091072936751135,0.29613651519079515],[0.43881534273173567,-0.22542389153597375,0.044496157545907626,-0.051071588365301152,-0.233966782260103,-0.036235147113104146,-1.2638826848828684,0.33499931646757053,0.51795915134351178,-1.2592413038895465,-0.54003631305569511,0.96407117323524316,-2.0209852939161692,-0.17231691731467461,-1.100492864094077,0.270252428984559,1.4062463274911403,0.69390933663844312,0.20133807799737383,0.44205721259452974,0.32563725228999235,1.0122329216622983,-0.18459472095050059,-1.1254893935605368,-0.4139145507638286,0.867266439463858,0.49464412009357966,-0.774043160782217,-1.3268534694772005,-0.62352615224484609,-0.699737720437325,0.85060796170211306,0.39754172687119421,-0.40707734491691239,0.27355244189676281,-0.13216548402073583,0.5431813994009228,0.10919443492586564,-0.043859235066594011,1.1050281408889819,-0.95162241599719377,0.84719268292604466,0.94872677228335722,0.804450582835999,-0.69040655203925894,0.8085790397706536,-0.54184515936004451,-0.054081668513632004,-0.44689719902518044,0.51301683206619919,0.96167768919882468,0.37776573248557249,0.93104925658636783,-0.2664204790065961,-0.60830148575388421,0.762466869262848,-0.32815728542717482,0.62761651548101549,-0.34474734692898634,0.28106356611743949,-0.54155584516411881,-0.63516678458390752,-0.36893975713985483,-0.096091184766250157,0.32875808337495521,-0.29471755522030063,-1.0598803918497295,0.50540764731882315,-0.11713436946025531,-0.05296053219214901,0.10233373140048382,-0.92405143656555866,-1.0677966062100048,-0.38314699811968683,0.23876015186575139,-0.16140661020875508,0.8636425529200108,0.0403713757771795,0.75579678126753647,-0.8180800794757811,0.011733056209697038,-0.80202086328620548,0.26420441491346991,-0.52211619045933422,-0.39832001161593528,-0.074227442953101,-1.1697492189991903,-0.29610595925184874,0.790799001378943,-0.11979024414898915,-0.36549954401587054,-0.938770232304887,0.14999389069923827,0.21839329368390789,0.3386469468797631,0.55209317641875255,-0.59336272815773472,-0.93762624167486086,-0.63603883178584475,0.10921961346569886,-0.24051295949383067,0.2353245944051944,-0.80466155075836643,-1.2994111206457719,-1.4309768230902769,0.5601249150660601,-0.24852550042815846,-0.67175056485005069,-1.2047292958619107,0.35845920417508975,1.1678886752855295,0.50429053592740714,0.12231916096332074,-0.48362011657284026,-1.0066511307420474,-1.3629643609692963,-0.26890444591517859,-1.3039746902128711,-1.0127001621682021,-0.69133989407147345,-0.40360358442964756,0.75974980653996127,1.2828554200638678,1.0168298229014743,-0.4316672213771518,0.94108339616287684,0.94730598011050327,-0.352654611573744,0.94263850044128006,1.541326975575319,-0.21236541946598439,0.44848718731703796,-0.0012503705005960408,-0.35938955844586817,0.22852007617346792,-0.26159848396115737,0.7294719145437627,-0.15429550740948933,0.19628239071735307,0.44119094102363887,1.209811080761106,0.61045630581169308,0.54045498118044955,-0.58419508211495763,0.91008034288680129,0.76483171679541573,-0.13546283890713579,-0.68979050305101508,0.46988110242602438,0.37898356364683156,0.81672377570756949,0.38996654112624146,-0.496931518429551,-0.69138696946037237,-0.14883795093326543,0.449812777590333,0.11302365025861416,-0.1342034405440348,-0.595897658997216,-0.26091548494909295,-0.91963492450271311,-0.34138856973814291,0.24814865837163283,0.49557414637630837,0.44930786901435904,-0.39618994778183725,-0.5825307185948162,-0.10549229965383887,1.911255168164369,0.90532525835216,-1.0125982942250498,-0.78645801465096177,0.53141311579958017,-0.17346462603988094,-1.1599829465381419,0.046359307712038306,-0.4860546240614726,0.70978963180830446,-0.28888082303832768,-0.84594298656231337,0.24007024326371604,0.86635194398116933,0.960628255025748,1.0506985256286685,0.233539909102302,0.57595604322577243,-0.47991301335940012,-0.59965370379159488,1.3214693736022662,0.035026537356216969,0.83570190128747834,-0.37826067647961159,-0.84120231361394349,0.89499344750300081,-0.0375846028377657,0.053762496433822089,0.66226897259684092,0.68012090897034538,-0.15302457040106277,-0.87090052990956779,-0.9662953734757409,-0.029722304691084066,-0.97991256541715277,0.12062060851126975,-0.4273180619427015,-0.56905827671970366,0.565091240854324,0.52973142341820179,0.73419456727663412,0.17280127292781469,0.65991885648613746,-0.4634035400763078,-0.79916654726145542,-0.527501553275135,1.030610430692577,-0.68684322809902265,-0.34173806909169607,0.32511707241237658,-0.3011229902426461,-0.31108626180806204,-0.76360677172492,-0.459353302642624,0.89427294045915928,0.61205452927272908,-0.93030026257787057,1.1526983560517377,-0.45265483413510482,0.58737743810995591,-0.709670412141856,0.065399088422029517,1.0313008259728096,-0.0021728298032921362,0.30888438050143679,-0.016459915091735718,-0.56963430258645231,0.97318042058403531,1.2887434719390047,0.29818280365172339,0.18322887692324025,-0.7059792857728947,0.60247879110935754,0.13818457285177294,-0.21710143612006072,-0.094162190171722462,0.42687769700920958,-0.25114799475668187,-0.70345263205053266,0.91184468962649623,0.93928517867774275,-0.43484619155234422,-0.60686464522408579,-0.89945522598349226,-0.22928288534736618,-0.53341113456538447,0.764715375766153,0.7202361386373487],[1.1358706954786466,0.16941092106518732,0.13869906463798376,0.098408983672007261,1.0192680679835613,1.4065525398935443,0.22377981379490489,0.011170680954399777,0.023417451655724737,-0.28715554191162862,-0.65170984818658317,1.166826303527615,-0.85552085254723231,-0.44032734480965935,0.28260043496079668,-0.26852950213591587,0.058734064363802282,-0.45246218214422967,-0.19758871645222781,0.097994920042984573,0.54833633094271128,-0.37899531340836068,0.68344412036423785,0.24297184683714496,0.23436397544209531,-0.50082174855560557,0.78929029197845291,0.73215072652269209,-0.93075953567384917,0.79591746814265574,-0.68107418704672151,-0.51524382005087521,-0.33373792741797953,-0.61400610290224755,0.84904491696389106,-0.32079840524253661,0.59203103582168315,-0.71590546155301171,-0.10573789321695555,0.749621543988437,-0.86878593044313734,-0.96524775173967559,0.85680982064952615,0.0011844492161299524,-0.20794168545026587,-0.52079402746744374,0.77858188652426319,0.82682625960376521,0.72975620931922047,0.88471706145363527,0.50601321468544858,-0.47864475301010745,0.73112230868354533,-0.58786669021802052,-0.87843216559973769,0.48012182188339331,0.19543036994513863,0.38967119941181155,0.22711060486973936,0.24050887186036865,-0.72531471765657385,0.23578784470284364,-0.83043364586717672,0.20541545408121831,-0.7416190180140193,0.49368630864749735,0.23875791628336929,0.86064630577024792,-0.59128654161192384,-0.7630352534455167,-0.10256474842858832,-0.604996262396046,0.47420452587013961,0.050166757476668725,0.21503202421878656,0.51925621144281964,-0.56229278835295293,-0.30297408460207176,-0.189516013414009,0.21340426504668406,-0.23050416042447519,1.1375719314574178,-0.70142977223675052,-0.34236167077226415,-0.69128271750911185,0.62152907109787325,-0.325660861470532,-0.81658347445265911,-0.8088366599949135,-0.83036659123490109,0.50347191219414111,-0.75924121402359457,-0.10023159907918305,0.51144273681856045,0.43044616519373041,-0.26205691767006262,1.1545958240694494,-0.30230169476614327,-0.26738237095944273,0.30050294578865694,0.11008052617074098,1.0741942534849409,0.66033391446181233,0.21820312934052957,0.16356467413321471,0.54150344422941832,-0.11204229965233176,-0.94757898126060025,0.69069496098391781,0.075640007188711458,-0.29554726429840905,-1.0206926065993369,-0.15386555944500349,0.99253864230276934,-0.57268421121785229,-0.83881410365963238,0.51203610059729032,0.69590041019351878,-0.0788662107664708,-0.657815059092306,-0.023957003809083454,0.32395614670041856,0.70099931495697954,-1.008521724064259,-0.23001496263225754,0.19899441360563105,0.49307777869085251,0.70018281637087088,0.69356995308697555,-0.64227925212396331,0.6444922355691346,0.82783981054969724,-0.88419117797967539,0.62610089524100321,-0.88700827684492733,-0.13055789988770009,-0.46651434170266748,-0.54187409581668167,0.63115526434715263,0.12382583867840809,-0.34907496482371247,-0.95900056230563646,-0.15840543637396695,0.45486203698816846,0.2130059692961192,-0.03803308111988328,0.36108931509898667,-0.32544680257173747,0.055268434367928145,-0.10564128223255845,0.46441292158316033,-0.64454891674944337,0.6170462222557892,0.97039441199303234,-0.85765656733135609,0.74643923969774073,-0.95152709342447306,0.10320618160041507,-0.41988417258361266,-0.97918490720039675,0.43586644854925727,0.0027163135918551809,-0.08194368818951725,-0.08772334879549501,0.079743674120501623,-0.030335363719760224,-0.72106399504652685,0.040519561268821246,0.85178213590981733,0.37999516795122251,0.80243988796062493,-0.13691883043429895,0.79681342852295267,0.63661366226208127,-0.99367978301560778,-0.19233357634574766,-0.79902371764681812,-0.787376059610176,-0.14790635523735363,0.78904147551021919,0.50448351421058568,-0.42170123689054134,-0.22631040194583582,-0.2558165280039334,0.033946428961041365,0.38813152090651959,-0.86847540982661786,-0.9120065701581973,0.41301288845562534,-0.73728673132017075,-0.38778774842754721,0.30250310605583991,0.87179656531686223,0.68416196207855429,0.622958619713358,0.53664368835269816,0.0746083269954834,-1.0009348114242087,-0.45908720046377255,-0.83516734877796417,-0.39687213843577684,-0.6840588642149622,-0.012335098925957385,0.5451355393273,-0.011155434112279634,-0.32495116939790264,-0.5950504678824251,0.8843058652571133,0.83922085630562626,0.48903745395051551,0.758476257891043,0.89194132862118047,-0.80612112062666708,-0.21095712646846646,-0.495041229310798,-0.27046633757484917,-0.87864579709270541,-0.92244871222614322,0.733278952178799,0.347867675290524,-0.17390843622486893,-0.75138494634368336,0.56894680759751437,0.51149729396622423,-0.063922043977485576,-0.47764337863610012,-0.21399471314667368,-0.89860826843944719,-0.83957006704478288,-0.476961595846347,0.5589684985890091,-0.81233359289845264,0.89769820611712559,-0.40958045100008333,-0.029494385014275589,0.11951668063507415,0.72894064132623038,0.17606749940565497,0.62395017356508731,-0.66467532068539814,-0.042938757461817842,-0.76715102140011138,-0.76660240267030666,0.89342349609919514,-0.610745802049535,-0.21937201560823205,0.16317898494256122,0.1061647086475629,0.18257694142850584,-0.11256043371600187,0.41133447550379609,0.0882840963362762,-0.7573175174417911,0.081407314286529239,0.37149119513769585,-0.51805603383923537],[-0.22671788822646197,0.435747874297372,-0.10015569061277842,-0.27074591970386547,0.97801866479695887,-0.45530859894768178,0.939040204057364,0.43316574472770164,0.93469628524872672,0.5146492263710345,-0.73612140689237449,0.553822461060706,0.72883548501427275,0.40080246109644929,0.19420071721065677,-0.034797046491689743,-0.40402337252550319,0.7773404772343836,-0.013329060848663974,-0.042047080828523174,1.2225348843752579,1.0244831472584317,0.39114964305173466,1.13086753489533,0.54803070241887375,0.89459080466509289,0.22448511487483444,0.45507793931623985,0.67770162400714307,-0.052451067339577211,1.1953649147905345,-0.15481858916468913,0.39023131791158411,-0.23037771508334243,-0.42002003179195968,-0.52206562807677181,-0.46487047261583536,0.323322494068753,-0.37423722025465267,-0.36144319400316094,-0.59334016386286292,0.0052212279054822223,1.1555465776391964,-0.065245523607017519,-0.252528994447615,0.82932893893583048,0.52984912639579251,0.83273716156532729,0.71959189919437,-0.54332135824100458,-0.27201357126620951,-0.247154178322355,-0.36143072009445643,-0.20356800880433787,-0.45229315990154395,0.028729801381375594,-0.809365960632388,-0.15962858119324641,0.374475147835889,-0.75384081736491593,0.74612684180727684,-0.14248717086970159,-0.59601007412816409,0.4285416014884677,0.62247306889449361,0.446337280460184,-0.82581784417226944,0.00920826433345614,0.049722358481806422,-0.12806836708561756,-0.53541878315903679,0.18369270442002464,-0.00024698481770518308,0.9202764338989774,-0.78854038943407656,0.019887452032508374,0.70977938402064844,-0.67579138669454963,0.29670961162867282,0.58722407757210715,-0.74981399250282188,0.13550019085957016,0.41840411480424428,-0.44011367885823516,0.79307596715902529,0.16137680766758791,-0.89947620294405251,-0.32754625967189482,-0.85741508906117991,0.40722849361043223,-0.86358494842180289,0.675206739692093,0.68776379604914506,-0.81420976402379519,-0.12928777432207067,0.57447292094768443,-0.3265948492394577,-0.31884042378110961,0.30932068990331918,0.17439248384514994,0.28238027380490943,-0.50819195415837781,-0.16930488049335909,-0.14552690404550292,0.924606580670769,0.6286936107905543,