{"Descriptions":[{"width":28,"height":28,"channels":1,"filters":0,"kernelSize":0,"stride":0,"padding":0,"activation":0,"hiddens":null,"outputs":0,"activationHidden":0,"layerType":0},{"width":0,"height":0,"channels":0,"filters":6,"kernelSize":5,"stride":1,"padding":0,"activation":0,"hiddens":null,"outputs":0,"activationHidden":0,"layerType":1},{"width":0,"height":0,"channels":0,"filters":0,"kernelSize":2,"stride":2,"padding":0,"activation":0,"hiddens":null,"outputs":0,"activationHidden":0,"layerType":2},{"width":0,"height":0,"channels":0,"filters":16,"kernelSize":5,"stride":1,"padding":0,"activation":0,"hiddens":null,"outputs":0,"activationHidden":0,"layerType":1},{"width":0,"height":0,"channels":0,"filters":0,"kernelSize":2,"stride":2,"padding":0,"activation":0,"hiddens":null,"outputs":0,"activationHidden":0,"layerType":2},{"width":0,"height":0,"channels":0,"filters":0,"kernelSize":0,"stride":0,"padding":0,"activation":1,"hiddens":[100,80],"outputs":10,"activationHidden":1,"layerType":3}],"Kernels":[[[{"rows":5,"cols":5,"data":[[-1.00202322,-0.0379314,-0.0383597836,-0.1632926,0.4240068],[-0.621618152,-0.253053427,-0.108179919,0.272050351,0.636475265],[0.6729483,-0.01944585,-0.349576384,-0.4623448,0.146835342],[-0.196895,-0.09773698,-0.60295,-0.3529011,0.559301257],[0.5667118,-0.107127771,0.249630764,-0.9499132,0.6786226]]}],[{"rows":5,"cols":5,"data":[[0.218531877,0.5718461,-1.06314027,-0.393589735,-0.6458875],[0.3266738,0.357487172,-0.21754612,-0.943975449,-1.3643744],[-0.5632531,-0.115536824,0.854027569,-0.4968539,0.6736955],[0.249909535,-0.351152152,-0.6821209,-0.2718096,-0.244342044],[-0.6513343,0.282166183,1.02933,0.9381107,1.37846076]]}],[{"rows":5,"cols":5,"data":[[0.126913682,-0.294345379,0.658473432,-0.6668082,-0.5653711],[-0.06109425,0.6117278,-0.7073554,-0.1999621,-0.901671648],[-0.0303936023,-0.675429463,0.434761465,-0.315991253,-0.565912],[1.1872257,0.477821916,-1.06209373,-0.683420658,-0.0579161681],[1.17294264,0.4752947,-0.8472332,0.09376368,-0.807561457]]}],[{"rows":5,"cols":5,"data":[[0.0618228763,0.228384316,-0.166098118,0.5648732,1.04162657],[-1.00587881,-1.08030617,-0.196675718,0.201430067,1.18131566],[-0.06783858,-0.970981836,-0.389495641,-1.17179549,1.193717],[-0.252225459,-0.5745645,-0.4404263,-0.87932086,0.2126248],[-0.333207458,-0.348509669,-0.0522269756,-1.42611444,-0.818576455]]}],[{"rows":5,"cols":5,"data":[[-0.57240814,-0.65789336,0.0119484868,-0.720974565,1.38794577],[0.6687336,-0.968115747,-0.7408216,0.5022632,0.324325681],[0.269926876,-0.6626443,-0.738982737,-0.4349259,0.826090038],[-0.5872015,0.3475203,-0.8531898,-0.123505495,0.5743915],[0.429485321,-0.314825863,-0.9103828,-0.5034656,-0.509020746]]}],[{"rows":5,"cols":5,"data":[[-0.436406583,-0.91482234,0.512294769,0.9281224,-0.130044311],[-0.9579883,0.7559495,-0.128156081,0.4770504,-0.728628755],[0.333033025,-0.3528762,-0.259135842,0.8353369,0.2311942],[-0.0831535,0.406713367,-0.04122801,0.886794865,-0.362805665],[-0.09837964,-1.14659381,0.1491657,0.406713068,0.387510777]]}]],[[{"rows":5,"cols":5,"data":[[0.0893602446,-0.7992064,-1.0194608,-0.0311730187,0.0175900944],[-0.995990455,-0.46530968,-0.263477832,-0.8562849,-0.358773619],[0.260108769,-0.3346904,-0.305797,-0.6478943,-0.384451121],[0.384177625,0.344205558,0.0591942035,-0.507734358,-0.6633669],[0.6276082,-0.573533833,-0.0425533541,0.8384968,-0.8938121]]},{"rows":5,"cols":5,"data":[[0.419552952,0.3887657,0.150291368,-0.6385749,0.341505527],[-0.284928679,-0.3014984,-0.491375536,-0.0233751256,-0.752905846],[-1.08056855,0.62069726,0.782510757,-0.762500465,-0.273060769],[-0.32432422,0.547260165,-0.432961583,-0.239408389,-0.929797351],[-0.7849263,-0.249378145,-0.4770519,-0.6891504,-0.2658505]]},{"rows":5,"cols":5,"data":[[0.07261431,-0.314502358,-0.123847291,-0.4703091,-0.09580327],[-0.2972531,-0.08027443,-1.05311239,-0.132722169,0.341830283],[-0.528975248,0.217269525,-0.70196563,-0.219040364,0.6796934],[-0.527043462,-0.9579098,0.6087443,-0.9308064,-0.5463654],[0.799347043,0.6075744,-0.243913338,0.698719561,0.445727259]]},{"rows":5,"cols":5,"data":[[-0.9141346,0.983537,-0.6052908,0.840988338,0.855679035],[-0.290209621,-0.0312870443,-0.144128531,0.574319,-0.872455],[0.93362,0.955473363,-0.9521758,-0.8983823,0.486247152],[-0.09203427,0.8623485,-0.0149226123,-0.08139736,-0.7267567],[0.323072135,0.460734218,0.8775414,0.0862501,0.6933788]]},{"rows":5,"cols":5,"data":[[-0.898547,0.192465022,-0.4828254,0.8405496,0.07045942],[0.5497948,-0.997105658,0.164912209,0.0134623963,-0.14425315],[-0.188645974,-0.228434563,-0.8923746,-0.0447051562,-0.446389258],[0.5195777,-0.3986718,-0.2531838,-0.419331521,0.695706069],[-0.5645156,-0.87423867,0.635064,-0.412347,0.4225595]]},{"rows":5,"cols":5,"data":[[0.544863343,-0.3762004,-0.9345968,0.531092,-1.0055021],[-0.713102937,-0.9655791,0.2838893,-0.835551262,0.7262605],[0.223937482,-0.6577993,-0.0148135,-0.4932031,-0.445185453],[0.680003047,-0.378364235,0.0365564935,0.263218462,-0.3298465],[-0.9654417,0.541701436,-1.01001763,-0.6583181,-0.276696771]]}],[{"rows":5,"cols":5,"data":[[-0.5311811,-0.387744874,-0.379811317,-0.3426258,-0.288270116],[-1.19061863,0.751943767,0.6176486,-1.47332227,-0.368477553],[-0.280393541,-1.084104,1.12004447,-0.344519764,-1.91165113],[-0.5817636,0.235804141,1.26731122,0.463947535,-1.17741978],[-0.367905647,0.2539171,-0.2736498,-0.807905257,-0.0571786]]},{"rows":5,"cols":5,"data":[[-0.5343132,-0.630993664,-0.166877523,1.41523921,-0.360835522],[-1.341006,-1.25909913,0.529733241,0.8062701,0.382857352],[0.554653466,-0.697118044,-0.288211554,-0.493228883,0.7609362],[0.810457349,0.0805522054,-1.23622072,-0.112098843,0.911701],[0.8341257,-0.01207489,-1.19485235,-0.446754128,1.15808845]]},{"rows":5,"cols":5,"data":[[-0.225021631,0.7300041,-0.5771902,0.1607905,2.38039374],[0.2581162,-0.379861355,-0.0752040148,0.7920714,1.9471209],[0.274207771,0.3248772,-0.9113166,0.951463044,1.10649765],[-0.695063055,-1.10808778,0.157475218,1.71894121,-0.83873564],[-1.20159209,0.0681316555,-0.336984247,-0.157466173,-0.363867581]]},{"rows":5,"cols":5,"data":[[-0.265220076,0.353533953,-0.06875178,-0.8653894,0.547522247],[0.0469994321,0.656381369,0.642446,-1.06999326,-0.7557399],[-0.675676346,0.252197474,-0.7842712,-0.586220562,0.288746178],[0.587957561,-0.4824846,-1.69548225,-0.338965148,-0.841779649],[0.1556385,-1.21162224,-0.874345064,-1.51080692,-0.2555975]]},{"rows":5,"cols":5,"data":[[0.7546188,-0.6997679,-1.1260004,-0.6971577,0.6418319],[0.203707933,-0.118172988,0.236349612,-1.16080785,0.141909167],[-0.803321362,0.261668384,0.0455505475,1.01953435,-0.132294014],[0.596774459,0.389793634,0.873838961,-0.120067768,-0.429779321],[-0.321238756,-0.7746333,0.4566407,0.8719929,-0.530444]]},{"rows":5,"cols":5,"data":[[-1.05119824,0.603907764,0.24483043,-1.15578806,-2.74819279],[-0.403010547,0.434219241,-0.118813045,0.286517024,-2.33205438],[-0.27338025,-0.563142061,0.134571686,0.3232069,-0.7096199],[0.812855542,-1.14393628,-0.00692817662,0.127055719,0.334425181],[-1.29473889,-0.281875849,0.409197271,0.497285724,-0.0144312866]]}],[{"rows":5,"cols":5,"data":[[-0.4550079,-0.978168249,-1.03627348,0.2953088,0.203623667],[0.08697707,-0.6389612,-1.17567122,0.728651047,0.971728563],[-0.194591463,-0.4810147,-0.0420805551,0.6857883,-0.127541721],[-1.34585476,-0.2745607,1.35161531,1.14306009,-0.5411952],[-0.821391344,0.404582024,1.79330242,1.29128456,-0.591304]]},{"rows":5,"cols":5,"data":[[0.002596113,-0.1478435,-0.2249384,-0.732826,-0.347657681],[0.5944968,-1.232435,-1.16627181,0.341112077,-0.160878226],[0.8431729,0.03738627,-0.160301387,-1.04106534,-0.49975282],[-0.6467369,0.3979796,-0.23656,-0.7853163,0.580217063],[-0.0861634538,1.37233543,-1.4677366,0.398374647,0.9855758]]},{"rows":5,"cols":5,"data":[[1.699538,0.7249871,-0.07604484,-0.421225816,-1.36940122],[1.43142438,0.6324566,0.5434472,-0.8043898,-0.6723955],[1.25456071,1.07324493,1.3319726,0.020527944,0.506713867],[-0.151554823,0.6255482,0.07809726,-0.224649653,0.09271976],[0.158648312,0.29976356,-0.8153156,0.331098527,1.058173]]},{"rows":5,"cols":5,"data":[[-1.25807714,-1.1333462,-0.6570686,-0.261677861,-0.93613714],[-0.622507751,-0.1523682,-0.5662904,-1.14884722,-0.9326883],[-0.497106224,-0.401886,-1.54236281,-0.5342177,-0.626118064],[-0.50892967,-0.9557521,-0.7485965,-1.50414932,-0.407357],[-0.527475238,-0.229465544,0.29158935,-0.201596931,0.0607781932]]},{"rows":5,"cols":5,"data":[[-0.928947866,-0.3873633,-1.57633746,-0.717134535,-0.6055836],[-0.07027124,-0.799300134,-0.09779375,-0.8144327,0.660013],[0.6013307,0.574520469,0.9550703,-1.02895677,0.268156052],[-1.075195,0.20563513,0.157908022,-0.398883224,0.08263395],[-0.00139839039,0.036682602,1.14489448,-0.183600575,0.3380063]]},{"rows":5,"cols":5,"data":[[-1.3668865,-1.52335036,-1.41771889,0.003940017,-0.7268147],[-0.0686077848,-1.0745914,0.153770432,0.657035947,-0.108418494],[-0.6481576,-0.82362926,-0.162172467,0.502127647,-0.282051],[-0.6717057,-1.03736913,0.85055846,1.89377809,0.7572647],[0.1985514,-0.8662797,1.42654,1.32882333,-0.1599528]]}],[{"rows":5,"cols":5,"data":[[-0.809488654,0.845562756,0.0624637231,-0.01559215,1.24553967],[0.6045648,-0.181236729,0.193335608,1.5146786,0.413113266],[-0.458286226,0.6721729,0.238748789,-1.39336729,-1.37094164],[0.08917881,0.2226157,-0.301485628,-0.9714335,-0.6761342],[-0.5490248,-1.07273006,-1.442133,-0.600447834,0.5426589]]},{"rows":5,"cols":5,"data":[[-0.319294244,0.5293589,1.35624754,0.666328847,1.30186427],[-0.0493965968,1.38957739,-0.5765993,-0.372680068,-0.687658668],[0.176622942,0.0419793054,0.2948277,-1.133034,-0.205103844],[-0.07078451,-1.0722307,0.324340433,0.6413657,1.02274787],[-0.389775246,-0.08766352,0.4695864,0.185414389,-0.3222126]]},{"rows":5,"cols":5,"data":[[0.6419613,-0.8266717,-0.5084505,-0.483084053,0.9093383],[0.421141565,0.215896666,-0.4853474,0.6216703,0.0599386543],[-0.9908863,-0.1722927,-0.9260247,0.3079137,-1.05672216],[-0.3466714,0.331742674,-0.951868534,0.217201233,0.1384191],[0.434429049,0.6677227,0.295105636,0.476782322,-0.2710961]]},{"rows":5,"cols":5,"data":[[-0.0158576239,-0.320108,-0.238607,-0.4120042,-0.62822783],[-0.9417172,0.323586076,-0.873420656,-0.515368462,1.00094175],[-0.6959878,0.0930466,0.425712973,1.10970891,0.07431608],[0.301663756,0.2847778,-0.10997989,-0.2804429,-1.0510397],[-0.19066979,-1.26772881,0.143281013,-1.17503858,-0.5609551]]},{"rows":5,"cols":5,"data":[[-0.368504673,-0.9933867,0.221154809,0.30796212,0.6623968],[-1.013426,-0.5880853,0.415986627,1.59233785,0.211132437],[-0.13082628,-0.02307188,1.00124192,-0.229036868,-0.858259261],[-0.9625571,-0.697767,0.6847311,0.03850061,-1.05815172],[-0.3982586,-1.18428349,-0.862737656,-0.9335889,-0.956253946]]},{"rows":5,"cols":5,"data":[[-0.3277785,-0.06018337,-1.27494574,-0.46752128,0.7930904],[-0.504117548,-0.004258271,-0.5230202,1.69644761,1.9517839],[0.6253711,-0.292778939,1.23554587,0.03885335,0.386176676],[0.07354125,0.306296021,0.173083887,-1.67610264,-2.40035319],[-1.08048511,-0.86781466,-1.91730726,-1.58540463,-1.17945468]]}],[{"rows":5,"cols":5,"data":[[0.369657248,-0.9832085,-1.08988976,-1.15465915,-0.0527239032],[-0.388136119,0.5825906,0.5086903,0.0651964545,-0.146368831],[-0.04974121,-0.7558336,0.15224573,-0.288304657,-0.674503267],[0.729424238,-0.840377748,-1.04165876,-0.8700568,-0.08649131],[-0.232560083,0.0740563348,-0.07008403,0.530162752,-0.404659778]]},{"rows":5,"cols":5,"data":[[-1.128661,-0.658789337,-0.919370532,-1.18650985,-0.138339713],[-0.751160264,-0.282907784,-0.05837902,-1.17802489,0.220167786],[-1.18521821,-0.419450432,-1.00767207,-0.4448451,-0.009573192],[-0.132040158,-0.810055733,-0.753847361,0.0607065521,-0.8510966],[-0.5524928,-1.17406631,-0.258893728,0.9514071,-0.604900837]]},{"rows":5,"cols":5,"data":[[-0.6993017,-0.146037385,0.351498365,1.03077614,-0.8055189],[-0.257489145,-0.0496130474,-0.8457607,0.826562941,-0.112933829],[-1.05694449,0.601418436,0.6471329,1.15732217,-0.304565251],[-0.5722265,0.274777681,-0.07578303,0.6602141,-0.583471358],[-0.152857438,-0.7345268,0.3166454,0.411028922,0.3920744]]},{"rows":5,"cols":5,"data":[[0.457584828,-0.912344456,-0.8227626,0.5493056,0.8405391],[-0.753941953,0.3995453,-0.91416657,0.418819547,-0.564531863],[1.00236678,-0.0572478548,0.101675384,-0.9458174,-0.508736253],[0.8897907,-0.0114041632,-0.390924752,0.6604334,-0.02578895],[1.34425855,0.266604215,-0.772875547,-0.558113933,0.801725745]]},{"rows":5,"cols":5,"data":[[0.539405048,-0.04666803,-0.08104064,0.260881633,0.391922444],[-0.6773226,0.318835884,-1.25853407,-0.7747932,-0.6431705],[-0.301580638,-0.191274062,-0.540301,0.3825807,-0.5373865],[-0.235823363,0.484021634,0.6905217,0.103603959,-0.134323567],[0.8539237,-0.8290204,-0.427003026,-0.120419145,0.361666828]]},{"rows":5,"cols":5,"data":[[-0.241299763,0.36029017,0.310839,-0.91487056,0.272380441],[-0.440594375,0.712779641,0.201474369,0.309760332,-1.00564384],[-0.1441929,-0.02241053,-0.380962461,-1.06215227,-0.8599963],[-1.11702776,0.277651578,0.03316606,0.549411237,-1.08084786],[-1.13402033,0.8068071,0.0447303168,-0.01456667,-0.1851568]]}],[{"rows":5,"cols":5,"data":[[-1.58748651,0.282053,0.161864787,0.73397994,-0.575246632],[-0.348225117,-0.424486458,-0.4966538,-1.48414481,-1.36688852],[-0.425182939,0.6235263,0.5214769,-2.06647,-0.544816554],[0.8766833,0.6827957,-0.910664439,-1.11934745,0.571770132],[0.4281858,-0.286211848,-0.124653421,-0.3821504,0.9213867]]},{"rows":5,"cols":5,"data":[[-1.10049653,-0.0386680327,-0.114182293,-1.03839624,-0.7297563],[-1.28017545,-1.11811256,-1.63760316,0.3769518,0.340413064],[-0.4096175,-1.45378947,-0.405366719,0.122359738,-0.07477971],[-1.72029781,-1.68394089,0.368541747,0.866283834,0.535329938],[-1.68279386,0.144108385,0.280688554,-0.310816437,0.392231643]]},{"rows":5,"cols":5,"data":[[-0.5032202,-0.5681796,0.041827213,1.87728858,1.4337281],[-0.215062067,0.246856242,1.01870561,1.084262,0.166823387],[0.174458444,0.7976165,1.21445251,-0.223024622,-1.67120934],[-0.170595676,1.17283976,-1.56437242,-0.748957932,-1.00106251],[-0.03296816,0.5284553,-1.13794708,-0.333008617,0.217810079]]},{"rows":5,"cols":5,"data":[[-0.9164492,-0.8968221,-0.5635683,-0.488361865,-1.051391],[-0.0733833462,-0.324767739,-0.295186877,-0.1366395,-0.929184139],[0.386992067,-0.08863874,-1.17079628,-0.0807254761,-1.00070608],[-1.14322293,-0.07267242,-1.09818912,0.03587863,0.234564289],[-0.0160437189,0.247610256,-0.253594,-0.949641645,-0.293551475]]},{"rows":5,"cols":5,"data":[[0.129841343,-0.176515445,-0.0883533359,0.849068,0.315144241],[0.487484962,-0.0581517555,-0.237980828,0.178105369,0.891541958],[0.447870225,-0.197028264,-0.873065233,-0.2639446,-0.137368456],[0.310886949,-0.4643304,-1.4944191,-0.702945769,-0.580713451],[-0.246890754,-0.306097031,-1.27572143,-0.674979568,-1.16443694]]},{"rows":5,"cols":5,"data":[[-1.17250383,0.570357561,0.6499051,-0.4070294,0.0221590642],[-0.3660104,1.64378572,0.8780844,0.3795521,-0.3346002],[0.26689598,0.6333632,1.14934731,-1.8809129,-0.160712555],[0.3831211,2.11168456,0.394402444,-1.8390348,0.796419],[1.25752938,0.9991877,-0.0843123049,-0.355771631,0.404134482]]}],[{"rows":5,"cols":5,"data":[[-0.4863962,-0.224382326,-0.7139122,0.6085785,-0.494878858],[0.477223426,-0.1645304,-1.040636,1.12020171,-0.1546209],[-0.8372627,0.673749447,-1.39194608,0.917086661,0.2951153],[-0.224460617,-0.3177244,-0.200724423,-0.103106141,0.192426562],[-0.838987768,0.003804977,1.85421944,1.2818538,-1.27500081]]},{"rows":5,"cols":5,"data":[[0.6049083,1.10171425,-0.8304475,-0.6049124,-1.03696907],[-0.188129827,0.432239026,1.4826231,-0.0810981542,-1.11507666],[0.107900336,-0.753455341,0.681225955,1.12540531,0.187870368],[-0.507353067,-1.321478,-0.113116354,1.00758767,0.626178265],[0.6377164,0.356893629,0.0864032358,-0.4343238,0.383810043]]},{"rows":5,"cols":5,"data":[[-0.09327054,-0.684116542,1.01278329,0.0409820564,-0.7940234],[0.1819905,-0.292237252,-0.121929996,1.77954543,0.5706229],[0.539865553,-0.5970619,0.187412977,0.981252,0.9161516],[-0.909076154,-0.6354821,0.3142835,0.4934707,0.138901159],[-0.112039313,-0.712481558,-0.254710972,-1.231147,-0.295928955]]},{"rows":5,"cols":5,"data":[[-0.423006922,-1.03743231,-0.8522529,-0.331486642,-0.1597316],[-0.823961854,-0.1377717,-0.180590689,-1.223056,-0.0241792183],[0.769892156,1.06085813,-0.104322195,-0.367892832,-0.0471874662],[-0.8003366,-0.669374645,-0.152943939,-1.09785414,0.424502254],[0.247472093,-1.38458693,-2.30323887,-1.33303809,-0.271361232]]},{"rows":5,"cols":5,"data":[[-0.474669874,-1.07715118,-1.02601469,-0.5675945,0.175927967],[0.477937222,-1.1123389,0.330927849,0.878264546,-0.60588336],[0.387952328,0.456167728,-0.9984445,0.574632,-0.194940656],[0.386816859,1.24472761,-0.02269289,-0.554375947,0.623194039],[-0.306751519,-0.631897867,0.2420481,0.9788764,-0.32504037]]},{"rows":5,"cols":5,"data":[[-0.5913119,-0.43392545,-0.660449266,-1.18209219,0.5745039],[-0.130761385,-0.891677558,-1.08855712,0.108476892,-1.07515752],[0.0682959,-0.103553332,-0.0537378564,-0.09013438,0.5197256],[0.17558597,-0.363810152,1.00168741,0.132769048,-1.02769947],[-0.124464191,0.458632052,1.36058414,0.800348163,-0.4706325]]}],[{"rows":5,"cols":5,"data":[[1.43599617,1.3209,1.10819352,-0.1756608,-0.8768194],[1.06243467,0.435323983,-0.628412545,1.10711527,1.63144672],[-1.421454,0.419378847,0.487680644,-0.483067364,-0.135183275],[-0.123078458,-0.048299484,-1.497259,-0.1734031,-0.9235173],[-1.26214325,-0.226783,-0.737860262,0.102926955,0.7212685]]},{"rows":5,"cols":5,"data":[[0.102981254,-0.89848,0.33258906,0.513898849,0.296092719],[-0.218705326,0.463234,1.37599993,1.396334,1.14954877],[-0.115320362,-1.94299662,-0.6379252,0.5848119,0.275537819],[-0.471084952,-1.571183,-0.824421942,-0.902044535,0.375284225],[-0.0935602859,0.382182866,-0.52851063,0.414152235,-0.404668748]]},{"rows":5,"cols":5,"data":[[-1.06890249,-0.965241134,-1.23773229,-1.0541327,0.0400801562],[-0.6032867,-0.174226627,-0.109198593,-0.3081747,0.9672074],[0.276188225,-0.231110573,-1.26082993,-1.69103444,-0.6125682],[-0.6794693,-0.200636238,0.3876253,-1.26604974,-0.4609247],[0.490501225,0.644947767,0.225418851,-0.328401953,0.307293266]]},{"rows":5,"cols":5,"data":[[-1.59526694,-1.28092587,-0.709978163,-0.6843875,-0.6638856],[0.696090162,1.09447253,0.499583781,0.447667718,0.67171],[0.27587685,0.743264556,1.43766713,1.70853269,0.3592421],[1.17841864,-0.041941382,1.14307952,2.02884841,0.04370331],[0.03685436,-0.48643586,-0.538027763,-0.168828428,-1.22546291]]},{"rows":5,"cols":5,"data":[[0.5329277,-0.229422033,0.404773921,-0.5846825,-0.287988752],[-0.351860076,-0.246603072,-0.501334131,-1.24378955,-0.285511255],[-0.203322977,-0.547891557,-0.328997374,0.00879115053,-0.985959649],[-0.7267978,-0.8626208,0.223199144,-0.8699025,-0.447193772],[0.641649,0.0533974431,0.490009069,0.08841879,-0.259526521]]},{"rows":5,"cols":5,"data":[[-0.07535851,-0.5727915,-0.5762865,-1.53814411,-1.36850309],[1.63822865,1.3126682,0.6423493,-0.308624864,-0.1547667],[0.118794575,0.988635,0.48743,0.568914056,-0.08136942],[-0.335580826,0.03833223,0.191727191,-0.7044896,-0.179331645],[-0.7339478,-0.321770638,-0.404752672,0.005102208,-0.161342442]]}],[{"rows":5,"cols":5,"data":[[-0.05363983,0.0905483142,-1.21538651,-0.8836777,-0.4529165],[0.017164126,0.334376335,-0.08910185,-0.199319541,-0.2406278],[0.242774561,0.3167896,1.33031559,1.53971529,2.7338562],[0.467695266,-0.1830482,-0.225329056,-0.775381863,1.3364222],[-1.2936461,-1.15963733,-2.352008,-3.00516367,-2.69793034]]},{"rows":5,"cols":5,"data":[[-0.128815144,0.0796838552,-0.160714269,-1.37092376,-1.31169081],[0.5422807,0.340186775,0.4342041,0.6730062,-0.0421603732],[0.874836743,0.176842675,0.938302636,2.36498237,0.527546942],[-0.230871737,-0.402819484,0.20278205,-0.317607373,-0.735881031],[-0.428510219,-2.34209919,-0.759557545,-1.40147984,-0.480883241]]},{"rows":5,"cols":5,"data":[[-0.217419267,-0.03657327,-0.5139915,-0.147701174,-2.476414],[0.163854808,0.720720351,-1.02187359,-1.2394309,-0.277250975],[-0.802012742,-0.247632459,-1.00487077,0.0561824,1.235218],[-0.5548668,-0.987445,-1.5172801,-1.90248144,-0.7163144],[0.7875612,-0.91925323,-0.885358334,0.274001151,-0.6885716]]},{"rows":5,"cols":5,"data":[[-0.9316613,-1.04234552,-0.8910553,0.0944983438,-0.323773742],[-0.519714057,-1.94559836,-0.225660458,-0.121484756,-0.016087262],[0.716127,1.15523684,0.3885648,0.00444567949,-0.269493669],[0.67445,2.049918,1.33868337,0.415586025,0.810699046],[1.80016983,1.40633178,2.77898479,1.73025644,0.0698089153]]},{"rows":5,"cols":5,"data":[[-0.835210145,-1.23773658,0.268890649,-0.5567473,0.7458582],[-0.8440234,0.5681564,0.532750368,-0.01731079,-1.31133175],[0.270201236,-0.181326449,-0.7995072,0.611347258,0.21383594],[0.246272817,-0.6409697,-0.270660818,-0.0289295055,0.435948461],[-0.225799978,-0.03163852,-1.58261311,-1.56337953,-1.58051574]]},{"rows":5,"cols":5,"data":[[-0.64891535,0.0586717166,-0.239215061,-0.0342692137,-0.174109027],[-0.6644264,0.9115004,-0.558001459,-0.642044365,-1.52391493],[0.9192624,0.181293592,-0.396694869,0.7675484,-0.2842229],[1.82645643,0.7317507,-0.28534922,1.43116152,0.9563563],[-0.0317512043,-0.848177433,-0.5746621,-1.07198918,-1.007638]]}],[{"rows":5,"cols":5,"data":[[0.9698469,0.08816955,0.142980576,-1.03084934,-0.484133154],[-0.236206368,0.254828,-0.6719371,0.5261715,-0.7488842],[-0.8947028,-0.8692516,0.4429243,-0.166236863,-0.8735819],[0.264295965,-0.0266046114,-0.39459303,0.165968627,-1.12184131],[1.10693741,0.109810859,-0.684331536,-1.1120553,0.174332559]]},{"rows":5,"cols":5,"data":[[-0.0171998441,0.108385667,-0.06378197,0.7880035,-0.420456737],[-0.832935452,0.4656727,-0.2614249,-0.852977633,-0.797577441],[0.470507741,-0.33729887,-0.221272051,-0.8256779,-0.0709629059],[0.6900186,0.916187465,0.0126947537,-0.009244277,0.3845734],[0.2827586,0.07280577,0.0593053959,-0.4169155,-0.203357428]]},{"rows":5,"cols":5,"data":[[-0.49748674,-0.99656105,0.06409577,-0.7553018,-0.113166027],[-0.243898511,-0.526335239,0.228917614,-0.119833745,0.6630485],[1.2253195,0.09511581,-0.202344492,0.04022336,-0.6510889],[-0.5474293,0.952340543,0.581291139,-0.43658635,0.0503940061],[0.04420239,0.6835508,-0.739948153,-0.693264365,-0.670284867]]},{"rows":5,"cols":5,"data":[[-1.14175117,0.497517765,0.08278454,-0.7184551,0.723005831],[-1.02163255,0.8063478,-0.7359479,-0.179770783,-0.894242],[-0.823044538,0.308870435,-0.9395687,-0.133729041,0.776883662],[-0.295771182,0.16841282,-0.9138503,-0.615586638,0.320772052],[-0.06079511,0.075890705,-0.765345752,-0.275112122,0.446296841]]},{"rows":5,"cols":5,"data":[[0.805278063,0.5659812,-0.3672932,0.441172659,0.941759765],[-0.5982077,0.575712562,0.117808685,-0.951218,0.21269232],[-0.407001823,0.3053039,-0.185220838,-0.03425763,0.878205955],[0.85244143,-0.482103527,0.8281181,-0.267008454,-0.640934169],[0.14063932,0.6786651,-0.7518301,-0.3525079,-0.399665266]]},{"rows":5,"cols":5,"data":[[0.6096257,0.6675215,0.8196982,-0.657628536,0.0453269854],[-0.326213121,0.0134287085,-1.189137,-0.508495748,-1.20113766],[-1.2096324,-0.128027081,-0.642081559,-0.373297572,0.08528662],[-0.990909,-0.9488146,-1.23692453,0.5303754,-0.0131239668],[0.447257072,-0.423062146,-0.131634891,-0.573710144,0.7788654]]}],[{"rows":5,"cols":5,"data":[[-1.06998622,-1.05873811,-0.09690107,0.314012945,0.705895245],[-2.1548183,-1.30230045,-0.632752359,-1.08583117,-1.40806556],[0.211642429,-0.9502763,-0.936293662,-0.7104443,-0.491267264],[0.9505435,0.139922053,1.00438333,1.5070107,1.247132],[-0.248193309,1.02709484,-0.301255167,0.7036069,-0.938179731]]},{"rows":5,"cols":5,"data":[[-0.7575478,1.27897775,-0.09600736,-0.403863817,-0.4516641],[-0.352693856,-1.266164,-0.687403262,-0.8650945,-0.608876467],[1.08518612,-0.7009027,-0.59670794,-0.316931784,-1.14634073],[0.7546374,1.20860243,1.90429091,-0.433579743,-1.14466059],[-0.826050341,0.650936544,1.25132561,0.4098557,0.791484952]]},{"rows":5,"cols":5,"data":[[-1.13946021,-1.16591215,-0.9371761,-0.006785064,0.368978351],[-0.2188819,-1.109377,-1.49328578,-1.83352613,-1.57942164],[-0.3170342,-0.130905375,-0.3959093,0.601539969,-0.751566],[-0.391033173,0.424276,1.169959,1.440042,0.304328233],[0.312567532,0.115755409,0.645740151,-0.055621542,0.277461082]]},{"rows":5,"cols":5,"data":[[-0.431546718,0.232107818,0.9016947,0.958002031,1.3325578],[1.67245567,3.54254055,2.49134755,1.73914957,0.6122818],[0.8339583,0.3602426,-0.4072411,-0.362328261,-0.823826],[-0.996918142,0.494273,0.346476227,-0.702096045,-0.5257631],[0.6027658,0.9789107,1.55240953,-0.1561807,1.10846221]]},{"rows":5,"cols":5,"data":[[0.412717283,1.02786911,1.31385088,0.315372765,-0.629481435],[1.15746748,0.5313084,1.016339,-0.9470218,-1.08915448],[0.300479531,-0.7694745,-1.34201407,-0.7670751,0.008332841],[-0.6991044,-1.32136333,-0.7080886,1.12279189,0.152515993],[-0.3187329,0.502422035,-0.799609,-0.8812659,-1.70520651]]},{"rows":5,"cols":5,"data":[[-0.009891357,0.0479136,0.7888625,1.29957223,1.26536739],[0.04517339,0.511992633,0.393251926,-0.0176055,-0.7029804],[-1.6671015,-1.950665,-3.13882637,-1.95486176,-1.00129724],[-0.7945537,-0.561910748,-0.5546928,0.1859535,-0.289664268],[0.4566465,0.482193619,0.955909,0.295267671,-0.7655206]]}],[{"rows":5,"cols":5,"data":[[0.0924789,-1.29128051,-0.887535751,-1.60756016,-1.25976861],[-0.8818093,-0.162208557,-0.09343874,-0.5334071,0.4847952],[0.6515478,0.4971558,0.2844896,1.75076342,0.9922098],[1.46726644,0.993472457,1.28282261,1.26412189,1.02754724],[-0.590352654,0.5981872,0.135483637,-0.5776576,0.7375411]]},{"rows":5,"cols":5,"data":[[0.0124127474,0.240394056,-0.154575363,-0.9819102,1.21253943],[-0.252452731,0.841123462,0.758775651,0.8824401,1.136878],[0.582317352,-0.2904302,0.81232,-0.9448462,-1.24376178],[0.330598444,-0.5102669,1.00178993,-0.8651865,0.6456238],[0.09107906,-1.1543566,0.9651225,-0.245560288,-0.156716242]]},{"rows":5,"cols":5,"data":[[-0.344938219,-0.315784454,-1.59865844,-0.671635,-1.33293986],[-1.19458544,-0.7785743,-1.68498623,-1.10794187,-0.303861678],[-0.195579335,-0.260705978,0.372135848,-0.5325383,-0.804601848],[-0.840844154,-0.610654235,-1.15032017,-0.6092479,-0.23335889],[0.5877424,1.075107,1.0046978,0.114458017,0.313838065]]},{"rows":5,"cols":5,"data":[[1.22068441,1.31479979,0.4621611,0.7332586,-0.0430169478],[1.37411034,0.43734163,-0.6672707,0.6040702,-0.391885638],[-0.986983,-1.29174113,-0.410498559,-0.246490166,-0.8677335],[-1.555218,0.2922825,0.108341008,-0.172062486,0.286629379],[-0.7375824,1.37661886,1.40976,1.57946074,0.38640514]]},{"rows":5,"cols":5,"data":[[0.3533802,1.80919993,0.6751905,0.215649351,-0.08829375],[0.141303837,0.1919841,-0.715470135,-1.16337883,-0.2744326],[-1.018728,-1.09022081,-0.935647845,-0.7284162,0.616832733],[0.325541228,-0.7385203,0.3335238,-1.22468281,-0.0333396532],[-0.01737782,0.449354619,-0.613274634,0.3003833,-0.419620425]]},{"rows":5,"cols":5,"data":[[-0.110066421,0.940295339,1.219625,0.489401221,-1.33566988],[-1.331377,-1.77564025,-1.82155955,-2.22605968,-1.48465455],[0.2384661,-1.459686,-0.5132226,-0.07310397,0.6947775],[0.178957388,1.67751741,0.6075022,0.77940315,-0.5506389],[0.8442788,-0.2855492,-0.285331577,0.216583222,0.09638393]]}],[{"rows":5,"cols":5,"data":[[0.109557144,0.656291664,-0.1541184,-1.4599123,-1.39922059],[1.23873627,-0.539741635,-0.1558915,-0.588858545,-0.1721344],[-1.4198283,-1.071224,0.2984195,0.7221396,-0.764485955],[-1.27784586,0.648520768,-0.451468,-1.03018093,0.470028967],[0.8251648,0.050726667,0.12229149,-0.252828032,-0.7918288]]},{"rows":5,"cols":5,"data":[[-0.00667638844,0.261671782,0.64192,0.34964627,-0.1578161],[0.62281096,-0.0813851357,-0.7414417,0.211032107,0.462792426],[0.224875644,0.244490981,0.03208564,-1.16516912,-0.7766621],[-0.0168347042,-0.441592276,-0.366491973,0.185691833,-0.7777877],[-0.8004935,-0.8600637,0.221868858,-0.8955733,-0.8934376]]},{"rows":5,"cols":5,"data":[[-0.5996594,0.7599733,-0.9326554,-0.52206254,-1.37704372],[0.590424061,-0.5724401,-0.595719,-0.023553364,-0.178325608],[-1.17268169,0.0380403176,0.684611142,0.316708475,0.412068874],[0.49607,-0.102430664,0.67215836,0.718856931,0.9066924],[0.319666117,0.0696211457,-0.799768746,0.108182758,-0.208758071]]},{"rows":5,"cols":5,"data":[[-0.285416663,-1.037219,0.4205601,-0.133033365,-0.637201],[-0.500952661,-1.29325783,0.3223904,0.2372365,-0.2668213],[-0.857432067,-0.3926246,0.0116685154,0.161646962,-0.7911752],[-0.428099424,0.0259528384,0.3115805,0.00623440137,-0.668504536],[0.2377257,-0.0107901366,-0.2594614,-1.026475,-0.6252038]]},{"rows":5,"cols":5,"data":[[0.6213093,-0.6622109,0.305212379,-0.5189554,-0.131672353],[0.316339046,0.093761526,-0.485044926,-0.913528442,0.307295],[0.06706886,-0.379634738,0.295011818,0.07555904,-0.814043045],[-1.04443479,0.350027472,-0.5129009,-0.08464055,0.283463061],[0.20628944,0.3542252,-0.1742578,0.447614431,0.1702859]]},{"rows":5,"cols":5,"data":[[-0.06384597,0.68419975,0.16609025,-0.307110161,0.07298043],[1.25813591,0.3738329,-0.180473626,-1.03902292,-0.422127157],[-0.932041943,-1.2707907,-0.650482655,-0.967334747,0.275542736],[-0.9950628,0.3797245,-0.227149636,0.735997438,-0.106103718],[-0.0831630453,0.403803,-0.680551231,-0.192139342,-0.6959428]]}],[{"rows":5,"cols":5,"data":[[-0.3144369,0.0362575352,0.749546945,-0.513275266,-0.240443751],[-1.42193854,0.776196063,1.041443,0.630534351,-0.188876972],[0.225006223,-0.656429768,1.91131043,0.575338364,0.7324801],[1.18425715,1.53349078,0.2624049,-1.66336262,-1.78339219],[1.180963,-0.042648796,-0.42893663,-0.9340045,-0.6536223]]},{"rows":5,"cols":5,"data":[[0.45896402,-0.5856796,-0.172293231,0.235601738,1.19502282],[0.451870024,1.06644952,0.331413448,0.0363165662,0.2874258],[0.486305952,0.557494462,-0.426354617,-0.948996,-0.702391744],[-1.011985,-2.054366,-1.325162,0.684375346,1.01345563],[-1.50598466,0.139255881,0.4089428,-0.8183309,-0.176261663]]},{"rows":5,"cols":5,"data":[[-0.9940821,-0.530855536,0.8358805,-0.7530709,-0.3944177],[0.457722455,-0.7675377,-1.48851633,0.229615748,0.108098574],[-1.405707,-0.52107203,-0.267604381,-1.00887036,-0.497294],[-0.900727332,0.713170946,0.00137367367,0.236758232,-0.612843156],[0.277947634,-0.505632639,0.4801151,1.68340945,0.709003031]]},{"rows":5,"cols":5,"data":[[-0.163399279,0.333700776,0.267506421,1.127099,-0.4544706],[0.9176611,0.5088141,-0.432050079,-0.340984136,0.5064906],[-1.01357591,-0.492087066,-0.269343436,-0.18681255,0.6223778],[-1.83460307,0.116115786,-0.648779452,1.01125991,1.0716269],[-1.02727056,0.5060221,-0.0499549732,1.44748056,1.10405874]]},{"rows":5,"cols":5,"data":[[-0.488286436,-0.4130711,-0.0871078745,0.426623523,0.331432581],[-0.5132457,-1.0498687,-1.35198677,-0.294827759,-0.8408868],[-0.2034445,-0.9519778,-0.948303163,0.457435727,-1.31280494],[-0.572266757,-0.381075561,-1.23922074,0.03398283,0.489799619],[0.476240218,-0.81010294,-1.33339119,-0.921233833,-0.5109297]]},{"rows":5,"cols":5,"data":[[-0.6964237,0.315623641,-0.5231526,-0.260681152,-0.918715],[-0.2613898,-0.09102402,-0.175791681,-0.920852,0.3555526],[-0.404802859,-0.05419265,0.412398338,0.556057632,-0.183773741],[0.215599522,1.41967821,0.4993199,0.172198,0.191506326],[1.73008347,1.02819252,-0.104198352,-0.54712677,-1.19321108]]}],[{"rows":5,"cols":5,"data":[[-1.05558622,-0.741709948,-0.510844767,0.3003365,-1.298196],[-1.60976529,-1.41630566,-0.9420327,-0.420852572,0.301595718],[-1.51327658,-0.7708497,-0.476798534,-1.12104273,-0.627943039],[1.35026515,1.08004642,0.924751759,0.199136257,-0.362106681],[0.9802216,0.985623956,0.6705512,0.143106952,-0.6728059]]},{"rows":5,"cols":5,"data":[[0.7064267,-0.25361523,-0.4030261,-0.8633865,-0.7161121],[-0.21064803,0.213406429,-0.4137478,-0.460965216,-1.264395],[-0.506583035,-0.744162858,-0.390442729,-0.81826514,0.22262691],[-0.0441641435,-0.870124936,-0.5815366,0.5140823,-0.7753102],[0.308212817,-0.479724944,-0.04396283,-0.8674616,0.589939237]]},{"rows":5,"cols":5,"data":[[0.8152504,-0.07158399,-0.7081487,-0.5512572,-0.478802145],[-0.130218253,0.5300444,-1.06962812,0.5067931,-0.684939444],[0.008887082,0.34724462,-0.464553773,-0.388147771,0.0745173246],[-0.5372776,0.8107575,-0.9324378,0.648739636,-0.7774953],[0.5645092,0.331752956,0.4353141,0.7395701,1.104811]]},{"rows":5,"cols":5,"data":[[0.220697865,0.5168318,1.13406813,-0.1562551,0.720252335],[0.661279738,-0.532662451,-0.153839126,-0.656853557,-0.120217323],[0.747805059,0.4425968,-0.699501,-0.888302,0.395898938],[0.09570983,-0.3376956,0.139727965,-0.801979244,-0.817924],[0.356141657,0.452921,0.421650022,-0.7385946,0.630804539]]},{"rows":5,"cols":5,"data":[[0.300896764,-0.658700645,-0.09718951,0.648752034,-0.5237603],[-0.4773009,0.8544723,-0.561162055,-0.293030828,0.7247704],[0.753272533,0.8463035,0.276141047,-0.8883393,-0.4854367],[-0.0545212179,-0.328643978,-0.8495531,0.496554315,0.331194043],[0.000465668563,0.161719337,-1.036399,-0.5913858,0.160511449]]},{"rows":5,"cols":5,"data":[[-0.02689683,-1.12562323,-0.1693277,-0.208593056,-0.884844542],[0.217403471,-0.0692273155,-0.427796483,-0.805394,-0.907403052],[-0.0915057,-0.220020577,-0.7358634,0.19136028,-0.985484],[0.5440899,-0.482082039,0.273305863,-1.089931,0.2924634],[0.4925283,0.2213736,0.0430249348,0.57881695,0.375757277]]}],[{"rows":5,"cols":5,"data":[[0.292748034,0.384135485,-0.734760761,0.266777456,-0.390479922],[0.70845145,-1.06270707,-0.178870156,0.32739687,0.296885073],[-1.02759182,-0.907551646,-0.102260806,0.249109328,-0.2373796],[-1.28483856,-0.967509031,-0.7359169,1.06782508,0.814319],[0.0572618544,0.375494719,-0.284851074,0.167425528,0.48176]]},{"rows":5,"cols":5,"data":[[-0.199113145,0.6622846,0.10826005,-0.830804646,0.325089127],[-0.614169836,0.25664115,0.28897354,-1.64431334,0.177955776],[-0.584695,0.469836146,-0.8088487,-0.03336275,-1.2642405],[0.0140136061,-0.4121069,-0.8532652,-1.79726768,-0.07447797],[0.223077953,0.353653,-0.232530072,-1.39832449,0.20397906]]},{"rows":5,"cols":5,"data":[[0.282572269,-0.139361829,0.4242641,-0.900209069,0.309030324],[0.91098094,0.000709349755,-0.0248390548,0.6493334,-1.01140487],[-0.733586252,-0.202797577,0.9869128,-0.375692219,0.288636953],[-0.057010103,-0.183476359,0.0251191817,-0.2180751,0.890129],[-0.416105747,-0.6646551,-0.2623654,0.7349091,0.7063527]]},{"rows":5,"cols":5,"data":[[0.161389813,0.907052,-0.0433735438,0.354611129,-1.06405365],[0.540861666,-0.498294175,0.9964416,0.388206184,-0.315826833],[0.958605051,0.665652037,-0.293183833,-0.712254941,0.6931996],[0.669100642,-0.477516145,-1.19045651,1.05860782,0.1794634],[-0.8908336,-0.8540803,0.316605449,0.466898531,2.1091938]]},{"rows":5,"cols":5,"data":[[-0.5728995,-0.519482136,-0.152308717,-0.824796259,-0.6368673],[-0.60273397,0.6609461,0.7012908,-0.221784487,-0.3788742],[-0.650584459,-0.703124464,0.152300417,0.925047636,0.128461421],[0.803989768,-0.0582907647,-0.214883938,1.1257509,1.270883],[-0.113198064,-0.9373098,-0.09917049,0.310201675,0.23097147]]},{"rows":5,"cols":5,"data":[[-0.5637071,-0.596974134,0.06945721,0.131036088,0.25153],[-0.5338328,-1.2778244,-0.0494864322,-0.900103033,1.19272375],[0.003619049,0.3486016,-0.5635937,-0.365968645,0.868828952],[0.5406915,-1.35064185,-1.3152982,0.658864558,1.49885774],[-0.55134815,-0.159799829,-0.5283288,-0.4029225,-0.42251718]]}]]],"Weights":[[{"rows":100,"cols":256,"data":[[0.7028547,0.921233833,0.791671932,0.297284156,0.686767459,-0.642016053,0.06648698,0.3175119,-0.780556142,-0.349595934,0.9889434,-0.0937002748,-0.501009762,0.638821661,-0.786479,-0.833255231,0.07223766,-0.3965293,-1.39480162,-0.40051493,-0.398425281,0.502794,-1.10452509,-0.5088517,0.930118144,0.11631228,0.8019442,0.7800681,0.8910124,-0.237692878,-0.2922924,1.14796889,0.8660659,0.231346309,0.3271036,-0.9128927,0.08167843,-0.653420746,-0.0473403372,-0.051682435,-1.02789617,-0.4896138,0.4941892,1.015997,-0.8514376,0.102647625,0.6754983,-0.847162843,-0.209709421,0.393469781,-0.3771061,-0.393499464,-0.762717962,0.992482,0.6996795,0.497686148,1.2282995,-0.270809352,-0.226335213,-0.9385565,-0.539624453,0.574356139,0.448051959,0.06027458,0.7625021,-0.8306971,-0.00477028824,0.405476153,-0.765123963,0.815435,1.0188936,0.193935841,-0.6642949,-0.06675998,0.2836629,0.8896809,-0.007925284,-0.715148568,0.6809071,-0.209788635,1.09082353,0.8488941,-0.932644,-1.52292562,0.113965854,0.233553842,-0.125299111,-0.8204447,0.561906,1.232866,-0.285127938,0.788965,-0.331191748,-0.71938,0.3064088,0.3139492,0.07577989,0.05189981,-1.78763866,-1.08002651,0.9181231,-1.1749059,-0.902326,0.7242758,0.376528949,0.348084778,-0.411367327,0.632833362,-0.629421234,-0.5732262,-0.224415615,0.5188315,-0.175602838,-0.6207884,0.392344117,0.2627544,-0.192703843,0.196223632,0.01246305,0.7682996,0.244062275,-0.278171778,-0.7137058,-0.424761683,0.561718,-0.0587736554,-1.18433249,0.457141757,-0.344957441,-0.964428961,0.451505333,0.7919156,-0.3230156,-0.0410233922,-0.181107715,0.498676926,0.48296243,-0.251652628,0.0338721536,0.431421459,-1.30652058,0.7573219,-0.420648873,-0.199446872,-0.201370642,0.2974065,0.8212503,0.731003463,0.303450167,-0.9292474,0.6074597,0.5917762,0.04524558,-0.222583726,0.853177249,-0.08945676,0.937876165,0.64885,-0.25590384,-0.557062268,-0.912146032,-0.5656389,1.11105561,1.15278363,-0.653301,-0.00387305883,1.34567714,0.412313521,-0.231436208,0.292079538,0.789218962,0.2737601,0.259559661,0.216074362,0.4837167,0.451118529,-1.02229607,-0.175966516,0.6596853,0.641972661,-0.6372412,-0.455798447,-0.357379675,0.691667736,-0.474301964,-0.307845861,-1.02471483,0.474763542,0.4252379,1.34773779,0.6826878,0.631742835,0.8010771,-0.78146553,0.0656109154,-1.02381957,0.6624917,-0.7665898,0.825016558,-0.1435884,0.986770034,0.6407885,-0.7739654,0.329491735,-0.5291734,-0.115195826,-0.161506891,-0.82243377,0.7534435,-0.1282502,-0.205584541,-0.753596663,0.8368956,0.5911379,-0.2026373,0.05217557,0.6011692,-1.89718592,-1.01884651,0.631144047,-0.00447623432,0.9279323,0.014189885,-0.44435823,0.9989528,-0.718376637,-0.08127339,-0.7809762,0.752128541,-0.0312992223,0.5387013,-0.47005704,0.5673156,-0.4273392,0.9511717,0.6842528,-0.304798335,-0.261895865,0.478010178,-0.8532927,-0.578487754,-0.806976557,0.3836903,-0.211714625,-0.08420184,0.00275514065,0.839989543,-0.465714872,-0.752853155,0.695311,-0.332077324,0.564943552,0.3923307,-0.865455568,-0.6917924,-0.860786],[-0.4560862,0.8441947,0.899195969,-0.5397261,-0.831563532,-0.06357067,-0.5051092,-0.194597557,-0.1320687,-0.8102004,0.07838928,0.485187441,0.7896521,-0.810177445,0.2559965,0.117670462,-0.109055735,-0.289234132,0.4845084,0.4259145,-0.7684321,-0.5585117,0.6316995,0.546642959,-0.6105048,-0.8980526,0.2049044,-0.643450558,-0.218081266,-1.13912964,-0.9581327,-0.2044082,-0.6434265,-0.0595913567,-0.295002162,-0.169237033,-0.3394149,-0.435075819,1.1770947,0.5416936,0.236790955,-0.150648057,1.22731018,-0.297654748,0.441051066,-0.7431774,-0.253427178,-0.8398825,-0.6422903,0.375110537,-0.5768801,-0.438576728,0.09057622,0.0957163051,0.51226,-0.9150584,-0.3732822,-0.268429548,-1.15079546,0.7157599,0.8505922,-0.486309975,-0.7326967,-0.2941062,0.179776147,0.5538021,0.33645317,-0.4285482,0.331250876,-0.4269536,-0.6577342,-0.816819131,-0.177520454,0.8207383,0.3490097,0.5576902,-0.530803561,-0.43524754,0.3820381,-0.6471511,0.3985088,0.165471792,-0.9348477,0.625888169,0.3095374,-0.387601882,-0.216695473,0.645264566,0.560588837,-0.267637223,-0.450045615,1.36244607,-0.4187057,0.7330846,-0.9757928,0.142070472,-0.196504444,0.0115774907,0.487667024,-0.346933484,-0.1337103,-0.6421099,-0.03039691,0.494218051,-0.407946378,-0.4057615,0.352297366,-0.7658518,0.649420261,-0.822435439,0.365933567,-1.27520287,0.5975699,1.06619835,-0.3888524,-0.805849552,0.367188454,-1.05983448,-0.0220937673,-0.4143593,-0.210985169,-1.14134347,-0.6536875,-0.251124352,-0.496664345,-0.256665856,1.06514943,0.4239894,1.38989592,1.27633917,-0.172561467,0.430575,-0.122698538,-0.270695239,0.272494227,0.264040768,1.076653,-0.05529401,0.49974823,0.77626127,-0.9115144,-0.2728489,0.206203684,0.9240424,-0.1062702,-0.7976788,-0.5010051,-0.00698114559,0.646487951,0.7796823,0.879754066,-0.7855822,0.8138918,-0.3395744,0.407449037,-0.4824948,0.7865448,-0.4921888,0.1857944,-0.7448285,0.799280465,0.6050772,0.353938729,0.871896744,1.15307033,0.169078737,0.43133226,-0.9576148,-0.993604958,-0.4471226,-0.670666,-0.2317643,0.470917344,-0.9433,-0.8971037,-0.09575614,-0.4419695,0.1335494,0.652381,-0.801492453,0.8979873,-0.222272962,0.3153525,-0.864306331,-0.2838364,-0.358938247,0.5394064,-0.47615397,0.474662572,-0.6555821,-0.00613640528,0.473128676,0.597991467,-0.463438332,0.5431972,0.3923304,-0.0501358174,0.52693224,0.690713644,-0.643760145,0.122172169,-0.9829364,-0.8114467,-0.732128263,0.5030135,0.0306845978,-0.2422572,0.4121526,-0.9090678,-0.4216487,0.153495058,-0.686534047,-0.177006826,-0.110448755,-0.9524558,-0.0341913328,1.390698,-0.153458789,0.7939843,0.4107478,-0.0545494743,-0.163336873,-0.2386376,0.6504521,1.05599606,-0.180715382,0.184959352,0.151060492,-0.07278152,0.1296387,0.9624812,0.52549547,0.605473936,0.1926204,-0.0153191034,0.8210698,-0.806366,-0.229431525,-0.41689533,-0.0297571942,0.406366,-0.702125549,-0.678426564,0.109751344,-0.60929215,0.0329683349,0.231077462,-0.583652,-1.33711815,-0.226015151,0.535182238,-1.02133536,0.449902982,0.109219767,0.6102953,-0.60772717],[0.3071961,-0.6880798,-0.557870269,-0.275697172,0.764138162,0.8652637,-0.523321569,0.0855396539,-0.3317593,-0.4517209,-0.12667425,0.45778808,-0.8943648,-0.486089319,-0.2665111,0.06458791,-0.539185941,-0.178821668,0.895463765,-0.225398615,-0.263594538,0.671154141,0.346187264,0.230491132,1.06845438,-0.17788513,-0.0245113913,-0.650984645,0.7022622,0.945674658,0.6347819,0.2502266,0.8449486,-0.174648941,-0.329090983,0.916516662,-0.4451066,0.955285668,0.385998368,0.722807169,0.8770837,0.154198974,-0.409080833,-0.7455434,1.02973092,0.4547943,-0.541517138,0.6657624,0.994613469,-0.4052479,0.671291232,0.134101868,-0.298325717,0.0547947958,0.72795105,0.759526551,0.120584153,0.373931825,-0.209428027,0.0805002153,0.07328855,-0.6328518,0.611509264,-0.155872256,-0.010821674,0.6626012,0.826959252,0.459669352,0.950304449,-0.0546349436,-0.282542735,-0.419453323,0.423133343,-0.808122,-0.0369703062,0.6840074,0.163760439,0.09743787,0.19102706,-0.3197497,-0.6466392,0.333802,-0.5110537,0.413234532,-0.6626282,-0.2981765,-0.237052366,-0.07639769,0.0956378058,0.06535127,-0.002760082,0.2599427,0.181318521,-0.5392024,-0.103454,0.590786934,0.6453803,0.740196466,0.3928791,-0.4020393,0.5637381,-0.005912345,0.780256033,0.198291019,0.797516,0.132869437,0.789402,-0.3475882,-0.9086788,1.01065254,-0.397175848,-0.8361947,-0.7274583,-0.672177851,-0.053142406,0.899395049,0.995194,-0.610711336,-0.3108355,-0.387705058,0.1729206,0.320221424,-0.412475616,0.148940369,-0.588587046,0.874065757,0.6326525,0.2263322,0.5943213,0.647784948,-0.6789876,0.6665087,0.9796307,0.116171524,0.372819155,0.5898122,0.6929649,0.463972479,0.670661032,0.4705699,0.293708265,-0.4107877,-0.135451034,0.235538989,-0.664335251,-0.231952414,-0.08081425,0.07918003,0.6120797,-0.07957549,0.6041896,0.380038,0.19762738,-0.2823031,0.29564774,-0.5664815,-0.488255948,-0.328133345,-0.0566527173,-0.8881728,0.6058973,-0.354547173,0.0972171053,-0.364125282,0.96544677,0.3091508,-0.651352465,0.384241134,0.0815358162,0.398427218,-0.7016381,-0.295007616,-0.159004763,0.3168443,0.700899959,-0.0792827457,-0.339884371,0.542227566,-0.227440029,0.413329422,-0.188913926,-0.526354253,0.627483547,-0.352977216,0.973154068,-0.146708369,-0.6519879,0.236517876,0.7236548,-0.104175605,-0.07665613,-0.08793052,-0.5999651,0.452091962,0.6773362,-0.669467866,0.124522276,-0.961717546,0.170106485,0.269086033,-0.356132179,0.6704226,-0.811158836,-0.5453097,-0.2876915,-0.0121141961,-0.3362241,1.04991007,0.0876109153,-0.450198859,1.03314066,0.2645857,1.05686092,0.6597407,0.439293981,0.363693029,0.140779167,-0.44815,-0.09563255,0.277543157,0.009249337,0.101753972,0.7784904,-0.7881986,-0.610206544,0.30819115,-0.7310286,0.33708,0.612967253,0.44075,0.8278551,-0.355997175,-0.64816916,0.519184053,-0.1665249,0.147375375,-0.7357795,0.222861677,0.9305967,-0.06297563,-0.6225062,-0.56603,-0.764766,0.2540616,0.212874189,0.90057826,-0.0309374612,-0.124152742,-0.6208012,-0.4367705,0.269614935,-0.292809427,0.495686561,0.9935358,-0.5775025,0.6739719],[-0.9845832,-0.9450369,0.9767018,0.4181609,-0.218787715,0.368560463,-0.6208701,0.589616239,-0.430832416,0.273518741,-0.2213932,-0.4771748,-0.196705028,-0.7846247,-0.0317454152,0.854401231,-0.71562314,0.893770933,0.084327206,-0.2868752,-0.419965446,-0.552759767,0.276969641,-0.362474442,-0.8820098,0.572782934,0.301636428,0.169429049,-1.00656211,0.3001678,0.3393083,-0.5376818,-0.1630684,-0.0202540047,-0.124962352,-0.552640736,-0.215912327,-0.594486356,-0.795574367,-0.0552628376,0.570056736,-0.243085787,-0.08099154,0.9229222,0.198052183,-0.3636529,-0.965670466,1.08932161,0.677545,0.289535463,-1.235921,0.4183157,0.115631737,0.7074151,-0.26312986,0.5000944,0.394539267,0.5185704,0.0257367548,0.103136994,-0.657899,0.3180151,0.187436163,0.2707981,-1.04712355,-0.604589045,0.5327419,0.756486356,0.07785762,-0.137535,-0.317469984,-0.8481306,0.520155668,-0.650444,-0.241911665,-0.7153096,0.645169139,0.305378377,0.616174,0.928991,0.05772356,0.1635954,0.5501916,-0.226630449,-0.2821119,0.542227864,0.2892917,0.4272339,-1.01598275,0.302751,0.308998346,1.19770312,0.253715,-0.417045176,-0.219969556,-0.0571930856,-0.180571586,0.08023997,1.07468975,-0.0120465951,-0.35805288,-1.05881786,-0.370883584,-0.272232562,-0.453577459,-1.07532942,0.6405985,-0.36954993,0.2585907,-0.470710158,0.778735757,0.5925378,1.25899482,0.8118191,-0.402250856,0.0262574982,0.7072934,-0.325764269,-0.148565724,-0.7923564,-0.149752319,-0.47415176,1.04061222,0.7506696,-0.136492088,-0.249663755,-0.0745978653,0.0230365135,1.31045914,1.14982855,-0.06206366,-0.8207943,1.08622766,0.112348638,-0.204480454,-0.06855648,-0.6853576,-0.3552031,-1.0156014,0.00134676881,0.9168778,-0.6446044,0.57038635,0.734575152,0.565104663,0.6574333,0.872464,-0.7860856,-0.415807724,0.428431034,0.014597184,-0.474054158,-0.260823369,0.3213399,0.504781544,-0.167842075,-0.256940246,0.131623209,0.130332708,0.747575641,0.5394791,0.268347174,0.0481608734,0.0869174451,0.904902041,0.982614,0.793235242,-0.3930423,-0.119897358,0.3154004,-0.14281711,-0.346714944,-0.2736718,1.09838784,-0.201279178,-0.493073136,-0.541972,1.14017677,-0.794968843,0.634444654,0.000303640234,-0.215182438,-0.4113287,-0.7766958,0.243012518,0.04227453,0.644421458,-0.6136514,0.685340345,-0.311048061,-0.5997571,0.221683547,0.774073,-0.5562866,0.5957582,-0.050396964,0.763032854,-0.375831634,-1.0355469,-0.8099694,0.8322585,-0.104014024,-1.0047,0.473787516,-0.302140266,-0.6896667,-0.8908949,0.0613810271,-0.2813542,0.315613627,-0.5417318,-0.23754324,-0.1508135,-0.0326397,-0.136973053,-0.145706892,-0.5836826,-0.6262788,-0.701657,-0.07774,0.581305,0.4281251,0.753634155,0.8967269,-0.135179281,0.460192263,-0.03538081,0.934945345,-0.8937651,0.4640412,-0.3992262,0.8217606,0.86971277,0.9053424,-0.982810855,-0.757827163,-0.5044759,-0.05303896,0.6721069,-0.335012883,-0.480803,-0.0333017968,0.677140653,-0.813177168,0.9653455,0.5192959,-0.6787271,-0.47186622,0.822653,0.0520246923,-0.251344323,0.1846746,-0.876104,0.472916037,-0.328097373,-0.653623939],[0.292698562,-0.7596095,-0.475970149,0.245223239,0.387283444,-0.7903134,-0.06766976,0.25386557,-0.4287675,-0.366155177,-0.08361014,0.0622615144,0.1618879,-0.50954175,-0.638085961,0.4735644,-0.09601839,0.7249766,-0.552846432,-0.362021476,0.8316525,0.255297482,0.779947042,0.444893837,0.187451571,-0.7724335,-0.933520734,0.4107046,0.0561436,0.252805144,0.338772446,-0.300872266,0.195197955,0.564829051,-0.167596608,-0.8322137,-0.5823599,-0.6927319,0.211312056,-0.770492852,0.7292258,-0.75104475,0.6645827,0.3015848,-0.588606,0.1406404,0.4184496,0.185710013,-0.667471945,-0.0300626457,-0.73507154,-0.576686442,-0.3671842,0.9297996,-0.581769943,0.784746766,-0.6245683,0.03931765,-1.0283308,-0.00526272133,-1.00660956,0.5301632,-0.7681642,0.193842873,0.154951513,-0.805913746,0.7533619,0.454317123,0.6052717,-0.8532539,-0.0106791183,-0.482967138,-0.475068271,-0.7193252,-0.210627943,0.5347647,0.711672,-0.486688852,-0.113028936,-0.961248934,-0.0417748056,-0.1542415,-0.1041703,-0.995193,0.0744565651,0.0213351,-1.0369705,0.349554867,0.24187544,-0.0259360913,0.69433403,0.404906064,-0.5700248,-0.840851963,-1.00402355,-0.652585268,-0.8752231,-0.6041448,-0.9410703,-0.856959641,0.3437664,0.8354238,0.675513148,-0.8049006,-1.06834471,0.747594535,0.895534337,-0.72127974,0.0342928879,-0.00623188028,-0.8901607,0.7369847,-0.959596753,0.834572256,-1.04585552,0.1111842,-0.484742045,-0.8812114,-0.9081275,-0.8763682,-0.896811545,-0.7483298,-0.8383537,-0.416017234,-0.7418316,0.517228365,-1.034488,-0.6864485,-0.962724268,-0.5586871,0.254239142,0.09609603,-0.6512761,-0.499621332,-0.499432355,-0.09155142,0.02505396,-0.327325433,-1.09076226,0.143767223,-0.246294066,0.445695251,-0.8237193,-0.8925273,-0.236175671,0.980077565,0.2213131,-0.649245262,-0.8702349,-0.06453901,0.6801848,0.868516147,-0.677999258,-0.9807861,-0.831577241,-0.09956705,0.688185,0.0353683457,0.8184313,-0.6548133,0.6430196,0.6112606,-0.816085,-0.496422023,0.4758275,-0.2934945,0.2745723,0.5117387,0.185337126,-0.0666077361,-0.963613033,0.8681462,-0.852086544,-0.2393867,0.09560829,-0.508336544,-0.9964677,-1.03333855,0.841493368,-0.6842496,-0.658012033,0.6759715,-0.9026895,0.138351724,-0.282821238,0.324610472,-0.06854768,-0.6645448,-0.648973167,0.6114967,0.320813179,-0.8997537,-0.155672118,0.6275978,0.5649068,0.314516962,0.451122224,0.7981766,-0.416101754,0.801505566,-0.5159212,0.6425915,-0.0178023763,0.0177166555,-0.1399312,0.803373933,0.700246334,0.42191872,-0.17979221,0.5538838,-0.246536553,0.553328931,0.14168264,0.461544961,0.702214837,0.7479958,0.4205863,-0.286060363,0.467976242,-0.8897874,0.8309183,0.00397516,0.11682453,0.7389451,0.745123267,0.9525774,-0.0257467441,-0.4648381,0.312227428,0.7212737,-0.0477284454,-0.735613,0.415901065,-0.984915555,0.8075407,-0.2381908,-0.287997037,0.09012437,-0.67616,-0.01673242,0.524002433,0.3836097,0.459242374,-0.2778001,-0.475242883,0.588003039,-0.0401138,0.322578073,0.520630956,0.5984507,0.8908807,-0.565944433,-0.884266436,-0.5188186,0.828930736,0.3311002],[-0.5124075,0.290705919,0.325647563,-0.105988063,-0.2002435,0.22688067,-0.8596715,0.0627246648,-0.324720621,-0.3352757,-0.757959247,0.115832984,0.685774,0.232372031,0.207919568,-0.612098,-0.3465603,-0.395660073,-0.5934218,-0.553069,0.654910147,-0.552564,0.08633443,-1.00001407,0.0198997259,0.6994382,-0.07434825,0.5738304,0.9203218,-0.420382619,-0.851737857,-0.0994756,-0.9178379,-0.53587985,-0.758201361,0.36956194,0.6785166,0.433794558,-0.774514258,-0.568712831,0.315216541,-0.5988091,-0.990810037,-0.995138645,0.40684846,0.7760109,0.567163,-0.6067163,-0.556434,0.436072916,0.7218945,0.5132261,-0.971884,0.3117322,0.6182102,-0.981793,-0.77025944,0.234740272,0.814323246,0.0324654058,-0.6794562,-0.577623248,0.0565763675,-0.968048155,-0.475341558,0.327933818,-0.08098876,0.1461048,-0.0373774655,0.7741561,-0.388159215,0.2190759,-0.636894941,0.9773987,0.128249168,0.247785583,-0.6023977,0.03249626,-0.3491909,0.213628992,-0.877180636,-0.546873152,0.182037,-0.525748253,-0.19219549,-0.429594517,-0.14949964,-0.1683327,-0.17577447,-0.818013132,0.183379024,-0.497206956,0.5273684,0.132734343,-0.8886753,-0.148069933,0.209472373,0.906678259,0.440737844,-1.0413183,-0.120698132,-0.5539247,0.4363898,-0.4129499,-0.1701052,-0.5464931,0.08165467,-0.908105969,-0.7709182,-0.630065441,0.612961352,0.201762378,-0.421520561,-0.3772343,-0.132095665,0.777370751,0.195788488,-0.3727555,0.145106792,0.7760638,-0.5554735,-0.9373794,-0.7370173,-0.277606338,-0.552172363,-0.9968013,0.590063632,0.188802972,0.774955451,-0.8587555,0.8208217,-0.6882211,0.533587754,-0.470548958,-0.7256622,0.6022172,-0.003881677,-0.489072621,0.558714032,-0.6783165,0.275620073,-0.432902217,-0.5206729,-0.5506787,-0.420946956,0.986268342,0.9307875,-0.0501562133,-0.7825341,-0.728622556,0.638941467,-0.360372066,-0.2823546,0.577581763,0.6054887,-0.200329557,-0.811308146,-0.3031363,-0.9417407,-0.2541717,-0.09337148,0.9052501,-0.75077,0.9893431,-0.5296385,0.210252121,0.635371566,-0.9775039,-0.6983299,0.260198027,-0.233688921,-0.40798682,0.0200077575,-0.0589570031,-0.6203905,0.689275,0.37457034,0.666301,-0.945932269,-0.4853287,-0.8835028,-0.313602954,0.00908081,0.580777943,-0.405140221,0.272292465,0.6595925,0.9226754,-0.08485025,0.440012068,0.413181871,-0.682986856,-0.4996585,-0.15046452,0.397872269,0.6062947,-0.4704497,-0.389246553,-0.996678054,0.366324544,-0.6834109,0.8754469,-0.413605422,-0.0832445,0.443359762,-0.02720261,0.612958431,0.7599795,0.15885739,0.789331138,0.215212122,-0.6826771,-0.5285805,0.4376228,-0.380696744,-0.802143753,-0.141254,-0.349001646,0.350015223,0.120091215,0.4428751,0.6769311,0.06673971,-0.198060781,0.7949359,-0.5241277,-0.845092535,-0.816042662,0.537410438,-0.2148023,0.1722038,-0.122079469,0.793876767,-0.225510016,-0.7409913,-0.728369236,-0.919939,-0.9366219,-0.8812717,0.6070964,0.6093144,0.9258454,-0.256924868,-0.0188923534,-0.9208017,0.101422668,0.7509036,-0.0523864478,-0.8145141,0.18299444,-0.3343783,0.8255397,0.180198163,-0.150343984,0.894458652,-0.4153298],[-0.23590897,0.761842549,0.1265667,-0.0494804867,-0.176564425,0.438631773,-0.767326057,-0.5992642,-0.241528124,-0.527977169,-0.416025281,0.743585348,0.200575173,-0.6540319,-0.8535357,-0.159828469,-0.3954832,0.9206158,0.2848018,0.473348767,-0.0507435463,-0.5464772,-0.402252883,-0.4889121,-0.288959146,0.5142913,0.977,-0.7935109,-0.9108241,0.151127324,0.451622248,-0.277389735,-0.158132017,0.490138382,0.9049913,-0.5651714,0.028459806,-0.08526397,-0.170830816,-0.479103029,0.6932555,-0.8379153,-0.806875944,0.933910668,-0.4596747,-0.9015187,0.821568847,0.927728534,-0.0352942348,0.7025981,0.438370883,0.764415264,0.6501343,-0.5162026,0.784237444,-0.515552938,0.0190811958,-0.5425979,-0.7893514,0.475515962,0.390529275,0.807562351,-0.585433364,0.407832056,-0.21609202,0.6975297,-0.0600681379,0.522886634,-0.198487073,0.8420987,1.11204088,0.333947361,-0.0232934467,0.328030258,0.8572891,-0.41223675,0.873615742,0.0106206844,-0.8642953,-0.410466284,0.293875277,-0.7331304,0.441204727,-0.556939065,0.949318349,-0.7870631,0.790098131,-0.380977154,-0.972050965,0.212535113,0.7207923,-0.584322155,0.0741321445,0.258730233,-0.3481598,0.535778642,-0.890923,0.05958521,-0.401606321,-0.6020577,0.384395421,-0.5680915,0.234556228,-0.005257785,-0.838944554,0.9521709,-0.5160963,-0.945251942,-0.5055187,-0.0908919,-0.16614832,-0.9503778,-0.899038732,0.461111933,-0.96382165,0.2342948,-0.5056481,-0.754469,0.2158794,-0.6206609,-1.30106962,-0.9584616,0.0843927,0.6688716,-0.488383,0.466216236,-0.348884076,0.8523882,-0.564217031,0.808688939,-0.6850977,-0.0603711046,-1.21750855,-0.354915559,-0.0157715753,-0.110225387,-0.214455888,-1.01744342,-0.7714402,-1.05487919,0.280526161,0.3922194,1.32381189,0.280751765,-0.894079447,0.19368276,-0.6540398,0.283760279,-0.261282325,0.294086635,0.304322481,0.923576832,0.341350168,-0.745976448,-0.071586974,-0.261951357,-0.173788175,0.109321088,-0.3959176,-0.3782245,0.429047,-0.687607646,0.462634265,-0.512863159,-0.8127935,0.276692837,0.6849872,-0.346912175,-0.8391656,0.221555561,-0.718626142,-0.513441443,0.5299085,-0.0713205561,-0.4139928,-0.432623863,-0.692402542,-0.686418,0.754750848,0.299452126,-0.1099336,0.00931366,-0.179514125,-0.0465761833,-0.5166619,-0.5491125,0.5579249,0.9937504,-0.564586461,-0.593072057,-0.808925152,1.11332309,0.463894069,0.5285626,-0.392956525,0.140696734,0.794912755,0.371968985,-0.09503233,-0.729274869,0.280736834,0.438939631,0.144349858,0.249820441,-0.101212263,-0.146074891,0.9376395,0.9318691,0.311281264,-0.706727266,-0.484252363,-0.5100744,0.0812468,0.449203372,0.4102941,-0.8305408,0.239507139,-0.7940371,0.554325163,0.293195128,0.844296634,-1.07690048,-0.7454662,0.4736588,0.0615689829,-0.5100185,0.003909036,-0.5365195,-0.171715885,0.4552437,-0.208703533,0.135678753,0.5871701,0.4573473,-1.002395,0.8033607,-1.01353788,0.707820833,-0.781778634,0.8287602,-0.436880559,0.6362383,-0.43992117,-0.7813769,-1.12191892,1.084832,-0.258056641,-0.821818352,0.888948858,-0.680174,0.8167318,0.2971393,0.575080037,0.3970745,-0.5386852,0.2473622],[0.05086697,0.499851733,-0.626345754,-0.5595778,0.890122235,0.4721066,0.114706062,0.9770558,0.4486548,0.441696972,-0.126159534,0.737695456,0.164656371,-0.9197839,-0.6453237,0.6800962,-1.62985659,-1.51952207,-0.9195043,-0.8801094,-0.1443474,-0.7296637,0.5000084,-0.0521865822,0.287341,-0.335098982,-0.300421447,-0.316233337,0.534866,0.3641305,0.6905883,-0.3737279,-0.0362870656,-0.7268509,-1.478128,-0.858550966,-0.04475485,0.742413,0.8627971,0.1858914,-0.121917635,-0.263732374,-0.372360945,-0.396501184,0.133672476,-0.0569212325,-0.153293341,0.8173722,1.277861,-0.341010958,0.251299322,0.224903673,-0.410620749,-0.7708918,0.6725877,-0.21648173,0.6402592,0.328580678,-0.249970555,-0.09290366,0.120837457,-0.5121348,-0.474284142,0.9024264,0.599741161,-0.692982554,-0.404509366,-0.960515559,0.428744465,0.71937865,-0.8854272,-0.803358853,-0.8634245,0.0563508458,0.216577545,0.07477247,0.3158829,-0.301564872,-0.8697087,-0.3720392,0.4915252,-0.179553837,-0.8037726,0.241571218,-0.429428846,-0.6046928,0.7060054,-0.6935372,-0.228490844,0.242101625,-0.479823947,-0.731387,-0.118461572,-0.3498391,-0.4745683,-0.6549557,-1.17761087,-0.226604417,0.0483941659,-0.8261017,-1.28739476,0.158493683,-0.3164999,0.7377034,0.8081557,0.003932407,0.985807657,1.03358066,-0.0833214447,-0.483677357,0.843527,0.495295763,-0.104873091,1.46756732,0.399033546,-0.535765052,0.6866106,0.116108552,0.5848311,0.49004063,-0.160359219,-0.423196882,0.14243193,0.9425156,0.179330349,-1.121283,0.5020008,0.118029505,0.324713558,0.384321541,0.322009146,-0.291101933,-0.6559637,-0.5010019,-0.120125026,0.01705077,-0.2792952,-0.025595203,0.811982,0.6287814,0.375178576,0.07362121,1.04471576,0.116820678,-0.882516265,0.430632532,0.684814155,0.296084,0.47433427,-0.703281,-0.434688717,0.4270164,0.35245207,0.07370763,0.581300735,1.1847173,0.50006336,-0.686829865,-0.250325441,0.521021,0.43576315,1.03802192,-0.0305589214,1.36182368,0.639736533,0.4437791,0.447056025,0.09591209,0.807453752,-0.6929231,0.5135341,-0.256274223,-0.133277744,0.8068382,-0.123256221,-0.86389333,-0.221245542,-0.5203298,0.7358648,0.9565978,-0.8131388,-0.947428465,1.47318125,0.130054787,0.163472548,0.9988634,0.109187208,-0.09254417,-0.302835822,-0.332923681,0.3055264,-0.75719434,-0.910926461,0.897808731,-0.5132437,0.5319296,-0.885359347,-0.8593383,0.7428792,0.4589613,-0.576443255,0.09645061,1.05542731,0.4616087,-0.2863398,0.7339977,1.24036741,0.50007695,-0.1270582,1.206451,0.459730059,0.07588416,-0.7428237,-0.5992083,1.04133141,1.04642928,0.361595035,-0.3428314,0.1322724,0.437378138,0.9245744,-0.915262938,-0.6610348,0.00423843972,-0.402190417,0.110532016,-0.5003853,0.564511061,0.38136214,0.451951236,0.97093153,-0.5577266,-0.16714111,-0.331501752,0.288103461,0.265934229,-0.773746133,-0.214129761,0.681843042,0.0205171257,0.6510256,0.3947144,-0.5787086,-0.339315325,-0.0715533346,-0.7864196,0.4034534,0.110025592,-0.274734139,-0.265657485,0.168151662,-0.9566703,0.382248044,-1.85992086,0.318399429,-0.497505],[-0.117197484,0.187506169,-0.598839,0.408975184,0.0475792736,-0.317005783,-0.8985789,0.0181011353,0.6682194,0.08599196,-0.540059268,0.862826765,0.470010936,0.927220941,0.188941047,0.0316856019,-0.383141041,1.15988028,1.405073,-1.0936408,0.556391835,0.4865162,0.80499053,-0.272853076,-0.04133182,0.4024128,-0.348413348,-0.52042,0.5744032,0.728677154,-0.435131043,-0.4178087,-0.3787557,-0.1749433,0.492869139,0.331139266,-1.21370339,-0.985613644,0.9105921,0.5598884,-0.1549659,0.6118734,0.107281491,-0.626459241,0.556034565,1.23074687,0.519848347,-0.438707441,0.900583446,-1.05847538,0.263061821,0.4284027,-0.2883546,0.326301366,0.0665907,0.161474749,1.53501,0.7271579,0.414366,0.2627375,-0.7226138,0.3776738,-0.4063842,0.7194373,-0.936004043,0.8451778,-0.296499938,-0.264777184,0.464203268,-0.7505777,-0.19702813,-0.8718238,0.943908,-0.506509066,-0.400057971,-1.04224062,-0.388956428,0.5436065,0.109853312,0.8097991,0.546353757,1.14576292,0.08745338,1.21453226,-0.931152642,0.3919876,0.0607063547,1.05140507,-0.668216944,-0.00406175526,0.950485468,-0.619171858,-0.4937431,-0.207287118,0.205379367,0.4734064,-0.544306457,0.7639458,-0.7444011,-1.0246402,0.356361181,0.007076599,-0.139737755,0.288831353,0.686670959,0.45291695,-0.229714438,0.395368129,0.128924564,-0.0240741875,-0.669035852,-0.737891555,0.4739502,-0.717812061,0.7647336,-1.22907281,-0.181569055,0.6565268,0.6385686,-0.8799226,-0.7161035,-0.589444458,0.07175765,-0.359825581,-0.204005,-0.9829802,0.6894959,0.954244733,0.4808927,-0.871677756,0.392435044,0.171042055,0.35515818,-0.522672355,-0.454493284,-0.3727185,-0.163318127,-0.881792843,0.8772795,-0.361326545,-0.862274766,-1.915259,-0.228600487,0.304248154,-0.717269,-0.10847865,0.3519058,-0.532783866,-0.629554749,-0.026597457,-0.206390485,-0.5857982,0.4736778,0.789079964,0.07571001,-0.617074,-0.101981774,-0.07194043,-0.167485923,0.68404305,-0.834133863,1.02009511,-0.464764565,-0.9193382,0.5392847,-0.0304502919,-0.229080886,-1.10414779,0.05354712,0.8836575,0.638689458,-1.01539,0.875989,0.7781587,-0.632856667,0.0399361923,0.284012824,0.129715,-1.24624228,-1.17129886,0.00498987874,0.5450243,-0.230281383,-1.28880525,0.529860556,-0.1850573,0.872264,0.597677767,0.6597905,1.208551,0.780183554,0.8390053,-0.711995065,-0.92630583,-0.6600689,-0.9332145,0.717186153,-0.6289405,0.702470541,-0.310577422,0.7514599,-0.234198421,0.03702925,-0.341239,0.588947654,-0.113279164,-0.233585462,0.7871326,0.306302,-1.51181293,-0.424674,0.8430106,0.07021662,0.08717521,-0.0983579159,-0.385109663,-0.0197086856,-1.112423,-0.194821686,-0.4248027,0.419804156,1.15953612,0.2993668,0.016212007,-0.79437685,0.7675954,0.956132352,0.7526899,0.337391049,0.9444379,0.146993175,0.48150143,0.664331138,0.325689077,-0.782085061,-0.929735243,-0.8861156,-0.5287706,-0.3013322,-0.426123232,-1.20877409,-0.650051057,1.2482053,0.611310661,0.09666923,-0.2359797,0.2326553,0.5720438,-0.9714544,0.8935219,0.753313363,0.291982025,-0.112454064,1.54238141,0.467041522,-0.860055],[0.850558,0.462890625,-0.4403606,0.8491402,0.0116915721,-0.03852117,-0.3844573,0.562426746,-0.0667445958,0.425440282,0.7302275,0.446874231,-0.597585261,-0.09520484,-0.186911553,-0.804216743,0.6705461,-0.8394617,-0.8871394,0.5401158,0.703643441,0.222780839,-0.6144291,-0.8606716,-0.314224541,-0.848075032,-0.2930721,-0.892902,-0.5333065,0.7308534,-1.10037041,-0.7954034,-0.9627326,-0.986892641,-0.8454414,-0.3510425,0.8757626,-0.277640581,0.7039332,0.170736521,0.261790931,-0.620535,-0.214832291,0.6352799,-0.7393838,0.573890448,0.231582567,-0.8756648,-0.6020093,0.3630316,0.5150446,-0.024192011,0.2891969,0.623466849,-0.710057437,-0.506863236,0.021811625,-0.524257243,0.192667991,-0.191323161,-0.788367748,-0.459465265,0.140735745,0.05728563,0.396199,0.5158573,0.286444932,-0.7468865,-0.239031032,-0.8568622,-0.7625313,-0.163007587,-0.40683046,0.02628363,-0.8319561,0.378284037,-0.396093816,-0.3334278,0.6411888,0.172138557,-0.004352361,-0.420796961,0.600871444,-0.148825347,-0.7241419,0.00762713933,-0.253400534,-0.391591549,0.9859242,0.602527,0.435853,0.6932864,0.793097138,-0.275642037,-0.201032251,-0.120650686,0.177181169,0.4200165,-0.8217238,-0.130118564,-0.8090209,-0.184463,0.3042016,-0.7253087,0.0511529,-0.24916169,-0.6458603,-0.8663181,0.397059917,0.0530691072,0.778492332,-0.6964706,-0.209920838,-0.988109648,0.866413832,0.6816579,-0.287041068,-1.07793736,-0.168113947,-0.5605181,-0.517442167,-0.4284253,-0.6889723,0.1097382,-0.412402451,-0.2566472,-0.0209727325,0.7169186,-1.00979769,0.2929012,-0.8208686,0.0234594289,-0.738712,-0.386855334,-0.168032855,-1.00846577,0.0639415756,0.427693427,-1.067097,0.342844,-0.5461323,-0.298385441,0.03828685,-0.281669974,0.6267818,0.179130062,-0.3869201,0.7011504,0.0670639,0.2501562,-0.901892543,0.1941802,-0.30344215,0.8786098,-0.7083915,0.409741879,-0.468036681,-0.6758645,0.791809857,-0.7313004,0.7342116,-0.1843652,-0.8126182,-0.8917333,-0.08425908,-0.112460382,-0.8931573,-1.0118649,-0.108008251,0.6930188,-0.347677261,0.374422818,0.8353554,0.2193468,0.9419108,0.8675092,0.5538687,0.5092309,0.4491218,0.364087284,-0.9026345,0.249884367,-0.413128942,-0.211503312,0.1645057,-0.2013092,-0.708056,-0.532133758,-0.5067111,0.343106478,0.5069215,-0.221130386,0.651823,0.7673359,0.72933203,0.6681044,-0.490998834,0.0147949886,0.860424,-0.336181939,0.08904588,-0.4061948,-0.415881634,0.189222276,-0.408419043,-0.302214026,0.2210717,0.295989752,0.8864394,-0.6132167,0.754948735,-0.110726573,-0.161519468,-0.542066932,-1.04623246,-0.6681814,-0.833989561,0.293822616,-0.148542479,-0.9278423,-0.400500357,0.549381733,0.433280349,0.657477438,-0.703582,0.880800068,0.654173434,-0.7994043,0.708500743,-0.6702052,0.343256,-0.429680616,0.745392561,-0.154686883,-0.7609525,0.604257345,-0.275422573,0.345218956,-0.7669409,-0.4684791,0.429210454,-0.0284084026,-0.4465916,-0.8865762,0.3257203,-0.4604769,0.990018845,0.195440337,0.4477563,0.378240734,0.496992469,0.13006258,-1.01294661,0.7355777,-0.953196764,0.467706],[0.0978262,-0.0593659729,-0.0280853026,-0.335783184,-0.008926284,0.0378073677,0.5398755,0.5284759,0.07459913,0.215095147,0.165220812,0.9443303,-0.75952363,-0.601035058,0.6087144,-0.171834528,0.129294544,-0.63756007,-0.6067981,0.4696946,-0.0325316638,0.3973249,-0.5559148,0.583143651,1.0731051,-0.5684038,-0.3859698,-0.7421441,-0.0682415,-0.7494775,-0.4848335,0.9943911,-0.07110275,-0.438618839,-0.5545704,0.6912166,-0.659855843,0.5815555,0.461368144,-0.5393103,0.3503482,0.0576716773,-0.08604244,-0.62787807,0.38876316,0.9408633,-0.0697801858,0.342071772,0.9391186,-0.407467633,0.797875762,0.671588659,0.380158842,-0.6553007,-0.5800062,0.5944337,-0.210981339,0.203430891,-0.426794738,-0.640315235,-0.399306655,0.209595069,-0.4130723,-0.22367534,-0.315211058,0.265259355,0.135408685,0.4868021,0.847443461,0.8006525,-0.5576391,0.577222943,-0.1866141,0.890162945,-0.997789443,0.9865957,-0.6686872,0.7614514,-0.740635,1.08872116,0.5353125,0.255093426,-0.645095646,-0.830292463,-0.6306782,-0.3498959,-0.439816833,-0.583152,-0.80879575,-0.228319809,0.106916934,0.140564427,-0.204371527,0.1578542,-0.981981337,-0.7877924,-0.7469447,-0.628791153,0.933464646,-0.9182602,-0.266921341,0.581357837,0.7220091,1.18948519,-0.82978195,-0.6148489,-0.198291779,0.329634517,-0.5489268,-0.4414113,0.326025069,-0.03221974,-0.189199775,-0.328656942,-0.2425804,0.2011135,-0.3799352,-0.532935739,-0.117918938,-0.9373982,0.05355813,-0.2981901,-0.02781383,0.0181867629,-0.197003409,0.313793,-0.114203252,0.540086746,0.6896,0.6655582,0.562732,-0.9334518,-0.794451535,-1.00944626,-0.159724116,-0.8540389,0.909459,-0.22400181,-0.9904892,0.8174393,0.004310363,-0.412211239,0.696957,0.733038366,0.470553935,0.875127137,-0.8253783,-0.787772655,-0.804062545,-0.4232472,0.5832319,0.920796037,0.590158045,0.524035633,0.458138019,-1.016112,-0.7254923,-0.5749679,0.09108606,-0.233832374,0.5632837,0.194061354,0.6423045,-0.0489213429,-0.238470554,0.175161988,-0.224232167,-0.386852115,0.279468447,-0.468345284,0.7443439,-0.8309028,-0.349023461,-0.154038042,-0.6837238,0.7645454,0.2080488,0.430668145,0.425440162,-0.0262530651,-0.03869995,-0.585861564,0.464646846,0.2825756,-1.01019621,0.392616749,-0.5060017,-0.3889565,-0.389029562,-0.0116727641,0.680678666,0.270147234,0.42079553,0.172693089,-0.7389733,-0.657030046,0.4578355,0.139143914,-0.138411045,-0.789423048,-0.0579464659,0.348023385,-0.344715416,0.3867562,-0.157120392,0.418978959,0.509353042,-0.110694811,0.429079354,1.02952778,-0.1380158,-0.207351714,-0.15806444,-1.08041322,0.7810919,0.187752143,0.7809476,-0.7840253,-0.4563673,0.21479775,-0.5643392,-0.7579822,-1.07283425,-0.647125661,-0.0807732344,-0.463794142,-0.241479814,0.351716965,-0.5227972,-0.8813652,-0.7555017,0.859643638,-0.4966553,0.241501167,-0.95999223,0.75950104,0.83241564,-0.96167177,-0.5912213,-0.280918032,-1.04580379,0.5649426,0.3878874,-0.2085676,-1.21811569,-0.022456713,-0.761537433,0.286848575,0.3545044,0.11244262,-0.6002095,0.1662927,-0.4238268,0.764693439,0.8667329,-0.4368722],[0.1998917,-0.744329453,-0.471498728,-0.6493028,-0.30008468,-0.744958341,-0.6039172,-0.121361621,0.6464998,0.2183494,-0.634843051,0.6063744,-0.9073064,0.8709787,0.2280943,0.7927162,0.94850564,0.9347387,0.29682824,-0.063561514,-0.119966142,0.338031,-0.534704447,1.01392186,-0.8016298,0.4548096,0.844436,0.384642661,0.7736978,0.06010313,0.394965857,0.156115711,0.67361027,0.5647852,-0.220445037,0.6957909,0.5625616,-0.8625646,-0.883798957,0.944933355,0.331797034,-0.3076776,0.2589703,-0.078060545,-0.415367961,-0.198905692,0.270479947,0.6383492,0.9182029,-0.290901721,0.332347661,-0.277711332,-0.6459268,-0.128156245,0.8347514,0.929403841,0.9837556,-0.410404861,-0.7476488,0.328989476,-0.454131633,0.09954476,0.1596641,-0.315120429,0.9328077,0.325996071,-0.949040532,-0.3300081,0.265271455,0.6084338,-0.720400751,0.7903285,0.9146081,0.404853433,0.584095359,-0.8205975,-0.8707306,0.5078983,0.450929344,0.408272177,-0.708412,-0.7908291,0.5100744,0.21919398,0.8003003,-0.30715,-0.121978484,-0.08848468,0.6958158,-0.249604091,0.814703345,0.0175057668,0.920676768,-0.215220064,0.423478,-0.6500166,0.6180989,-0.291972041,0.08009852,0.362276554,-0.2442014,-0.3358784,-0.491062045,-0.5596865,-0.617347538,0.512980759,-0.100582987,0.06428413,0.231151655,0.642311931,0.8217767,-0.4217796,0.258916825,-0.101052083,0.110570237,-0.611024261,0.766279161,-0.791791856,0.0481743775,0.313530415,-0.371313334,0.422288626,0.216074571,-0.357369721,0.942600965,0.3681252,1.00425708,0.207683623,-0.7242067,0.53756994,-0.225330025,0.631341636,-0.285421252,-0.6449118,-0.107534178,0.8304917,0.867021441,0.2943511,-0.06967818,-0.492411166,0.898856163,0.9619803,0.672897756,-0.8146877,-0.071930334,0.2648272,0.8819953,0.111244649,0.672376335,0.004964098,-0.344832838,0.5071012,0.724770665,0.7090064,-0.26031068,0.479832351,0.5829093,0.8348223,-0.5806957,0.131144062,0.640333056,0.6198753,-0.118699908,0.9452356,0.126094386,-0.642531931,0.9648913,-0.0188005846,-0.713673234,0.491009921,-0.325514317,-0.4746488,0.439898938,-0.214660928,0.536444962,-0.318975121,0.862304747,0.1253831,0.7560273,-0.281475782,0.432704628,-0.1676117,0.50352174,0.06088263,-0.261196464,0.178483054,0.863681734,-0.115973569,0.5266577,0.2540283,-0.8487045,0.9738804,-0.2526825,0.6316847,-0.3622884,-0.684722841,0.0748465359,0.620470166,0.06305739,-0.297686517,0.378266066,-0.0241145641,0.015870925,-0.6956253,-0.564976752,-0.827376962,-0.761226654,0.0573337153,-0.511048257,-0.7141311,0.9178287,-0.2640308,-0.722810149,0.833713233,0.8106376,-0.08337837,-0.832309961,0.9117802,0.354590118,0.9567532,-0.5448103,0.07299875,0.4728543,-0.0168439951,0.353829116,-0.3261049,0.802905738,0.743249,-0.950321853,0.09223621,0.5899984,-0.792726934,0.9422339,-0.0380303375,0.3206154,-0.493196279,0.810011446,0.243025616,-0.38130188,-0.440180928,-0.0377639979,-0.181536779,-0.4579874,0.369734168,0.55458343,0.568184733,0.7546258,-0.00716753071,1.01450181,0.8494426,-0.843736231,0.245512813,-0.532240868,0.242721558,-0.7396835,-0.6736587],[0.51810503,-0.900300443,-0.03288329,0.8099695,-0.5708618,-0.496529847,-0.01019923,0.256739676,-0.430244833,0.616146266,-0.3500041,0.282057524,-0.533637643,0.256863832,0.0332091935,-0.0746758655,0.07956376,-0.5167686,0.130023584,1.03795612,-0.6255666,-1.04494429,0.378947049,0.8509372,-0.192648649,-0.486541659,0.5746836,-0.795184433,-0.215827048,-0.806079447,0.731240749,-0.293073535,0.0845097,-0.231275931,-0.262065351,0.5771928,-0.690214932,-0.251032084,-1.0222156,-0.6629732,0.7790176,0.133167371,-0.321588844,0.752843142,-0.0367522128,-0.585058,-0.6397602,-0.174893543,-0.3428632,0.196771577,-1.28636,0.234675452,-0.8753921,-0.5297382,0.647281647,0.5279242,-0.2555972,0.180749819,-0.119685426,0.727307439,-0.2595458,-0.155592412,-0.405455768,-0.699958563,0.849485636,0.8843421,-0.430744857,0.5130778,-0.6528243,0.377857625,-0.397432148,-0.535528243,-0.317330152,-0.5070069,0.838224351,0.260213435,0.282890856,0.443401337,-0.00603268435,-0.5925602,-0.9402661,-0.156358525,0.08364304,1.39460278,-0.797246039,-0.9309638,-0.330288857,-0.02085111,-0.0610489771,0.474596232,0.170413747,0.123606056,0.864856243,-0.5410623,0.9198533,0.183602,-0.107724637,-0.711561263,-0.5999229,0.68418026,0.8659794,0.03774122,-1.04603767,0.324477166,-0.580703139,0.278825372,-0.4339892,0.6120657,-0.183398515,-0.534634054,-0.7503123,0.268884331,-0.679049969,-0.2088846,0.511492968,0.4803373,0.1643988,-0.6139535,0.6793727,0.6084135,0.499062657,-0.295347422,-0.8261767,-0.0468088724,-0.62991184,0.7751125,-0.393344641,-0.7077275,-0.0529945232,-0.206383884,-1.06553721,-0.4534066,0.1603083,1.39048016,-0.6202605,-0.10815765,-0.0262002274,-0.8712843,0.158347592,-0.319629937,0.8771213,0.0635442,-0.0537282266,-0.4991758,0.36616227,0.7576325,-0.2003323,0.3758605,-0.08713728,-0.9995691,0.865813255,-0.7394691,-0.4536956,-0.7870026,0.486440539,0.795715,-0.367055684,0.473886967,-0.0190772451,-0.148642629,-0.205039829,-0.218484938,0.09258996,-1.10143626,-0.761319339,0.341174722,0.2375005,-1.38870132,0.8919293,-0.9695081,0.171605349,-0.125536934,0.222508311,0.432934374,-0.486522168,-0.505662262,0.331990957,1.083856,0.7160446,-0.756766438,-0.102204666,0.366732746,0.5597809,-0.417850673,0.0712545738,0.7803583,-0.885519,0.1621724,-0.8042631,0.249971926,-0.320413262,0.03030987,0.0352317169,-0.671340764,0.7655987,-0.445757717,0.7756087,0.181518957,-0.6251496,-0.93767345,-0.9499805,-0.4936514,0.277793974,-0.0137938512,0.07653899,-0.255207837,0.0401533879,0.3186358,0.439340025,0.142853051,-0.499034017,0.310397774,-0.8561869,-0.5699215,-0.189003468,1.03079951,0.550643146,-0.8436565,0.0451115519,-0.721625745,0.208710626,-0.5879476,1.10120368,-0.139029145,0.6310481,0.6049027,-0.965921462,0.0431786,0.38690716,-0.8808574,-0.198492154,-1.097216,0.324354,0.438926667,-0.45478785,-0.8264239,0.952891052,-0.3120207,0.619701,-0.8751786,0.153997079,-0.139538929,0.714768,0.375783145,0.135343224,0.66006434,0.0392564535,-0.442649484,-0.452584326,-0.763611138,0.162121564,0.5372991,0.780323148,-0.9589769,-0.09834093,0.566960454],[-0.43984434,-0.5540835,0.01989296,0.3860249,-0.33315444,0.9660999,0.944954753,0.472780019,-0.8825897,-0.7768146,0.564263642,-0.451503366,0.9314599,0.756773651,0.7499221,-0.414550841,-0.6601918,-0.120513633,0.150145054,-0.8780726,-0.34593156,-0.5804318,-0.827900469,1.00844121,-0.7540793,0.3495955,-0.221547291,0.166839436,-0.156795591,0.109657981,-1.000757,0.143429339,-0.697712541,-0.142566174,0.57720685,0.09978626,0.505891442,-0.7755766,0.278383017,-0.14231427,-0.07785153,-0.656804,0.311376154,-0.454827338,-0.8671604,-0.30332014,-0.3627028,-0.660569668,-0.573736131,-0.304865152,0.00181734876,-0.294312835,-0.26888442,-0.310055852,-0.355035424,0.687855,-0.7741698,0.170543984,-0.004978847,-0.07567649,0.315949529,-0.299483657,-0.480300218,-0.374453783,-0.8790784,-0.665557265,-1.00369358,0.0649390146,-0.9961641,-0.7225573,-0.1149583,-0.7088945,0.688241363,-0.70985055,0.216910988,-0.323498845,0.308636546,0.450643867,0.9968745,0.883300364,-0.227545023,-1.08228266,-0.5379061,-1.033349,-0.7185632,0.0561881252,-0.7095832,0.8609764,-0.717551768,0.4783003,0.00556044048,-0.030917488,0.334665,-0.7284758,0.939048767,-0.454857856,0.403743744,-0.7700971,-0.612987757,0.796736062,-0.3971564,0.511888,-0.813370049,-0.8302705,0.733156264,-0.468256533,-0.09320293,-0.6305135,0.572343647,-0.741569638,-0.5811585,-0.3089473,0.0389242768,0.151370972,-0.434061348,-0.139550492,0.631621957,-0.7827317,-0.355044276,-0.2168848,0.662633657,-1.02650714,0.0109091159,-0.674982965,0.150658771,-1.00561392,-0.167466834,0.366498649,-0.7114026,-0.117532976,-0.147733882,-0.368656725,-0.5827065,-1.0141952,0.0865817145,0.09494523,0.722919464,-0.536105335,-1.01764965,0.203636929,-1.08197629,0.3245887,-1.17749619,0.571455956,0.0769164041,-0.8700078,0.5020481,-0.7357434,-0.9485868,-0.136855066,-0.6932139,0.326146364,0.8534199,0.6550274,0.770639837,-0.5433667,-0.252188236,-0.7473411,-0.0208715647,0.503591239,-1.04528689,0.5790342,0.8986856,-0.5565645,0.255018026,0.693460166,0.961469,0.0153404865,-1.4123646,-0.137022942,-0.012047234,0.0702668354,0.648702264,0.19065325,-0.4919163,-0.906045735,0.7829773,0.0435502976,0.243404448,0.09920626,-0.106670327,-0.434647739,0.48815468,0.688054442,-0.4909196,0.6418799,-0.0517392941,0.13699469,-0.9536659,-0.447788775,-0.539218,0.497174561,0.7353367,-0.0276182164,0.387528032,-0.3909916,0.901979744,0.7927339,-0.384263068,0.3863213,-0.8451717,-0.524944246,-0.777489364,0.110428952,0.6968678,0.0635479242,0.4828142,-0.256858766,-0.0978910848,0.363113046,-0.342291981,0.7487015,0.1405783,0.6577513,-0.06247573,0.6206954,-1.02843225,-0.9137691,0.749467969,0.6324911,-0.3266114,-0.2974724,-0.368094742,0.2732956,-0.507455349,0.568271756,0.4930668,-0.08276464,0.745180845,-0.996064067,-0.7966865,-0.897868335,-0.555365562,0.843741536,-0.16721721,-0.7631563,-0.627962232,-0.658545434,0.924671769,0.621211767,-0.8216736,-0.724541843,-0.791145563,-0.375583529,-1.02655339,-0.304297268,-0.417663783,0.840717256,-0.8326239,0.9757998,-0.561502159,0.5761777,0.6760398,-0.04035748,-0.5127472,0.48331055],[0.8374218,-0.1777252,-0.454465866,-0.96372354,0.565364659,-0.47340712,-0.07132496,0.04183438,0.524593949,-0.538844,0.295152,0.201835379,-0.0357222147,-0.499064624,0.0302341878,0.906658,-0.6039055,-0.728005767,0.3652179,-0.458433658,-0.549328446,-0.913516164,0.395896882,0.8059957,0.284095168,0.6215137,-0.212676615,0.8216804,0.6704025,-0.443760961,-0.7721733,0.5603486,0.468970448,0.461228967,-0.477558851,0.6404175,0.8411663,0.9563273,-0.8672734,0.777401,0.447061241,0.268321365,0.167081818,0.6375696,0.4974483,0.253617734,-0.04356671,0.717673838,-0.000114075425,-0.5360735,0.253082633,0.7948149,0.6033874,0.990549445,0.0711058,0.859795332,0.5310254,-0.182459429,-0.190804511,0.964171946,0.912678063,0.1787939,0.440496862,-0.0116742337,-0.658176064,0.7801157,0.799059749,0.541248441,-0.8944725,0.475209028,-0.8400641,-0.553239644,-0.815101862,0.6031132,0.137687,0.2638817,-0.102982804,0.6778094,-0.651450753,-0.896046758,-0.2770682,-0.0311968923,-0.105298169,0.290418983,0.404640168,-0.5606564,1.04257774,0.5199983,-0.6062415,-0.298804164,-0.8192308,0.129861414,0.157302275,-0.822132349,0.973720133,-0.6209872,0.865093648,-0.6815554,0.445992917,0.754479349,0.452535719,0.446280658,0.7485297,0.5456028,-0.6554317,-0.175659,0.6455156,1.06125689,-0.107296519,0.8580586,-0.07750065,0.892481267,-0.389074564,-0.101648152,0.3091968,0.01772946,-0.5389552,-0.6965049,0.6646166,0.984585643,0.9319715,-0.5771517,0.280247,0.550699055,0.5038342,0.105350234,0.3967953,-0.849315763,0.9189165,0.0468448661,0.482601583,-0.2174492,-0.468678474,-0.09511311,-0.238441959,0.3723339,0.3374315,0.470493168,0.0324470922,-0.301071256,-0.0618799143,1.1325016,-0.343024731,-0.405817538,0.638574541,-0.814451039,-0.4631974,-0.616600931,-0.147922024,-0.07516803,0.954178751,0.685687244,-0.348538339,0.347956657,0.8546167,0.130772218,-0.753189862,-0.84988004,-0.926257133,0.241809487,0.5500715,0.554199338,-0.681771338,-0.960673749,-0.381433874,-0.667607844,0.523081541,0.89255935,-0.6385298,1.11276555,0.76445353,-0.0240789447,0.317706048,0.109453216,0.244524,0.8983367,0.822669268,-0.285493284,0.914835334,0.270232558,-0.405295372,-0.0430919752,0.252521873,-0.14854233,-0.0483822748,0.719922364,-0.9290024,0.06592763,-0.159700736,0.5336877,0.08869153,0.135873422,0.295355,0.6817479,0.0351469629,0.257648528,0.661833644,-0.426385134,-0.9834033,0.3783203,-0.2883783,-0.289694965,-0.8259906,-0.09718996,0.214065015,0.0132677117,-0.5385925,0.6251563,-0.700587749,1.05247211,0.455398738,0.735409439,-0.6455857,-0.142384663,-0.244361222,-0.279041141,-0.6312026,0.5448852,0.158838078,-0.09837313,-0.7253493,-0.483360946,0.1111792,-0.218892738,-0.06562872,-0.420108736,0.682574868,0.6220991,-0.983631551,0.976880431,-0.720303953,0.237477511,-0.363609672,-0.4881695,-0.435869515,0.88435,-0.226935044,-0.6334675,0.628247857,0.9100894,0.231255621,-0.538269758,-0.0783138052,-0.156439722,-0.858340263,0.5422284,-0.13053973,-0.515100241,0.0536081269,-0.489073277,-0.07636894,-0.79897666,0.492394537,0.242442653,0.16572547,-0.7224873],[0.6664133,0.451763749,0.956215441,-0.355988443,0.369938582,-0.112373434,0.6107978,-0.8040042,0.735229969,-0.822552145,-0.0346514471,0.7831934,-0.701194048,-0.179213658,0.8448058,0.9853899,0.679840446,0.08509604,0.528088331,0.8637874,0.4590894,-0.8211925,-0.5182523,0.6754149,0.6512674,0.1024299,-0.662407935,0.6283374,0.0919036046,-1.05925107,0.468434423,0.439557433,0.11508283,-0.7897803,-0.974357,0.15847367,-0.6840424,-0.1329553,-0.489215255,-0.650092,-0.200317055,-0.3259524,0.0565031841,0.9158042,-0.567632735,0.146247759,-0.8502916,-0.8663679,-0.492259353,-0.137524426,-0.6775715,-0.8415791,0.5598842,0.3113264,-0.3901269,0.286168754,-0.184335634,-0.601346552,-0.171379328,-0.906570852,-0.732900739,-0.76823175,0.329976141,0.7146648,-0.5114347,0.52145046,-0.579592466,-0.9910608,-0.289436,-0.4542531,0.6085564,-0.08063117,-0.2417669,0.2601744,-0.03226151,-0.186255515,0.12776126,-0.327811241,-0.07553707,-0.402409941,-0.05284895,-0.8187672,-0.06941183,-0.8808655,0.71094203,0.469618618,0.807419062,-0.988184154,0.7626962,-0.0990074351,-0.6495569,0.751287043,-0.7799641,-0.692932963,0.7586922,-0.32336992,0.404027343,0.238322958,0.04255389,-0.0598302074,-0.319243968,-0.933205962,0.385928661,-1.06406152,0.471331716,0.269296616,0.4477916,-0.786789358,-0.6067488,0.8789268,-0.804647863,-0.987513244,0.5116162,-0.6847586,0.448191375,1.18575311,-0.193891257,-0.1591002,0.906926751,0.241037369,0.37528947,-0.820889235,-0.592081666,0.867225945,-0.9535188,0.6589008,-0.172536343,-0.6342175,0.124259055,-0.98045516,0.0415903367,0.5723341,-0.106795661,-1.37179422,-1.10087132,-0.27358532,-0.455698252,-0.337692618,-0.244277358,-0.7853032,0.6505391,0.3096874,0.563810468,0.418560952,-0.5987441,-0.713104844,-0.632019,0.7617665,0.139508739,-0.964322746,0.762524366,-0.479290515,0.4143017,-0.5854212,0.2562809,-0.8035971,0.616531432,0.617912531,0.9330756,0.515908957,-0.5017775,0.3780958,0.116625652,-0.9665512,-0.4724251,-0.361901581,-0.0195656419,0.47205615,-1.107892,-0.5754268,0.385847241,-0.7565343,-1.19958448,0.49980244,0.205044329,-0.8038954,-0.5515044,-0.4571784,0.102962896,0.419746935,0.192575559,0.005400108,-0.0521122739,0.09728574,-0.8076784,-0.302237242,-0.6915481,-0.198273033,-0.462603152,0.666287,0.280618727,0.182177439,0.0239958819,0.237444162,0.8389786,-0.544400156,-0.6165023,0.5214911,0.117788166,0.757496059,0.3342255,-0.107172295,0.449419141,-0.275599778,-0.1859068,0.7263409,-0.615302145,0.753923357,-0.02211839,-0.180212513,0.3420508,-0.452523261,-0.8298993,-0.757689,-1.0047574,0.12121065,-0.92173636,0.7474855,0.6004227,0.6839993,-0.751710832,-0.8074308,-0.277830541,-0.506159961,0.0619555153,-1.01643908,-0.0219695345,-0.245629266,0.795949936,-0.177543744,0.7839841,0.08106937,0.653721631,0.7294008,-0.5272357,-0.5663171,0.646728039,-0.659026,-0.6203479,-0.3303355,-0.715044439,-0.376686931,0.7652426,0.6912645,-0.7987663,-0.578431,0.2399281,-0.0297265463,-0.09523582,-0.5275429,-0.5848066,-0.4146501,0.6035865,0.1276324,0.468877256,0.196661785],[-0.895960867,-0.00280161272,0.7316345,-0.1939588,-0.301746875,0.493597955,0.959234238,-0.7204748,0.1918422,-0.5986757,0.124063738,-0.574290156,0.7280006,0.7791746,0.693524659,0.8099377,-0.10850808,-1.1164459,0.2763203,0.3290148,-0.970980167,0.1518839,0.145108238,-0.3320871,0.1956072,-0.07548382,1.01508021,0.2907645,-0.286024362,1.22281969,0.3419798,-0.615622461,-0.213745058,-0.44204995,-1.3741889,-1.00996161,-0.02918675,0.5834786,0.7980786,-0.205531523,-0.131131813,0.851904631,-0.403664768,1.34530663,0.381079882,-0.1880973,0.283842832,0.743567,0.2826811,-0.0678921044,0.292212784,-0.359506547,1.08535242,0.714769244,-0.277831644,-0.3403294,-0.9750921,0.239015952,0.8764527,-0.8606504,1.21746182,-0.301972061,0.874868453,0.89470917,-0.3114152,-0.357757121,-1.02747929,-0.7416849,0.381984651,0.191377833,0.1465033,0.6974056,-0.024107039,-0.341514736,-0.008823571,-0.023705883,-0.5719736,-0.411132067,0.0678674,-0.6489753,-0.355531752,-1.2618959,-1.37418425,-1.33371389,-0.753936648,-0.7823154,-0.143727109,-0.291609675,-0.485207,0.401157439,1.386519,0.6246349,0.7409012,0.471090049,0.411513865,1.48804665,0.218787789,-0.5957017,0.324107558,0.181248412,-1.09606981,-0.0343011245,0.389255375,0.9905146,0.4206004,0.2502169,1.427498,0.4841484,-0.275261074,0.9610868,0.08037368,-0.400752157,1.2811079,1.14933336,1.17488706,0.09265926,-0.6680684,0.495756358,0.7585539,-0.157871529,-0.318362325,0.172304392,-1.60897255,-1.37946236,0.148973882,0.816056132,0.709742248,0.232256636,0.9811884,0.544855237,0.712396443,1.57304657,0.12805286,-0.5487054,0.4913764,-0.7690829,-0.12782304,0.201221555,-0.641940057,-0.3431141,-0.171567678,0.659413457,1.05835593,-0.484666944,-0.284410149,0.845095754,0.780313134,-0.413113683,0.91086787,-0.554652333,0.7890424,-0.7301657,0.0166847948,-0.614734232,-0.810712039,-0.08524178,-0.47395578,0.6663776,-0.0808774754,0.76228255,0.367637128,-0.61667347,-0.7126496,0.7730779,-0.07176053,0.09950873,-0.247806832,0.441431344,0.4368655,-0.209715053,0.9489825,0.5562067,-0.355223268,-0.2806328,0.312231451,0.327403754,-0.420712024,1.30373824,0.690291166,0.5003002,0.5623853,0.3076592,0.549159646,0.24136354,0.6060512,0.1665486,-0.4603127,0.1655433,-0.242312476,0.5035631,0.7329636,0.2900372,0.940094948,-0.06302751,0.706369638,0.0828248039,0.07028628,-0.808017552,1.12181115,1.10153043,0.474090844,-0.26833263,-0.0619951449,0.22779043,-0.524814367,-0.736282766,0.6396384,-0.4386617,0.400107145,0.592989862,0.103074722,0.009081274,-1.21858525,0.0516472049,1.65608191,0.830042541,-1.05821872,0.137940869,-0.8928413,-0.12948674,1.0778538,0.00760303345,-0.54703325,-0.4785259,0.612385154,-0.239833012,0.542777956,-0.7095786,0.06140491,-0.432789445,-0.6357252,-1.0835408,0.3544728,0.476287931,0.8155358,0.3062019,-0.217098549,0.02768354,-0.6086125,0.487527162,-1.01695633,-0.7398723,-0.775768042,0.8030389,0.130501822,-0.445802,-0.2940326,-0.456448376,1.26878607,0.5316385,-0.7037958,0.9266227,0.267420381,-0.7364947,-1.09460247,-0.51708436],[-0.5545997,-0.22779046,0.0104282349,0.788949847,-0.2414085,0.0144563122,0.120030724,-0.7592314,-0.464369029,-0.7162414,0.8978027,-0.03691383,0.6918056,-0.319551468,-0.05705182,0.467177927,-0.484071553,-0.424695045,0.0973218,0.1271822,-0.833055437,-0.00582165364,0.39267543,0.469557136,0.7995654,0.427670419,-0.04863223,0.14180243,-0.636854,-0.3594719,0.848952949,-0.0147333127,0.480301619,-0.329936,-1.14184237,-1.22295475,0.9590654,-0.600235,-0.9437009,0.205665216,0.283654481,-0.529572,0.382846951,0.4742533,-0.369360626,0.7873136,0.0409391038,-0.0638815239,0.207987264,-0.065673,-0.202725947,-0.01884058,0.108825088,-0.838101864,-0.962741,-0.965588152,0.617319,0.493416131,0.6874517,0.6258828,-0.661105752,0.7741232,0.658360541,-0.8800816,-0.8275331,-0.005389554,0.6783974,-0.565651059,0.9169823,0.0606532842,0.6950918,-0.661301434,-0.637071669,-0.6335169,-0.799234331,-0.629744232,0.05934092,-0.7888166,0.0191166271,1.11963308,-1.19058108,-1.0371834,-1.12794113,-0.214241922,0.08978652,-0.399521649,1.17077982,0.110343233,-0.1042649,-0.0712873861,-0.0270117633,-0.703694463,-0.316549748,0.0178855453,0.328457057,0.8321076,-1.29301691,0.242661029,0.143706575,0.533771455,-1.07930446,-0.5328006,-0.665549338,0.514348745,0.502321959,-0.100137316,-0.172576755,-0.378632367,-0.3609091,1.165857,0.620364368,0.7722997,0.307883352,2.04798913,1.18549132,0.727704167,0.114120685,-0.332841277,-0.3285899,0.346524149,0.0383811854,-0.8774324,-0.544377,-0.416757852,-1.13514864,-0.00404994655,0.282837749,0.356749564,0.7252409,0.02722898,1.12555158,1.22311449,0.3119104,0.116645791,0.021138886,0.263884574,0.324082047,-0.841662645,-1.25338256,-0.9435901,0.6897487,-0.126494125,-0.6769361,0.8130196,0.6910131,-0.558297932,0.8114298,-0.111981072,-0.0146073615,0.240477189,-0.6553668,0.729957342,-0.847445369,-0.198651552,-0.717132568,0.614979,0.144654542,0.1444991,0.242906913,-0.7300346,0.0620020851,0.351854742,1.07594037,-1.08530366,1.74772382,0.8733812,-0.7203826,-0.2061269,-0.460949928,1.19443,0.704818249,-0.154190376,-0.627276838,-0.234604254,0.803039253,-0.377958536,-0.305906355,0.942457557,0.569371343,-0.9132102,0.04319275,-0.04207377,-0.338533,-1.24327517,-0.456642449,-0.737678945,0.5974443,-0.325286359,0.531286,-0.473912776,-0.4322775,-0.0713828057,0.204430237,0.778165758,0.289842576,-0.1960214,0.08117134,-0.8581969,0.394207269,-0.662239432,-0.658949554,-0.148543835,-0.5603818,0.151173413,0.440701872,0.352622122,0.3515155,0.625749469,0.185679168,0.707481563,-0.118703045,0.006612077,-0.09447305,-0.2514776,0.28273046,-0.9382561,-0.7391999,0.688477,0.4725782,0.595318437,0.285521924,0.3050734,0.388078749,-0.7024875,0.32032758,-0.0194983464,0.670612037,-0.268803716,0.420906335,-0.1382372,0.347823769,-0.6970052,-0.54836607,-0.00245735073,0.9225715,-0.328214556,-0.4910942,0.790127456,-0.402145058,-2.42342212E-05,0.453148931,-0.853421152,0.7440921,0.886666834,0.9148742,0.5086056,0.379243821,-0.6519931,0.541224,0.007011128,-0.1036171,0.387339,-0.6363918,0.341669053,0.341567725,0.06560229],[0.432104856,-0.6486892,0.6552953,-0.560375631,0.676526666,-0.434461564,-0.8377017,-0.9139504,-0.766620636,-0.563007653,-0.125987545,-0.492016643,-0.0553463474,-0.590576053,0.7269916,-0.58898133,0.1425607,0.0374274179,0.04702512,0.0921755955,0.478036344,0.551498055,-0.163927451,-0.783048,0.7084425,0.367346734,0.891250551,-0.499316961,-0.772886932,-0.9617841,-0.660825431,-0.0911065862,0.714603245,0.0711834356,0.122712433,-0.8278221,-0.780568838,-0.784171462,0.175067827,-0.6440808,-0.8320939,0.7304973,0.646938443,-0.06363238,-0.5759779,-0.202777892,0.398552,-0.46953845,0.24595885,-0.712558568,-0.627041161,0.2548943,-0.453889459,-0.740419447,0.584385455,0.910610735,0.576388061,0.444966853,-0.268504024,-0.5986355,-0.277412772,0.689943433,0.867972255,-0.7631496,-0.803366,0.9803581,-0.182461,-0.9642501,0.319232851,0.5705048,-0.7117264,-0.004074982,0.8615943,-0.2097603,0.05966334,0.726387858,0.866070032,0.938381553,0.857028365,-0.07230645,0.9356387,0.426245421,0.293166637,1.07013321,0.691769063,0.18023923,-0.546297848,0.36469534,0.3077143,0.336673021,-0.366987824,-0.3258441,0.4223588,-0.100903444,0.5942521,-0.677919865,0.9293409,0.5188696,-0.278585345,-0.578813732,0.9380952,0.4165993,0.17026031,0.788808,1.01089931,0.335173935,0.468489766,0.8722278,0.196972564,0.857705653,-0.8108876,0.655013,0.7591488,0.9190773,-0.468949974,0.324802816,-0.403485358,0.9771332,-0.4727453,0.183496326,0.647023559,0.5939691,-0.2156305,-0.7657227,0.0192413647,0.7976443,0.601049542,0.0469539128,0.3462619,-0.14187555,0.906050861,-0.484344542,0.3672913,0.5801383,0.08473436,-0.3425259,-0.7022653,0.699893236,1.08699989,-0.4763178,0.808976769,-0.195361272,-0.665209532,0.561140835,0.109290712,0.0144740408,0.0077075325,0.626906157,-0.565507352,-0.735439241,0.8611771,-0.891164958,-0.070969,0.512554646,-0.201278284,-0.480125248,-0.347438335,-0.0514456,-0.245944843,-0.639284551,0.7277136,-0.678098559,-0.4066241,-0.504102,-0.813325047,0.6845461,-0.6195025,-0.819773257,-0.08379544,0.900684237,0.0330518745,-0.09138833,0.9599944,-0.887645245,0.44171375,0.0704779848,0.336322755,0.3197697,0.109407611,0.959176362,-0.311600238,1.01845253,-0.377319872,-0.0358778127,0.0221960414,0.874527454,0.5222137,0.8248955,-0.181182444,-0.388681144,0.97920686,0.389343053,-0.14507781,0.644151747,-0.277416885,0.4181755,-0.9861595,0.7550795,0.43689388,0.5304706,-0.276300043,-0.128872886,-0.185218975,-0.421665132,0.2839153,-0.0526651628,-0.900704443,-0.142672688,-0.883955,0.7413104,0.368910283,0.472499043,0.8369815,-0.130387083,0.7720491,0.7443752,0.7110996,0.674485862,0.650889754,-0.7167348,-0.8184314,-0.434024,0.4427952,-0.6988009,0.917321444,0.6137841,-0.91955626,-0.7024467,0.358002722,-0.977846861,0.03685871,0.5520269,0.843794763,0.5847697,0.251121372,0.8264122,0.220135152,-0.934354365,0.67202276,0.9847244,0.789620459,-0.28645277,0.724639833,0.0452564359,0.460188627,-0.4316667,0.5102055,-0.941184938,1.0894419,0.00119260594,0.6820453,-0.600711465,-0.6956899,0.21095252,0.377240658,-0.769657],[0.461456954,-0.472964168,-0.356836438,0.6637171,-0.124948375,0.779280543,0.48639226,-0.939810038,-0.3304162,0.665525258,0.5695162,-0.702479839,0.5852765,0.897141159,-0.480638653,0.6550883,0.9242266,0.808053732,-0.0545740761,1.1863693,-0.0804408044,-0.707407951,-0.017314449,0.586948037,-0.831744432,0.34895882,-0.7571364,-0.6704974,-0.732412636,-0.5473189,0.222233921,0.118052594,-0.770750165,-0.240739226,-0.646438241,0.08314968,0.317944318,0.708337367,0.211105138,0.8934466,0.14889589,0.525265038,-0.553341568,0.308160067,-0.0182408467,0.04139235,-0.369466454,-1.076586,-0.414949268,-0.91039294,-1.35798144,-0.828418732,-0.6049652,0.9606144,0.6991483,0.270192862,0.236022681,0.446945727,0.793645263,-0.07378988,0.72274214,0.236462578,0.5195746,-0.872228444,-0.665026367,-0.15828447,-0.8745242,-0.364970922,0.515425742,0.691196442,-0.8850526,0.960053,-0.569443762,-0.54415977,-0.839830458,0.135060489,0.94693923,0.157046676,-0.55132854,-0.0155362748,0.355339617,-1.08637464,0.611917734,-0.06461695,-0.8445659,-0.8544068,0.874867,0.145795867,0.399356484,-0.384735644,0.422956735,-0.9574584,-0.3467318,-0.667637646,-0.689919353,-0.8952978,0.569055259,-0.155509487,1.38837576,0.181463644,0.3380448,1.04243338,-0.6396713,-0.5555823,0.839352,-0.98117274,-1.26082373,-0.281577736,0.432201564,-0.650395632,-0.135863155,0.00453814259,-0.0488529652,-0.332017362,0.443993181,-0.149323881,0.6203189,0.369770259,0.424393564,0.489923835,0.817415357,0.963118,0.469299644,-0.413927376,-0.05794348,-0.650082052,0.8601861,-0.389657468,1.09470916,-0.7423936,-0.20909752,0.3044245,1.21539271,0.488729984,0.941993952,0.356490254,1.69800985,1.4094255,-0.5363228,0.870059967,-0.332679421,0.168742537,0.00253837346,0.654573858,-0.9499711,-0.419440627,0.3291578,0.6097479,-0.197799578,0.345181376,-0.290465534,-1.13640261,-0.42125687,0.560178,-0.06559164,0.3238164,-0.12667425,-0.928648353,0.8397109,0.664752364,0.0466555543,1.10701215,-0.8563203,-0.306056678,0.328680873,0.635978043,-0.788671851,-1.3652786,-0.00191380014,1.17621446,0.37124902,0.672296643,0.07384674,1.07233083,0.3859312,0.408551157,0.253270566,0.8125829,-0.732110739,-1.19175649,-0.100040406,1.040416,0.6406162,-0.455851436,0.373947263,0.300686538,0.233688459,-0.7238163,0.09975133,-0.7818485,-0.34547013,0.6241831,0.446356177,-0.27188164,0.0523485057,-0.496884972,0.422513217,0.189305514,-0.7976143,-0.541578352,0.9623137,-0.0482525229,-0.227666035,0.43650046,0.978479266,-0.118536726,0.590476,-0.2601095,-0.517852545,0.044818,-0.9025391,0.3286035,0.7858152,0.516455948,0.32835,0.3693826,-0.116644226,1.11674142,1.18470979,-0.83707124,-0.3979413,-0.7586864,-0.1567105,-0.314797819,0.2284682,0.5956638,-0.353250355,-0.6046562,0.0303874426,-0.2773163,0.951302946,-1.00896907,0.4548133,0.761124849,-0.9475914,0.6392808,0.06274277,-0.492890984,-0.450544626,-0.303861529,0.6445364,-0.708441138,1.0745616,0.8861145,-0.8924275,0.328817576,0.725206435,0.8549062,0.5244672,-1.03570867,-1.15700614,0.7627052,-0.0148438765,-0.0697280839,1.12883091,0.6342179],[-0.9240074,-0.7039952,0.6462714,-0.697216153,-0.6709436,-0.180631623,0.6187182,0.687286854,0.6037932,-0.959359944,0.7092918,0.954553366,0.3708137,0.207429,0.8894093,0.8221471,0.124386638,0.6684926,-0.9070174,-0.9917718,-0.6813356,0.205018386,-0.925401568,0.832106054,0.637960136,-0.265185028,-0.25427568,0.08419558,-0.4155257,-0.8388658,0.00445333449,0.137429789,0.9647126,-0.168976679,0.7493789,-0.0625263453,0.232792526,-0.611439466,-0.6905436,0.175355569,0.126188412,-0.908226132,-0.8004296,-0.558601856,0.5873567,0.7962157,-0.5158259,-0.583927751,-0.9774611,-0.4988731,-0.0561257154,0.7641226,-0.864880145,0.7975663,-0.0283900779,-0.122591615,-0.789488256,0.9511972,-0.460309923,0.6537456,-0.215090722,-0.0306295268,0.4216867,0.7326079,0.218853787,-0.466360062,-0.986453652,-0.293982923,0.507773459,0.0445470624,-0.104041651,-0.4034053,0.201140881,0.258542746,0.332906932,-0.7949373,-0.295854479,0.7089741,-0.902003467,0.8842491,-0.836936951,-0.6965335,0.2929817,-0.831058145,0.3604213,0.5523764,0.324101657,-1.06706178,0.344867945,-0.238084778,-0.568896055,0.0424800143,0.809966564,-0.5324983,-0.5653272,-1.07234991,0.343094617,-0.0302263964,-0.168362364,-0.224615842,0.984078348,0.8873248,0.243655488,0.3183752,0.241991788,-1.21658814,-0.1252296,-0.02647881,-0.6415945,-0.185736522,-0.9513501,-0.383588552,0.288888574,-0.9531708,-0.123932548,-1.19120693,0.4620546,-0.21027039,0.86728245,-0.729449332,0.210529238,1.052252,0.3878206,-0.177105352,-0.153154865,1.298512,0.515937865,-0.00289046,-0.664619,-0.1606199,-0.1801883,0.3948565,-0.553730845,-0.246482357,-0.9714617,-0.5069696,0.3505348,1.18246984,0.106226154,0.58210963,-0.9048524,-0.7009427,0.7163851,-0.4994353,-0.7635698,-0.9038787,0.4233232,0.3717177,0.153670922,-0.299139977,-0.6709119,-0.8453793,-0.102064148,-0.08106822,0.7761002,0.877148449,-0.682299,-0.859814,-0.5626242,0.553683937,0.3022101,-1.06880045,-0.3734824,0.8093792,0.421735,-0.711218357,0.9483902,0.119259484,-0.7663943,-0.360595077,-0.239437744,1.01542389,-0.567769468,-0.441798061,0.946901262,0.0568310544,-0.6825583,0.2039006,-0.0398602858,-0.428196937,-0.47741285,0.586900949,0.5604833,0.93372196,-0.08163547,0.398103863,-0.0118563,0.801758945,-0.190681651,-1.232364,-0.8225065,-0.0719740242,0.313708723,0.102992326,-0.81565547,-0.388849348,-0.9449559,-0.471093833,-0.0565698743,0.8768414,-0.782016456,-0.388050318,-0.3340046,-0.7622234,0.6884624,-0.5759729,0.756059349,-0.707510352,-0.07292764,-0.12903291,0.7376312,0.158867,0.5016525,-0.9184011,0.308961183,0.7761541,-0.30653,-0.370808065,-0.6965916,-0.554281056,0.4750916,-1.206264,0.293761551,-0.605866969,-0.306196272,-0.854310334,-0.2974774,0.356455743,-0.480002,0.36781022,-0.08331602,0.703509867,-0.801359236,-0.0254960619,-0.7806943,0.6431579,-0.08469314,0.170418367,-0.931261063,-0.5838914,0.48806572,-0.302280843,-0.6282204,-0.853372633,-0.620844364,-0.354796618,0.316763639,0.239195973,1.01893544,-0.684036553,0.768076241,0.568159,-0.8433311,-1.08957374,-0.9972449,-0.9344311],[-0.118157856,-0.9272641,0.543200433,0.6088653,0.759768,-0.37479946,0.8021676,0.763186932,0.9587722,-0.836886942,0.237267748,-0.511511743,0.859257638,0.543077052,-0.275900453,0.399329782,-0.551380336,0.8391156,-0.107604757,0.09534263,0.797718048,0.5385111,-0.8728372,0.8409456,-0.414080769,0.534429848,-0.009113856,-1.02688086,0.4893369,0.479016662,0.0895591,0.8155414,-0.172090173,-0.833894849,-0.160078481,-0.143562853,0.544247746,-0.5759105,-0.249991819,-0.233656421,-0.2998895,-0.264193118,-0.8499086,-1.00090086,0.502592146,-0.04948995,0.3557398,-0.6743976,0.486003846,-0.5991892,0.0508134477,-0.77133584,-0.0482996367,-0.0985294655,-0.5404818,0.4104211,0.602811933,0.7175393,0.03331444,-0.677117646,0.2753137,0.7528024,-0.8656838,-0.4310649,-0.323442668,0.275626451,0.482631952,0.6473523,-0.330923021,0.928647637,0.775786042,0.898861647,0.17216818,-0.6372583,-0.7167562,-0.177735224,0.357652366,-0.6605416,-0.667636,0.582417965,-0.9883944,0.07816822,-0.574361563,-0.129598439,-0.732043862,0.09830625,-0.126423642,-1.24780011,0.8339432,0.4494272,0.11648073,-1.30309057,0.599143147,-0.690340638,0.150017381,-0.2834127,-0.434225529,0.384685963,-0.1293454,-0.9115541,0.533784151,0.616797745,0.03807479,0.5976398,-0.28377685,0.159851685,-0.33357814,-0.5598743,-0.413140863,0.428568542,0.8144113,0.1992538,0.005504259,-0.035352312,-0.8070095,-0.685897648,0.349476844,-0.125905871,-0.817991853,0.504968166,-0.7835519,0.2495455,0.5350895,0.074975,-0.4325837,0.8268773,-0.5059249,-0.244111776,-0.2755075,-0.06307009,-0.893106461,0.7830973,-0.09116698,-1.1538403,-0.9595523,-0.744624734,0.364870846,-0.581043541,-0.5785842,-0.226727709,-0.934314668,-0.766416132,0.668354332,-0.402432263,0.6444452,0.844301462,-0.280145675,-0.815714359,-1.00141108,0.1868612,0.6028624,0.5320382,0.3142898,0.8649207,1.06635559,-0.9175941,0.83716315,-0.49811244,0.22028771,-0.0329930037,-0.369756967,-0.832991838,0.8425188,0.3726891,-0.202874839,-0.9859682,-0.8226778,0.244209,-0.118235692,0.9082577,-0.226483986,0.177020922,-0.5922679,-0.008733175,0.107091486,-0.820429444,-0.9295495,0.244906738,0.364082,-0.117954046,-0.06976092,-0.8889611,-0.132428125,0.5962798,0.623460352,-0.413484544,-0.611337543,0.114246793,-1.10116315,-0.94969964,-0.4873027,-0.0544000678,0.2126016,0.5336325,-0.7585195,0.8554678,-0.6700645,0.9312406,0.175572827,0.3475676,0.515482,0.394695,0.08813753,-1.09308422,-0.672910333,-0.45617193,-0.009766003,-0.9699462,-0.673854947,0.58091414,0.8431487,-0.6672698,-0.09866064,-0.5266432,0.900555,-0.462032527,0.4134493,-0.819651663,0.739319861,-0.806818843,0.7453338,0.19387272,0.198068976,-0.1919841,0.4328961,0.9346757,0.934673,