{"Descriptions":[{"width":28,"height":28,"channels":1,"filters":0,"kernelSize":0,"stride":0,"padding":0,"activation":0,"hiddens":0,"outputs":0,"activationHidden":0,"layerType":0},{"width":0,"height":0,"channels":0,"filters":6,"kernelSize":5,"stride":1,"padding":0,"activation":0,"hiddens":0,"outputs":0,"activationHidden":0,"layerType":1},{"width":0,"height":0,"channels":0,"filters":0,"kernelSize":2,"stride":2,"padding":0,"activation":0,"hiddens":0,"outputs":0,"activationHidden":0,"layerType":2},{"width":0,"height":0,"channels":0,"filters":16,"kernelSize":5,"stride":1,"padding":0,"activation":0,"hiddens":0,"outputs":0,"activationHidden":0,"layerType":1},{"width":0,"height":0,"channels":0,"filters":0,"kernelSize":2,"stride":2,"padding":0,"activation":0,"hiddens":0,"outputs":0,"activationHidden":0,"layerType":2},{"width":0,"height":0,"channels":0,"filters":0,"kernelSize":0,"stride":0,"padding":0,"activation":1,"hiddens":100,"outputs":10,"activationHidden":1,"layerType":3}],"Kernels":[[[{"rows":5,"cols":5,"data":[[0.685200632,0.5869448,1.21410036,1.33491385,1.66980982],[-0.09907474,-0.334881276,-0.0173020661,0.491887629,-0.9584709],[0.356844038,-0.0140579883,-0.358449638,-1.12356126,-0.275593519],[0.161985666,-0.151939914,-0.265147746,-0.490303636,-0.150424734],[-0.227187753,-0.15690212,-0.451712936,-0.0521439537,-0.029350996]]}],[{"rows":5,"cols":5,"data":[[-0.881223142,-0.4636052,0.856206834,0.2289175,-0.552040756],[0.487277836,-0.08193791,0.307296157,-0.4473659,-0.83167547],[0.012941597,0.352999657,0.133262128,0.376840562,0.8578025],[1.35940921,0.6352484,1.050335,0.9915435,0.770185649],[0.0949852,-0.3257789,0.50935185,-1.33570147,-0.6883684]]}],[{"rows":5,"cols":5,"data":[[0.1819482,-0.2328606,-0.9510072,-0.573101938,-0.165937588],[-0.707018,-1.00876582,-0.685462654,-0.827545,1.06983984],[-0.368658066,-0.275576174,0.9725354,-0.100587875,0.0281601679],[0.0579556972,0.777265966,1.17512476,0.9340063,1.26392269],[-0.7967464,0.767033935,0.472164631,-0.08836497,0.375115544]]}],[{"rows":5,"cols":5,"data":[[0.3699373,-0.360004932,-0.186180949,0.5471059,0.366803885],[0.0172704291,-0.846489966,-0.000124003,-0.88456583,-0.6864176],[-0.411612928,-0.458593279,-0.7867891,0.5788311,0.2649726],[-0.197865009,-0.197199076,-0.5503282,0.208025262,-0.435482979],[-0.175811678,-0.005060122,-0.009910358,0.215921536,-0.300819963]]}],[{"rows":5,"cols":5,"data":[[0.9712875,-0.480976045,-1.10695314,-0.6772157,-0.4372942],[-0.790374637,0.5510116,0.252791017,0.532345951,0.0576519519],[0.671829,0.4366619,-0.157429352,-0.5822149,-0.638637841],[-0.847604036,0.7709317,0.519132257,0.397000343,0.372025818],[1.126644,0.734579265,1.79551971,1.0897665,-0.156008661]]}],[{"rows":5,"cols":5,"data":[[0.110897586,0.03227571,-0.853924453,-0.6562912,-0.957094133],[-0.877499342,0.6824468,0.4364999,-0.22657831,-0.640090466],[-0.384500623,-0.8784006,0.101597711,-0.9090639,-0.0292205755],[0.136478722,0.10030584,-0.378228247,-0.308350652,-0.8572932],[1.12310791,-0.5732763,-0.863464,0.169716239,-0.5137423]]}]],[[{"rows":5,"cols":5,"data":[[0.796093941,-1.31697106,0.257769376,-1.15493548,0.68495214],[-0.118539244,-0.490480423,-0.988018334,0.181073412,0.920102954],[0.224206954,0.47519052,-0.0838972,0.6494891,0.163820311],[0.7537722,0.6256188,1.00965619,-0.43348825,0.207438916],[0.6446841,-0.423539042,0.3411291,0.039788764,-0.6240068]]},{"rows":5,"cols":5,"data":[[-0.150766909,-0.8300608,-0.4065835,0.6729978,0.578358233],[-0.0978945941,-0.340726763,-0.3691579,1.11926341,0.152969941],[-1.12824476,0.826682866,0.0440041535,1.641628,1.10207367],[-0.832294464,0.73369354,0.5064117,0.819727838,-1.18338227],[0.692803144,-1.34658575,-0.5805882,-0.325429022,-1.62811112]]},{"rows":5,"cols":5,"data":[[-1.29783738,-1.24048007,1.04517555,1.277847,-0.997492433],[0.468222439,0.4827275,0.9577189,-0.402103573,-1.61029541],[-0.730357,0.701512456,0.187314346,-1.36151075,-1.129771],[-0.951274335,-1.21646309,-0.5416145,-0.3404987,-0.5415512],[0.8310816,-1.3526355,-1.91775393,-1.64301586,-1.40305257]]},{"rows":5,"cols":5,"data":[[0.9037862,-0.842718363,-0.774453461,-0.0346418768,0.234103084],[-0.5337578,0.109989665,0.9248503,0.8769305,-0.135118529],[-0.658159256,-0.189383179,0.73494035,0.6131393,-0.962766051],[-0.3858009,-0.6446152,0.389634848,0.404367566,0.1076902],[-0.267360479,-0.0846243,0.214609519,-0.494224846,0.117080033]]},{"rows":5,"cols":5,"data":[[0.176320508,-0.2706838,-0.5515524,-0.145007834,-0.25760746],[0.179075271,-0.51730597,0.445972562,-0.7195156,-0.0837819],[-0.0713493451,0.124270089,-0.796854854,-0.646116853,1.09553909],[-0.481708646,0.237749785,-0.1609454,-0.35144937,0.8327641],[0.533402562,0.24662526,0.6482209,-0.5446489,-0.07258908]]},{"rows":5,"cols":5,"data":[[0.321830243,0.433978915,-0.312779337,-0.6456249,-0.725119948],[-0.208500564,0.464451253,0.8438309,-0.643327832,0.2622723],[0.5547638,-0.7031218,-0.3651242,-0.178588286,0.5362389],[-1.00555,0.302917272,-0.314938128,-0.333984017,0.600403845],[0.8674179,0.7568434,0.8083608,0.6980971,0.407953769]]}],[{"rows":5,"cols":5,"data":[[-1.03096807,-0.7132739,-0.194891617,-1.71363592,-0.993985832],[-0.0264017843,-1.19888413,-1.600055,-0.5019819,-0.04485326],[-0.549223959,0.378533632,-0.868917644,-1.73418558,0.101162575],[0.709763348,0.7404957,0.601906955,1.94460833,0.4372315],[-1.01074851,1.0300405,0.7812458,1.88329673,0.8996039]]},{"rows":5,"cols":5,"data":[[0.151699588,-0.5327692,-0.15618974,0.5016137,-0.735790253],[0.3251539,0.9988024,0.3025622,-0.44853124,-0.0342517272],[-0.63001734,0.56637156,0.8964299,2.22113276,0.897635162],[-0.967758536,-0.954900861,0.7963018,0.5417568,0.5455183],[-0.730765,-1.29764223,-2.04750133,-2.43084264,-2.13941669]]},{"rows":5,"cols":5,"data":[[0.7797845,0.421176,0.4357131,0.9025342,-0.132509276],[-0.534427166,0.5768309,0.643638551,-2.1939652,-0.2807538],[-0.8621656,-0.3889127,-0.7627428,-0.168518618,1.34796059],[-1.63392007,-1.79181659,-2.06343985,0.25157693,-0.397156149],[0.283493757,-0.519255161,-1.192896,-1.63932312,0.4340045]]},{"rows":5,"cols":5,"data":[[-1.22997928,-0.257913,-0.4555722,-0.9901856,-0.5853808],[0.3236181,-1.30578589,-0.9566076,-0.454576463,-0.002154611],[-0.198803335,0.697667658,0.03058345,0.08659679,0.0457932465],[-0.441297,0.5956336,-0.157466844,-0.6878983,-0.32755664],[-0.549444735,-0.6596446,-0.3135113,-0.896378636,0.210304141]]},{"rows":5,"cols":5,"data":[[1.072025,0.206201717,0.481600225,-1.6266458,-2.10311937],[-0.282268137,0.0102052083,0.24658154,-0.259088248,-0.00558189768],[-0.3944321,-0.6851841,0.8337605,-0.2032724,0.847864],[-0.03809068,-0.106634811,-0.133487538,0.1560724,-0.0695708841],[0.271665,-0.205655172,-1.252522,-1.3670795,-1.31388628]]},{"rows":5,"cols":5,"data":[[0.2816824,-0.496987015,-0.14047417,0.802008569,-0.795702457],[-0.483386278,-0.866729438,-0.0991200656,0.2052104,0.6599233],[0.5005095,-0.275597841,-0.8693938,-0.182742327,-0.7576208],[-0.867874,-0.5182471,0.8685503,-0.104072131,-0.6191265],[-0.7104429,-0.6115857,-0.764997363,-0.214667648,0.364433765]]}],[{"rows":5,"cols":5,"data":[[0.553615332,0.648932934,0.617218435,0.5083452,0.3132165],[1.23842955,1.99962509,1.37354851,0.121011212,0.214057654],[0.05617418,0.9625343,0.86400187,0.5117165,-1.03247225],[-0.6166324,-0.171255857,-0.9223974,-0.4104499,-0.7832363],[-0.0482976362,-0.4367893,-1.08572018,-0.0243951436,0.0746630356]]},{"rows":5,"cols":5,"data":[[2.4873383,1.36566114,0.764268339,1.84308982,1.34480238],[0.410553873,-1.01310861,-1.43447268,-0.287713021,-0.82215786],[-0.07234301,-1.37643826,-0.28644383,-1.26440394,0.5894067],[0.5392013,-0.0739665255,-1.50247037,0.333423465,0.7359023],[-1.25453055,-0.7233214,-1.2425338,-0.9666858,0.6776681]]},{"rows":5,"cols":5,"data":[[-0.263620079,0.6453072,0.6591005,0.2487829,0.201727092],[-1.98992062,-0.7731843,-1.03866756,-1.43398643,-1.108506],[0.6868572,-0.7134858,-0.07215612,-0.179160327,1.791042],[0.3363588,-0.258223653,-0.4147085,0.156317323,1.00265694],[0.205430612,0.11295893,-1.33766437,-0.5649827,-1.61021888]]},{"rows":5,"cols":5,"data":[[-0.1432502,0.06877066,0.7231893,0.3634063,-0.549294531],[-0.2270948,-0.2590805,0.335527718,0.8625481,-0.276958048],[-0.00408514775,0.197685882,0.21914053,0.285411656,0.781522155],[-0.03991612,-1.74806881,0.471794158,0.9030467,0.593233347],[-0.395749122,0.404328167,-0.756889641,-0.399994,-0.757465363]]},{"rows":5,"cols":5,"data":[[0.111805692,-0.702550232,0.82901907,-0.2699881,-0.358383745],[-0.09207628,-0.0438187346,-0.617118359,-1.71338618,-1.08164024],[-0.246063873,-0.736763,-0.513290644,0.04871132,0.6642408],[-0.388208956,0.0315239467,-1.59212053,-0.493141323,-0.986783266],[-0.8408778,-0.92456454,0.497553378,-0.3915042,0.849528]]},{"rows":5,"cols":5,"data":[[0.5598372,0.7855591,-0.678391039,-0.785826564,0.456168622],[0.1281618,-0.413939655,-0.455607235,-0.1742723,0.4147328],[-0.256584942,-0.240530446,1.02252829,0.437283546,0.3605917],[0.624518335,-0.688761055,0.261569738,0.384241968,0.667161763],[0.146257132,-0.423815936,1.07547891,1.0915339,-0.291361]]}],[{"rows":5,"cols":5,"data":[[-0.03889726,0.47621125,0.0391417332,0.958880067,0.9794873],[-0.75004673,-0.8731676,-1.08598542,-1.27218783,-0.7437988],[0.981996,0.3213219,-0.631512046,-1.12001956,-1.0918169],[1.31887782,1.4961642,0.256817073,-1.18217373,-1.06513441],[-0.4342551,1.13531113,-0.254265428,0.43966502,-0.7130043]]},{"rows":5,"cols":5,"data":[[-2.17967844,-2.39957666,-3.53203273,-2.20660257,-1.69447732],[0.605968237,1.35364425,0.008606581,0.30979073,-0.987380743],[0.16250293,0.3551122,-0.4383807,0.135113209,-0.3399292],[0.5689061,0.4401522,0.267603636,-0.159449458,0.6444782],[-0.918192148,0.09331161,-0.7372808,-0.315114379,-0.083103]]},{"rows":5,"cols":5,"data":[[-1.37463212,-1.20396292,-0.9983483,-1.67104578,-2.096826],[0.393153459,1.022378,1.87231863,1.6952467,0.189453617],[0.593637347,-0.180334553,0.499023169,0.216270447,-0.526132643],[0.246864557,-0.391270846,0.05541707,-0.144715428,0.0517572947],[-0.462451279,-0.140792578,0.239382744,0.3243844,-0.879619837]]},{"rows":5,"cols":5,"data":[[-1.5212245,-0.9237206,-1.21747661,-0.8600166,-0.9874382],[-1.63686883,-1.18292558,-1.25486028,-0.474520534,-0.0338090472],[-0.611994445,-1.0917927,0.357288152,-0.405503124,-0.704422235],[-0.768744767,-0.5359801,0.235531718,0.07920413,-0.6717291],[-0.341549337,-1.38450444,-0.184534326,-0.2160871,0.258082449]]},{"rows":5,"cols":5,"data":[[0.9731123,0.05470704,0.190278873,-0.5600319,-1.57722044],[1.19508493,1.12036765,1.95955873,1.954167,-0.9065179],[-0.6749999,-0.645629048,0.222458258,0.881917059,1.03627348],[0.283569455,-0.3169505,0.138961285,0.5646473,1.10744488],[0.401331127,-0.287204683,-1.69949949,-0.282602042,-1.14970493]]},{"rows":5,"cols":5,"data":[[0.04304739,-0.7716821,-0.399922282,0.00142308476,0.795504868],[-0.6948583,0.5722017,0.19701764,-0.598798335,-0.472532243],[-0.3447719,-0.125737324,0.421266228,0.0716933757,1.27104533],[0.300922722,-0.77247715,1.11031747,0.162076175,0.2307999],[-0.7896104,0.713704944,0.9378769,1.02898431,0.382077038]]}],[{"rows":5,"cols":5,"data":[[-0.546149433,-0.189334556,-1.15577221,-0.0726791546,-0.192517534],[-0.417112857,0.04987045,-1.40647292,1.34735107,0.98980397],[0.5602527,-0.887147963,-0.6718765,1.579424,0.756963968],[-1.03363335,-0.21955508,0.2811247,0.700138032,-0.639496744],[-1.38929248,-0.46484834,1.02824807,-0.4037382,-0.0254432745]]},{"rows":5,"cols":5,"data":[[0.540422857,-1.26241887,0.8035366,0.642646968,-0.7654324],[-0.459393,-1.83467662,0.5016721,1.49000418,-0.854246],[-1.36560035,-0.774798155,1.26023591,0.164067745,0.298141778],[-1.56944561,0.0365797654,1.78843,0.07517058,-1.81805539],[-1.04951692,1.710757,1.31465912,0.5580956,-0.595213652]]},{"rows":5,"cols":5,"data":[[-1.03596067,0.668313742,1.023556,-0.4741375,-1.25988758],[-0.345618248,1.18403614,0.8299416,-0.5609132,-1.588166],[0.535092533,1.62059355,0.9790716,-0.9822397,-2.44861984],[1.00200307,0.54412967,-0.628547966,-1.74868667,-1.67215729],[2.1748476,0.4767228,-1.0911324,-0.80734843,-0.31097877]]},{"rows":5,"cols":5,"data":[[-0.1088556,1.36023855,0.388465375,-0.77885735,-0.23534745],[-0.9011296,0.770674348,1.36678469,-0.5814852,0.340845555],[-0.2898915,1.18354559,0.206391051,-0.6248965,0.04062313],[1.26525092,0.801987469,0.6756492,0.2504378,-1.15735483],[0.279030979,1.36208916,-0.7666425,-0.150113717,-0.329863042]]},{"rows":5,"cols":5,"data":[[0.6468604,-1.49198544,0.540728867,0.365445465,-0.06277461],[-0.868541062,-1.504879,-0.8061937,-0.805582166,-1.32744634],[-1.50197566,-0.9080774,-0.515935242,-1.1695385,-1.51991355],[-1.29623771,-1.11677742,0.7347232,1.17989218,0.1998765],[-0.4674355,0.3077136,-0.0301236361,0.6026645,-0.3012797]]},{"rows":5,"cols":5,"data":[[0.08680184,0.123126388,0.175920725,-0.104936458,-0.0809989],[0.5740027,0.498100519,0.610035658,-0.05135436,0.248438641],[0.7255707,0.5797187,0.314687341,-0.536992252,-0.167987823],[0.882546663,-0.08038753,-0.3379693,-0.9137264,0.625932932],[-0.134800866,-0.911732852,-0.0518290438,-0.28060782,0.675264835]]}],[{"rows":5,"cols":5,"data":[[0.360213876,-1.06217217,-1.11993408,0.157744661,-0.6272353],[1.11599839,1.00686991,-0.713583,0.2242676,-0.85415107],[0.5854846,0.102711223,-0.024116246,0.17345801,-0.3083103],[-0.4028658,-0.124446459,-0.027045669,-0.235148177,-0.360946536],[-0.166631564,0.0850413144,-0.6885002,-0.209928989,0.76232034]]},{"rows":5,"cols":5,"data":[[0.45963943,-0.103381343,-0.5441653,0.493767142,-0.85645014],[-0.2545465,-0.989496946,-0.5427958,-0.0224841647,0.3674542],[0.260354459,0.0273236483,-0.742974758,-0.5650126,0.645839453],[-1.38103867,-0.04303652,-1.27657437,-0.663783848,0.4414902],[-0.625802338,0.2746823,0.110396363,-0.015524555,-0.605659664]]},{"rows":5,"cols":5,"data":[[0.801155865,-0.212721929,-0.782023668,0.919480145,-0.4966293],[-0.7473223,0.3570777,-0.09217061,0.6102787,0.03416276],[-0.123250917,0.209182888,-0.827840149,-0.0209273547,0.18608956],[-0.07474687,-0.9674126,0.501026154,-1.68042743,-0.218192652],[-0.152259231,-0.7104171,-0.977332,-0.718586743,-0.8459144]]},{"rows":5,"cols":5,"data":[[0.310857445,0.0168284345,0.7053198,0.1566111,-0.0316033959],[0.1655373,-0.000851150369,-0.2952535,-0.194195822,-0.531776369],[0.48476997,0.684354246,-0.2163027,-0.516526163,-0.22981739],[0.4063785,-1.04881883,-0.112167612,0.258668482,-0.8615382],[-0.590978146,-0.234152511,-0.134248748,-0.114968538,-0.7626357]]},{"rows":5,"cols":5,"data":[[-0.478472382,0.8407694,0.500771344,-0.946183145,0.319756716],[0.0908082,-0.8458993,0.0550142042,0.09795341,0.0364632159],[0.009168956,0.637963653,-1.181546,-0.776845336,0.6031428],[-1.12350249,-0.5597215,0.241289914,-0.850297,0.47091952],[0.249549568,0.119347088,-0.127241045,-0.246241242,0.406857282]]},{"rows":5,"cols":5,"data":[[0.188087881,0.793677151,0.292909324,-0.193222091,-0.7446117],[-0.4887927,-0.8165416,-0.107782088,-0.06438884,-0.5736725],[0.5035694,0.6714984,-0.350819081,0.104390204,0.426260769],[0.532862,-0.431657344,0.73659426,0.414566,0.7140879],[0.848125,-0.9715335,-0.5639067,0.5244283,-0.8245441]]}],[{"rows":5,"cols":5,"data":[[0.227532625,-0.524816,-1.18979454,-0.298218548,-0.651252031],[0.129331619,-0.801396549,-1.04739535,-1.06137288,-0.524460852],[1.05504751,0.7399252,0.267766863,1.43579662,1.14781976],[0.4816606,0.5178688,2.03994465,1.016163,-0.803547],[-0.80567807,-0.474311084,-0.248412892,-0.471530169,-0.9339612]]},{"rows":5,"cols":5,"data":[[-0.166814074,0.724417567,0.15624845,-0.187910646,0.5413214],[-0.004469168,0.355463266,1.7579025,0.8367538,0.291271031],[-0.121226281,0.7502341,1.19874024,-0.06378704,-0.0542811267],[-1.47025192,-1.51565778,-3.02423239,-2.92721772,-2.22043157],[-0.746332347,-1.416373,-1.04110515,-0.984088838,-0.6759731]]},{"rows":5,"cols":5,"data":[[-0.6660927,-0.417599648,-1.31245947,-0.557165742,0.7600995],[-0.149939239,-0.381188631,0.58930105,0.7731608,1.02524352],[-1.59742415,-1.76496363,0.03473541,-1.24550986,-1.15862072],[-0.844239533,-2.22766733,-1.607449,-0.290434271,1.02276087],[0.45156914,0.7887235,1.50649738,1.85947049,0.5667586]]},{"rows":5,"cols":5,"data":[[-0.114164419,0.0782816038,0.678432941,0.204457253,0.7970664],[-0.369831562,0.06191007,-0.0469158478,-0.5630871,-0.06537397],[-0.844279468,0.6079006,-0.3591474,-0.3563515,-0.259505],[-1.27598083,-0.8522118,-0.193795249,-0.801102757,-0.212859169],[-1.41635156,-1.17336929,0.463315755,-0.154926538,-0.55967927]]},{"rows":5,"cols":5,"data":[[-0.304440379,-0.8765936,-0.6965511,0.101830192,0.8910627],[0.343097538,-0.834055364,0.9455761,1.12058544,-0.6303553],[-1.33271253,-0.590810955,-1.13681746,-0.8319926,-1.20658839],[-0.498150766,0.178223431,-1.45054281,0.1838954,-0.5250789],[0.8046187,1.05154681,0.52448523,-0.438604563,0.0438844524]]},{"rows":5,"cols":5,"data":[[0.0723052,-0.918843,-0.7434133,-0.8155959,-0.0403534956],[-0.340259254,0.822243869,-0.286522865,-0.382316083,-0.3935931],[-0.682461262,-0.4130436,0.875828743,0.216580778,0.231322],[-0.95458734,0.2768181,-0.236317,-0.536166131,-0.766130865],[0.345844567,0.7501076,1.19436634,0.829895139,-0.6629093]]}],[{"rows":5,"cols":5,"data":[[-0.7854492,0.825906,-1.08786893,-1.44815457,-0.469596475],[-0.403116137,0.9714312,-0.397404,0.393987745,-1.89753687],[0.342715979,0.1858382,-0.4164631,-0.639933169,0.9611629],[-1.21798372,-2.09231162,0.9840078,0.5957948,-0.6919835],[-0.3045253,-0.246079028,-0.0464530773,0.188096464,0.478215784]]},{"rows":5,"cols":5,"data":[[0.5014347,-0.6566027,-0.461972177,0.486541539,0.7875726],[0.700928,-1.00385344,-0.854928255,0.216907859,-0.187666461],[-0.07413374,0.756899536,0.23399362,0.6088464,-0.664020956],[0.09284481,-0.6685877,1.51454687,0.840447664,1.03250825],[-0.543096066,2.18163848,1.27252853,-0.346945941,0.4321702]]},{"rows":5,"cols":5,"data":[[0.2113562,0.279947519,-0.8417065,-0.7731538,0.143918619],[-0.18746537,-0.04214601,0.775391161,0.253094167,0.17346482],[-1.70685518,1.46202242,1.79364753,0.134698763,-1.60732949],[0.8537017,1.85074759,0.9586872,-0.8928179,-0.69921577],[0.541714668,-0.378562957,-0.951018035,-1.71580291,-0.4351504]]},{"rows":5,"cols":5,"data":[[0.13998878,0.3609529,-0.023068646,-1.0740124,0.0144603373],[-0.7276557,-1.10908425,0.542677939,1.36273408,0.354391873],[-0.9230499,0.247776285,0.5056359,0.5583253,-0.260814],[1.05719006,1.27996361,0.469243258,0.307847679,0.1476473],[0.709839,-0.487033963,0.256991118,-1.45715988,-1.449855]]},{"rows":5,"cols":5,"data":[[-0.319584966,-0.783112645,0.0330048166,1.32615566,1.77680969],[-0.12570858,-0.6591169,-0.1027679,0.5559919,0.9561148],[-0.359094352,-0.229011267,-0.413107276,-0.8889185,-0.330704957],[0.632758856,-0.22656998,-1.36193311,-0.912747562,-0.37860617],[0.2663299,-1.17445576,-0.6126822,0.5445075,-0.102678113]]},{"rows":5,"cols":5,"data":[[0.2586824,0.5490527,-0.187806875,-0.196790829,-0.7310243],[-0.09141403,0.694656253,0.342962027,-0.325454444,-0.757916033],[-0.972931,0.290972,0.572325349,-0.61444366,-0.148869023],[0.0845854357,0.7866702,0.3130572,-0.0632010251,0.3275511],[-0.110299282,-0.45173353,-0.9938632,-0.8429262,-0.816135049]]}],[{"rows":5,"cols":5,"data":[[0.891223,0.948714,-0.198617071,-0.7829414,0.62055546],[-0.8396673,0.3514469,0.184136316,-0.0368889943,-0.6861461],[-0.9544473,0.9531022,-0.755972147,0.338344127,-0.129894689],[0.569641232,0.426618427,-0.824919164,0.0216335841,0.242206052],[-0.888397157,0.763901651,1.02148414,-0.923037767,0.4474366]]},{"rows":5,"cols":5,"data":[[-0.5502866,-0.5680792,-0.0257766861,-1.12835908,0.5735431],[-0.6544322,0.2253133,-0.4957976,-0.5457504,-0.999029756],[0.0709309354,0.0222066771,0.403964549,-0.169142023,-1.19499016],[-0.647500157,-0.829560459,0.112213761,-0.5445074,0.151334479],[0.06580799,0.598779142,-0.795161545,-0.8721318,0.820381]]},{"rows":5,"cols":5,"data":[[0.0250892974,-1.05260575,-0.331254274,-0.6257953,0.281083167],[-1.20985627,0.5797478,-0.881959558,-0.9449648,-0.5784623],[0.289374024,-0.5984972,0.181763142,0.152204365,-1.00842178],[-0.4217468,0.3557436,0.8278916,0.245600879,1.11516178],[-0.601765633,-1.064643,-0.222652778,-0.358535856,-0.228773415]]},{"rows":5,"cols":5,"data":[[-0.844888,0.0533289,0.714779854,-0.151429117,-0.8516675],[-0.09079716,-0.5947271,-0.204050213,-0.959744632,-0.3140328],[-1.02226007,-0.496160239,0.6881112,-0.09987974,-0.766242266],[0.09370776,-0.5091988,-0.325776279,-0.9192452,-0.5402275],[-0.894028068,-0.245037422,0.7068647,-0.8917882,-0.4932408]]},{"rows":5,"cols":5,"data":[[0.7447074,0.6124026,0.00417326065,-1.092551,0.08780465],[0.128103152,-0.09180261,0.532976568,0.6357851,0.118687563],[0.00500719855,-0.728921056,0.892486155,-0.127486631,1.04096723],[0.2903706,0.431892544,0.213119492,-0.329454482,0.9084164],[-0.7908247,0.428504318,-0.609709859,-0.438144177,-0.257484883]]},{"rows":5,"cols":5,"data":[[0.7283035,0.4120235,0.0378306359,-0.457012057,-0.213895947],[0.359749556,0.164564446,0.6503732,-0.5629828,-0.6750281],[0.103856616,0.06558418,-0.275280237,-0.394154757,0.445829332],[0.0104254251,-0.3092509,0.8383965,0.4778055,0.117194],[-0.009380853,-0.08490102,-0.6559472,-0.7141209,0.268361658]]}],[{"rows":5,"cols":5,"data":[[-0.5570123,0.0539551936,-0.430650383,-0.789810836,-0.7904699],[-0.94228214,-0.09207248,-1.82890224,-0.77862823,0.175221011],[0.0825396,-1.975996,-1.65288675,-1.12684762,-0.9513732],[0.484332085,-0.6999581,-0.181344837,-1.68566763,-0.44642812],[-1.03217411,-0.607481837,-0.6617255,-0.13866739,-0.0286529474]]},{"rows":5,"cols":5,"data":[[-0.06102186,0.5281633,0.744690359,1.31425846,-0.2898667],[-1.39603341,-0.880320132,0.20094125,1.090655,-0.968948543],[-0.06547016,0.180575654,1.33171523,0.152652472,1.20304441],[0.00397076039,-1.19354737,0.8903623,0.758996844,0.978642046],[-0.7964897,-0.520133138,-0.172056347,0.788844943,0.176299259]]},{"rows":5,"cols":5,"data":[[-0.518675447,2.07584858,1.3147167,0.06646086,-0.8939262],[-1.07411,0.377646983,0.546347737,0.734384954,-1.24182],[-0.789548457,-0.6288608,-0.0393514223,0.5746348,-0.433703572],[-0.5154735,0.159311071,-2.39439368,-0.746162653,0.223983064],[-1.405763,-0.105835453,-0.4918355,-1.2984755,-0.4990825]]},{"rows":5,"cols":5,"data":[[1.318097,1.23862636,0.395494759,-0.200441241,0.50413096],[-0.435612172,0.857560933,1.04928827,-0.9944975,-0.309829742],[0.225884244,0.5940567,0.9609908,-1.18730438,-0.27130425],[-0.554544568,1.15375149,-0.0572946854,0.113564536,-0.5476497],[0.282473117,0.302556723,1.03265738,0.5982171,-0.49339515]]},{"rows":5,"cols":5,"data":[[0.0723666251,-0.144189015,1.30030417,0.798272848,-0.7684943],[-0.5908044,-1.3087281,-0.0220151972,1.80405426,-0.0442174263],[-0.7270245,-0.204324991,-0.133019954,2.089031,0.7503956],[0.208339423,-1.06473935,-0.9898811,0.293566853,2.4366076],[0.368463367,-1.58496654,0.193630576,-0.148191273,-0.260046721]]},{"rows":5,"cols":5,"data":[[-0.264176041,-0.109904923,1.01026165,0.107966736,0.690712],[-0.691333354,0.482963264,-0.870543063,-0.442731142,-0.6058173],[-0.387917459,0.3765944,-0.06246418,0.553715,-0.5457797],[-0.47369802,-0.293494523,-0.261802763,-0.106380336,0.2605941],[-0.2630252,-0.7499646,-0.169345453,-0.74336946,0.560723662]]}],[{"rows":5,"cols":5,"data":[[-0.17568323,-0.316803634,0.658463836,1.51951373,0.460844934],[1.36526477,1.05856335,0.205206946,-0.0219523311,-1.499202],[-0.468476355,0.430494517,0.629836261,-0.7684294,-0.7683964],[0.610242248,0.5095996,-0.7807583,-0.566775262,-1.45435727],[-0.892087162,0.05132983,-0.144279227,0.923467755,0.586500168]]},{"rows":5,"cols":5,"data":[[0.5833252,0.9170821,0.8865424,1.6770556,0.469864547],[-0.422088742,-0.4430239,0.6042434,0.450876951,-1.07796419],[0.574821651,0.35727942,-0.732946,-0.143925279,-0.4376074],[-0.2982548,-0.629134834,-1.06220722,0.422337562,0.06917197],[-1.980174,-0.661614835,0.07738837,-1.418495,0.632304]]},{"rows":5,"cols":5,"data":[[1.22853649,1.57865274,1.66398227,-1.06789017,-0.136743382],[1.02137458,0.585081935,0.158178747,-1.24326146,0.787700236],[-0.565552533,-0.55129236,-1.16116059,0.9567887,1.41938865],[-1.740908,-0.7104414,0.5967347,-0.489122182,0.6913],[-0.4801355,-0.419243544,-0.2668836,-0.7360313,-0.7847389]]},{"rows":5,"cols":5,"data":[[0.7085705,0.984883845,1.46653354,0.8814757,0.0318285935],[0.6438936,1.115667,0.490934581,1.1762383,1.31914389],[-0.477224052,-0.5780572,0.8624476,-0.152654722,0.39579156],[0.371471852,0.461430639,0.906811535,1.06573486,1.12051618],[-0.85898906,-1.00917244,0.4148196,1.18058765,0.994518459]]},{"rows":5,"cols":5,"data":[[-0.00329801743,-0.07876677,0.197231665,-0.125932187,-0.545718431],[-0.4494793,-1.07156253,-0.698132336,0.0255788676,-0.6734805],[-0.489236623,-1.39151645,-1.11875677,0.494881123,-0.496494561],[-0.30470857,-0.247118309,-1.2805351,-0.5107897,-1.06539214],[0.123198181,-0.533017,0.0246830322,-0.206449866,-0.8981167]]},{"rows":5,"cols":5,"data":[[0.5239728,0.0768054,0.6818554,-0.107201554,-0.825362],[-0.323863059,0.7550732,0.732775569,0.6892208,-0.861760139],[0.7764129,0.7581815,0.8998419,0.360403776,0.49026224],[-0.7621354,0.388102055,-0.6504948,-1.04010034,-1.00194049],[0.9267149,0.637187,-0.1278254,0.293163657,-0.410587251]]}],[{"rows":5,"cols":5,"data":[[0.005230457,-0.695796669,1.79230332,1.17001092,-0.534109354],[-1.17618823,-0.8332074,1.44854867,1.15854967,-0.6198687],[1.00304174,0.5420626,-0.1514588,-0.122216158,-0.207854286],[0.3693695,-0.07317997,-0.21924448,0.2871101,-0.140191853],[0.5772107,0.445843965,-0.457391351,0.2690301,-1.2605437]]},{"rows":5,"cols":5,"data":[[-0.8795819,-0.543052137,0.6078176,0.650181532,0.4035022],[0.907100558,-0.474086344,-0.236187428,-0.199428141,0.8201988],[-1.84844542,-1.902054,-0.836468,-0.126051173,0.801990151],[0.199225575,-1.65177453,-1.33880854,-1.62479675,-1.57388663],[0.7691943,0.208840936,-0.115951329,-0.397921026,0.08893722]]},{"rows":5,"cols":5,"data":[[-0.07586029,0.625706136,1.06973135,-0.290240556,0.5617191],[-0.475462735,0.754402161,0.75046736,-0.6074465,1.13157451],[-1.41728926,-1.87027061,-1.82542956,-0.834188461,-0.395501971],[-0.113718696,-0.1906963,0.50639087,0.691361368,-0.657806754],[0.6718719,1.14380407,0.4114851,0.487320155,0.199586421]]},{"rows":5,"cols":5,"data":[[0.018841764,0.578725338,0.283066332,1.05893219,0.255770981],[-0.228210837,0.3633746,0.182347253,-0.092940174,1.36805093],[-0.2512972,-0.141895369,0.6599607,0.310634047,1.74503732],[0.10014189,-1.07449031,-1.00846291,0.8124137,0.450148135],[-0.0368916951,-0.8607237,-0.919809639,0.3897598,0.3308972]]},{"rows":5,"cols":5,"data":[[-0.09746264,0.854857,1.15186751,-0.8813633,-0.0405427366],[0.0379328653,-0.881569,-0.348562777,-1.08609545,0.7777469],[0.05721871,-1.08722043,-1.12863231,-0.170674354,-1.2653805],[0.6431867,0.3583059,0.329549074,-0.795106,-1.19681358],[-0.462357253,0.492536217,0.283998132,1.09284818,-0.005963208]]},{"rows":5,"cols":5,"data":[[-0.324770778,0.678765,0.282442629,-0.412338883,0.356395185],[0.189136684,0.365926355,0.420752585,-0.357789,-0.7430996],[0.602678359,-1.06311214,-0.06373295,-0.955082357,0.6331729],[-0.202348918,-0.699560463,0.654836953,0.6798251,-0.9513492],[0.2732429,0.957736135,-0.311826736,0.425873339,-0.113780588]]}],[{"rows":5,"cols":5,"data":[[0.618997931,-0.702877343,-0.07249421,-0.0940796658,0.366152167],[-1.19554234,-0.215978786,-0.4104272,-0.4376435,0.8516727],[-0.8211175,-0.5376301,-0.54987824,-2.17705083,-1.02572632],[-0.28358072,0.242280155,0.219705909,-0.798884,-0.383801043],[0.942503452,-0.2058671,0.841280758,0.340138555,0.6584771]]},{"rows":5,"cols":5,"data":[[0.5783813,-0.2887322,-0.184232309,1.14311409,1.14624393],[-0.2573517,-0.455421358,0.07464317,0.7435803,0.4529412],[-0.5719149,-1.28275859,-0.425807536,1.573661,-0.23031272],[-0.9441168,-1.3308115,-0.05907382,-0.318888456,0.506666],[0.98449403,-0.82749027,-1.23206151,-0.402816534,0.472580165]]},{"rows":5,"cols":5,"data":[[-0.6370206,-0.438477218,0.8246967,0.0445595,0.0231415741],[-0.263661563,-0.323371947,-0.402095884,0.8135483,-0.618914664],[-1.06767607,-1.67769623,-0.246963292,-0.09433457,-1.1826036],[-0.0870356858,-1.23472559,-3.57314777,-1.9208709,0.2218303],[1.066735,0.564975,0.3957414,-1.15413916,-0.419292122]]},{"rows":5,"cols":5,"data":[[0.311278731,-0.327095658,-0.2745341,0.5123115,0.8651368],[0.355255574,-0.47351858,1.06562209,-0.555707037,-0.172708929],[-0.426771015,0.489549249,1.118133,-0.254015028,-0.495040059],[0.413380265,0.479574054,0.540694654,-0.290656149,-0.326733142],[-0.7535112,-0.445006937,0.415872663,1.28925145,-0.180099308]]},{"rows":5,"cols":5,"data":[[-0.683241963,-1.43339121,0.3398136,1.00081408,0.120828025],[0.253839076,-1.01085222,-0.577232659,1.70453322,0.949073851],[0.042878218,-1.18353009,-0.9204601,1.05826056,1.46685231],[0.1224658,-0.538607359,-1.10544741,-0.679713368,1.72923374],[2.62171054,2.1042788,0.6625889,-0.168338165,-0.450131059]]},{"rows":5,"cols":5,"data":[[-0.172096521,0.65175426,-0.306309134,0.4458314,-0.8503203],[-0.312538683,0.764338255,-0.07346402,0.418935537,0.7688863],[0.2601319,-0.157221481,-0.5399357,-0.287100345,-0.8118463],[1.03465033,0.0376388244,0.8478669,-0.0493361354,-0.0121202124],[0.5821547,0.068607,0.7180312,0.5128314,0.113648608]]}],[{"rows":5,"cols":5,"data":[[-1.047973,0.234568715,0.346735,0.7954196,-0.498863],[0.126488775,-0.266231716,-0.8679622,0.217307329,-0.417882979],[-0.9144851,0.7988143,-0.00708038872,0.6068144,0.121866412],[0.137045726,0.0307573024,0.186151221,-0.998079538,-0.684152246],[0.473344535,0.7840764,-0.181553766,0.5301083,-1.13879228]]},{"rows":5,"cols":5,"data":[[-0.657209,0.408997416,-0.5400198,-0.709623635,-0.590886831],[0.5984325,0.6240542,-0.0215002187,-0.9236775,-1.19177592],[0.015879849,-0.966253936,-0.188313827,-0.478747338,-1.040208],[-0.6898607,-0.328889072,-0.03470364,0.8064734,0.5150103],[-1.01244283,0.8805215,-1.00440335,0.47477597,0.3014622]]},{"rows":5,"cols":5,"data":[[-0.786894,0.471482515,0.3293795,-0.0373818278,0.495291173],[-0.9809058,-0.8236632,0.5818502,0.614150167,-0.9877626],[0.495868,-0.940898061,0.5971675,-0.3933951,-0.168539748],[-0.7540772,-0.353333622,-0.2055,0.4687088,-1.19737327],[0.09561378,-0.7878459,-0.449720263,0.802318,-1.07941961]]},{"rows":5,"cols":5,"data":[[0.0259954352,-0.323684365,-0.2739665,0.328746945,0.769437969],[-0.469967067,0.349019766,-0.283462942,-0.357836127,-0.8111604],[-1.017596,-0.8529556,-0.981998265,-0.374942064,0.740201354],[-0.221934453,-0.779387832,-0.05134291,-0.716991067,-0.669946432],[-0.9639951,-0.176594421,-0.85247,-0.242576435,0.501180232]]},{"rows":5,"cols":5,"data":[[0.195330039,-0.06967173,-0.7604404,0.59963125,-0.5245281],[-1.00872552,-0.166594923,0.419050485,-0.136403129,-0.498877227],[0.3675086,0.419977933,-0.701067746,0.909286559,0.5423066],[-0.7767293,0.476153463,0.03980122,-0.546310842,-0.183932886],[-0.962504447,-0.36889407,-0.8859713,0.7825694,-0.0101377824]]},{"rows":5,"cols":5,"data":[[-0.170296162,0.1207464,-0.863913953,0.469975024,-1.00369418],[-0.948200762,-0.5461739,0.932536,-1.00539446,-0.38359794],[0.5386754,0.07645704,0.05410017,-0.8320979,-0.9212197],[-0.0277525689,-0.39206323,0.0118210018,-0.899760962,-0.5881],[0.3248151,0.934073448,0.08838039,-0.176408559,-0.7368613]]}],[{"rows":5,"cols":5,"data":[[-0.277632743,0.7195538,0.7329682,1.753451,1.55483055],[-0.242847383,0.219650343,-0.04875787,-0.0500025563,0.7287882],[0.68963933,0.645679533,-0.408420265,0.08212178,-0.829277158],[0.228095621,0.577800751,-0.894068241,0.0513519458,-1.04521573],[-0.12776953,-0.793266952,0.228782117,-0.06570497,-0.369871467]]},{"rows":5,"cols":5,"data":[[0.3236262,0.470743239,-1.34169841,-0.01401564,0.256945521],[-0.03023573,-1.2888211,-0.613598168,-1.114945,-0.7615418],[-0.8958939,-0.885686934,-1.76658165,-1.556923,0.0155857075],[-0.720698357,-0.89256835,-0.4252702,-0.160320148,0.7089241],[-0.8734765,-0.29336527,1.118979,0.0275027417,0.157731622]]},{"rows":5,"cols":5,"data":[[0.109567463,-0.290957272,0.22568354,-1.03521621,-0.5278072],[-1.1706264,-1.06905842,-1.29707122,-0.81693995,-1.52835584],[-0.859493852,-1.23263526,-1.13822472,-1.379359,-0.2362764],[-0.523790061,0.399873674,0.34203288,1.53052962,0.192085937],[-0.01001945,1.33381975,1.63288,0.9129593,0.5621201]]},{"rows":5,"cols":5,"data":[[-0.4086514,0.9215887,-0.362231553,0.63431,1.52873063],[-0.65920943,0.162942722,-0.7834614,-1.08663607,-0.338892668],[-0.478253275,-1.48735178,-0.933981,-0.898599446,0.6040432],[0.0251669288,0.0951669961,-0.9417838,-0.504025638,0.126814067],[0.572953165,0.495378256,0.8384428,0.8354264,-0.8056282]]},{"rows":5,"cols":5,"data":[[-0.539629638,0.240470439,-0.8518615,-0.258603424,-0.404522],[-1.00827813,0.207876742,-1.26079834,-0.7129608,-1.19150162],[-1.34256649,-1.16230476,0.5076415,0.7433082,0.369662821],[0.159662738,-0.5137125,0.664873838,0.2167339,0.855181754],[0.185917929,0.5387672,0.7232568,0.132966876,0.3032074]]},{"rows":5,"cols":5,"data":[[-0.359206,0.369139165,0.476224035,-0.573862553,0.5917918],[0.02125345,-0.810882151,-0.150398716,0.134012237,0.354401916],[0.4022431,0.245309711,0.2532224,-0.447285622,0.7884208],[0.5618254,0.8645413,0.3688702,0.478458077,0.05557217],[0.0530818179,0.794544,-0.623259962,0.31191808,0.6043333]]}],[{"rows":5,"cols":5,"data":[[0.877752662,-0.260225,-0.0422325842,-0.903202832,0.314018875],[1.14053237,0.249377921,1.65342653,0.1750333,0.469027042],[0.155706018,-0.7723004,0.8060247,0.7204867,0.498636335],[-1.2659148,-0.09439214,-1.071312,-1.08122385,0.3329641],[-1.09660375,-0.364963323,-1.01769412,-0.7536553,0.780595362]]},{"rows":5,"cols":5,"data":[[0.410842657,0.7574908,0.5918067,1.04794979,1.499182],[-0.617043853,-0.626790166,-1.24334371,-0.505625546,-1.344662],[-0.5971166,-0.4326606,-0.794195652,0.151005134,0.403702974],[-0.383149624,0.0250069071,-0.3932352,-1.53636658,-0.307325572],[0.107505187,0.668279469,0.360102624,0.013200094,-0.546750665]]},{"rows":5,"cols":5,"data":[[0.338217258,0.1692011,-0.5243851,0.7802197,0.5473176],[-0.8110346,-1.32842493,-0.9615547,-1.19214237,-0.230689645],[0.4930119,-0.08546481,-0.497524321,-0.564769,1.87560165],[0.867711246,-0.959299564,-0.362818956,0.190939009,0.2140638],[0.541191459,-0.346345216,-0.8720086,-1.1539501,-0.928818345]]},{"rows":5,"cols":5,"data":[[-0.436261356,1.33110833,-0.448150247,0.745043755,-0.347654849],[-0.103248365,0.8461717,0.4605812,-0.581726551,-0.253534615],[0.5648768,-0.12184722,-0.537873,0.288830668,0.8311852],[-0.9382736,-0.43164435,-0.37347123,-0.07390082,-0.9442104],[0.267034829,-0.606906831,-0.424474865,-0.614686847,0.06051001]]},{"rows":5,"cols":5,"data":[[0.404213,-0.186594039,-0.35418576,0.184293017,-1.16640961],[-0.054662697,-0.8368885,0.228487879,-0.461642861,-0.5585271],[-0.316402078,-1.09534812,-0.5821225,-0.122476369,0.402124941],[-0.0697393939,1.08928549,-1.04744864,-1.40673053,-1.00368083],[0.7988797,1.15516853,0.538733959,0.198606476,-0.2912108]]},{"rows":5,"cols":5,"data":[[-0.760287046,-0.9901968,0.76562,-0.7398715,0.400270879],[-0.859336555,0.4660839,0.8709334,-0.583348,0.3329765],[1.00406814,0.075319,-0.454426169,-0.688283741,0.31027],[0.25448817,0.423911482,0.9215331,-0.2200939,0.258461177],[-0.8956843,1.089449,0.399185479,0.160588115,0.6955485]]}]]],"Weights":[[{"rows":100,"cols":256,"data":[[0.437787741,-0.7715809,-0.8399549,0.8438762,-0.802827954,0.56200856,0.387369424,0.07515799,0.841299653,0.620425761,-0.2056012,-0.3964696,0.308678061,0.24292627,-0.454827547,-0.008817927,-0.9703347,-0.8881731,-1.13662958,0.742344439,0.156581819,0.203413561,-0.9802968,-0.216130391,-0.107022218,0.3645914,0.7117798,-0.2766928,-0.713910937,-0.142924383,-0.753865242,-0.213353574,-0.456282169,-0.400395662,-1.05227137,0.781267047,0.205631509,0.909473,-0.887717843,0.5720219,-0.544242442,0.941661835,-0.365569919,-0.4533407,-0.569268346,-0.572968245,0.72185427,-0.648731,-0.8563944,-0.851410747,0.682249367,0.4336786,0.03678445,0.204498515,-0.6258328,-1.01286566,-0.769437969,0.2122739,-0.406109959,-0.661673367,0.9131861,-0.330701381,-0.179114312,0.110769928,0.396198958,-1.02170014,-0.994123161,-0.306318045,0.2452286,-0.372873932,0.724808156,-0.877128363,-0.857544959,-0.5592495,0.393487,0.308831751,-0.292512327,0.331134468,-0.855041862,-0.5100421,0.763851047,0.36718598,-0.499353975,0.900139749,-0.156640872,-0.3290244,0.7079416,0.369204462,-0.7907242,0.8881111,0.520901,0.804479539,0.112359837,0.5779573,0.8339303,0.814728856,0.112152077,0.558548033,0.1140553,-0.650686,-0.495944023,0.139665261,0.00226029567,0.2531704,-0.4906408,0.598432839,0.4015327,-0.3143714,0.6635822,-0.0570822842,0.2897232,-0.11515224,0.0576382428,-0.886398554,-0.3910026,-0.6360195,-0.965584338,-0.2547939,-0.8393032,-0.316900074,-0.8033315,-0.5064953,-0.656656,0.34822464,0.137869939,0.7482954,0.0202337243,-0.4992791,-0.452836961,0.621288359,-0.789867938,0.212854922,-0.763796568,0.791781962,0.935777545,-0.419286,-0.7678205,0.0244697053,0.335071832,0.165957123,0.153582633,0.0451017357,0.613295138,0.155410156,-0.5476257,-0.3988473,-0.321409881,-0.249685735,-0.365746617,0.13759312,0.640901744,-0.861151934,0.205646858,-0.6890339,-0.8639537,0.9329949,-0.279938132,0.7188428,-0.880397439,-0.402371317,-0.381344885,-0.0206573978,-0.912027,-0.883485258,-0.1628019,-0.8778051,-0.3607143,0.304062784,-0.6697864,-0.8454024,-0.794716954,0.0514814742,0.4640659,-0.0537688062,0.466626674,0.244847149,0.002322764,0.270916551,-0.190408483,-0.4654826,0.162543237,-0.788034,0.5584732,0.04590496,0.86859864,-1.0197314,0.909058332,0.794946253,0.466102183,0.8142057,0.753729939,-0.505370736,-0.305263847,-0.323703855,-0.486040354,-0.8751629,-0.33354494,0.327319682,-0.7572299,-0.6634289,0.834506154,0.2638921,-0.6391905,-0.386518866,-0.0113733821,-0.530091166,-0.486502171,-0.7762345,-0.16001302,-0.141154662,-0.048094146,0.471364558,-0.123620056,0.641765833,0.402539849,-0.653460741,0.2967233,-0.07629269,-0.8044142,-0.171858087,-0.7666411,-0.145896733,0.6915968,-0.5803074,-0.7085437,0.589777946,-0.7395726,-0.13693133,-0.506014347,0.368797481,-0.681226552,0.5089051,-0.041475255,-0.5234693,-0.3870926,0.8627478,0.7533851,0.0691682845,-0.94489336,0.383888721,0.4597717,0.698442638,-0.05041809,-0.246265471,0.0863212049,-0.642159164,0.5414301,-0.001210815,0.310313433,-0.815644,-0.154321924,0.979130745,0.225609854,0.3809998,-0.904608548,0.122004211],[0.6291099,0.905143,-0.8379227,0.295668781,-0.8934473,0.554363251,0.5577036,0.352209955,-0.617831945,0.2942173,-0.6052328,-0.6342818,-0.0666378662,0.375717521,-0.6106452,-0.8146938,-0.231286153,-0.229794025,0.302911133,-0.539794266,0.6369116,-0.2973272,0.256986529,-1.00367808,-0.88947916,0.110514805,0.455121428,-0.6983339,-0.47485885,-0.6531243,-0.8109263,0.457211554,-0.6909413,0.4597349,-0.814318538,0.949293554,-0.1778823,-0.3767873,0.17063649,0.7030602,-1.0565238,0.4162664,-0.769082844,0.493656,0.7876083,0.1335875,-0.988067746,0.639904,0.660931349,-0.406268746,0.04486706,-0.7043456,-0.972780943,0.503365,0.191622511,-0.319823,-0.446604431,-0.833187759,0.17583698,-0.09801027,-0.930681467,0.298585385,-0.20926711,-0.9735965,0.163328215,-0.05006426,-0.9952048,0.486442417,0.344958842,-0.525990665,0.3132861,-0.81623894,0.620326638,0.5274574,-0.561766267,-0.6626253,-0.3931153,0.6383496,-0.8722677,-0.08181446,0.08436121,0.799824357,-0.389598578,0.921282232,0.220784321,0.752219737,0.420700729,-0.234879717,-0.750372,0.421166837,0.3765258,-0.3599646,0.399210542,-0.819909,0.64869386,-0.339740485,-0.301611036,-0.8015292,-0.5648655,-0.0846214,0.103470661,-0.483561367,-0.601635,0.244097069,0.174292758,-0.18882972,-0.230760276,-0.522857666,0.0485516228,-0.143420711,-0.910074651,-0.230728135,-1.02964616,-0.877044,0.6651912,-0.8532349,-0.458949983,-0.37284708,-0.3895074,0.342349768,0.4007132,0.0598726161,0.109067813,0.8651574,-0.0769479051,-0.506844461,-0.273181617,0.388461679,0.914568841,0.832717,0.6113894,-0.5784327,0.346984118,0.23257111,0.7280311,-0.506041646,0.4013225,0.349553227,-0.369699061,-0.660346568,-0.08950327,-0.07456739,0.691046,0.3704404,0.239806443,-0.439188421,-0.427532464,0.0446561947,-0.817024469,0.215886712,0.8586168,0.770255864,0.33445096,-0.111331269,0.250906646,0.8882933,0.316657424,-0.606855631,-0.9138661,-0.443376273,-0.9275307,0.3847167,-0.4421859,0.224210218,0.170850784,0.595388055,0.401890785,-0.2868746,-0.5105426,0.2538422,-0.215149477,0.262596667,-0.8329364,-0.582742751,-0.630482733,-0.481987923,0.534398437,0.8199973,-0.425018638,-0.5288522,-0.9864626,0.6955303,0.124973156,-0.4853654,0.7279305,0.658528566,0.0203256961,-0.681784332,0.7487475,0.7196354,0.106286466,-0.1192315,0.113485895,-1.03122044,-0.8281384,0.466209471,-0.8015808,-0.6683491,-0.954204559,0.5905363,0.007999948,0.6728616,-0.601657569,-0.135705054,-0.596806645,-0.485003144,0.498554915,-0.154659837,-0.477022469,-0.2069861,-0.6010037,0.481473744,0.9073352,0.669606149,-0.456768334,-0.609965861,-0.7182605,-0.9912467,0.3905534,0.499409646,-0.350419134,0.11344225,-0.0443904549,-0.1830498,-0.8346959,0.8525056,-0.8537627,-0.7527461,-0.76194,-0.0100499941,-0.7635953,0.0893773139,0.7158064,-0.038111832,0.337921619,-0.7492779,0.13086468,-0.7907851,-0.9368715,0.224298149,-0.8035377,-0.8446787,0.7819294,0.0251725335,0.354977429,0.626245439,-0.0502040945,0.455826163,0.425907135,0.789669931,0.151054144,-0.6838799,0.0392357744,-0.466345668,-0.115975372,-0.982979536],[-0.2507647,0.6152067,-0.425997168,-0.492299259,-0.75609684,0.345150739,-0.424257517,0.649791837,-0.456558526,0.371013731,0.674949,-0.06685945,-0.21277757,-0.9681585,0.0347916856,-0.868494749,0.734622,-0.9792324,0.242162511,-0.308989674,0.5197633,1.09373593,0.695090652,-0.5128113,-0.1861983,-0.318749517,-0.116007224,-0.493277878,1.03295207,1.058775,-1.07669616,-0.1577334,-0.8533419,0.168312237,0.102954134,0.581027269,0.409189075,0.407583535,-0.3471205,-0.213250443,0.669038832,-0.7694137,-0.413376182,-0.7146892,0.701144,-0.9104548,0.238673642,0.158036634,-0.3766576,-0.026970908,-0.771401048,0.093955785,0.43433097,-0.3263032,-0.18282184,-0.0191247053,-0.851482153,-1.137119,0.33350727,0.5348441,-0.96543473,-1.06281877,0.7464201,-0.362335622,0.239616245,-0.252071261,-0.108816706,-0.0452609435,-0.382398,0.7298955,-0.924321,-0.8036181,0.557435453,-0.7100609,-0.186155811,-0.166842058,0.571031451,-0.11065688,-0.379140884,-0.110439688,0.46994558,0.5885125,0.6971488,-0.365874052,0.430885553,0.143007368,0.8877452,0.5742039,-0.411002278,-0.5716138,0.3371634,0.572707,-0.8933795,0.0330855548,-0.706462741,0.2853286,-0.6672488,0.677367,-0.2262008,0.431699961,0.190014154,-0.9361532,-0.864762664,0.146607473,-0.486783624,-0.864102066,0.6188986,-0.009676762,-0.005011544,0.5093741,0.36323154,-0.21763739,0.176274478,-0.282234222,-0.584493339,-0.03149878,-0.3046404,0.4688359,0.4535701,-0.5395002,0.114379019,0.917432249,-0.6730742,-0.733077168,-0.7718286,-0.464373142,-0.607705355,-0.6563319,-0.90660423,0.625057042,-0.52563554,0.5686653,-0.4486899,0.1886439,0.7777035,0.341911823,0.223835036,-0.383560628,0.8685699,0.464903057,0.5592605,0.0198250022,-0.943417549,-0.09795514,-0.09959454,-0.4722759,-1.05242085,0.4523867,-0.299604654,0.355021715,-0.247954622,0.365527034,-0.4516959,-0.5150869,-0.255071223,0.787795067,0.9303604,0.641249,-0.253432482,0.7978329,0.8057104,0.05383183,-0.3815022,0.945656,-0.004387501,0.626974,-0.869785666,-0.713404953,-0.19633086,-0.105972283,0.8122122,1.138033,0.117531195,0.8494809,-0.478897721,0.534176946,0.3155468,0.648945153,0.5744291,0.700722158,-0.4326959,-0.645332038,0.588612854,-0.129731372,-0.330695182,-0.116382,0.0389069021,1.16917479,-0.7264062,0.95401907,0.781309366,0.484831184,0.702512,1.04290509,0.422311753,-0.517595947,-0.762458,-0.628334343,0.319903821,-0.205246419,-0.7287821,-1.20210111,-0.244198859,0.8051297,1.13772953,-0.119678095,-0.826247633,-0.2371564,-0.887378454,0.314538,-0.373215169,-0.8371671,-0.651616,0.24400638,0.4267653,0.09068772,0.5577931,-0.883907855,0.129417479,-0.790893435,0.0212277826,-0.637280643,0.856665,-0.1617645,0.5336471,-0.5187215,-0.8280826,0.39606598,-0.8041694,-0.889070868,0.170528039,0.125349045,0.623357952,-0.7558443,0.3288274,-0.553919137,0.6463552,0.5997942,-0.13065137,0.7572632,-0.326744467,-1.03806078,0.770327568,0.0148108387,0.07757386,0.279760242,0.0251619127,-0.538509667,-0.491772532,-0.46788,-0.190082774,-0.82078284,-0.126878724,0.452427953,0.821813345,0.8994054],[-0.8567477,1.34381676,-0.199961349,0.4864456,0.478687465,-0.5012587,-0.362749875,0.9208545,1.13474727,0.4047955,-0.41673404,0.947055757,1.41213655,0.493940532,0.19488883,0.8491318,-0.110939823,0.7892022,0.2604616,-0.266734183,-0.6434068,-0.6893155,0.261056453,0.926001847,0.0392251834,0.291581929,-0.58901155,0.414949775,0.479447871,0.423021823,1.43319023,-0.166596785,-0.5385528,0.331294626,-0.487026751,1.15416479,-0.9654614,0.340847641,0.295577139,1.08607185,0.129211873,0.8960517,-0.06037482,0.624674857,0.308246672,0.298962981,-0.262579083,0.751044154,0.327479035,-0.302936882,-0.132857621,0.766039431,0.559272945,-0.1337496,0.160502076,0.469072282,-0.486173868,0.169790879,-0.516887,0.04956816,-1.21615338,0.229827568,-0.108805329,-0.205224067,0.894792736,1.16453469,-0.157166287,-0.7304012,-0.102376267,0.457640946,-0.4424907,0.8391194,-0.246116862,0.900203943,1.2444284,0.07030669,0.8598678,1.00716507,0.117432073,0.8243838,0.20566906,0.4582938,-0.7438597,-0.784359634,-0.7566916,-0.662486553,-0.5592901,0.768383563,-0.8801612,-0.08727882,0.3861667,-0.396607518,0.422925383,0.753417253,0.734819055,0.9737749,-0.738219142,-1.03026891,-0.168330371,0.85087806,-0.891486764,-0.7462292,-0.15918079,0.7581524,-0.6788504,-0.0023114928,-0.3741542,-0.483400583,0.239700243,0.02176939,0.673317134,-0.210070848,1.51235771,0.6342934,-0.969572365,-0.3446664,0.9378181,-0.745688856,-0.5609867,0.345649,1.10591555,1.01427841,0.222533822,0.9055513,1.10984707,0.906020939,-0.8368793,-0.116625614,-0.9784732,0.75258404,0.6569671,0.67988646,0.675149143,0.472932816,0.746789,-0.175057426,-0.459343463,-0.8073924,0.595678866,-0.06771865,0.185599029,-0.7917994,-0.3327552,0.5624191,0.9297449,0.143539622,-0.252217025,0.129856944,1.00758708,0.251064718,0.133853078,-0.271517068,1.01257288,-0.1464261,0.7233948,0.125975281,-0.180745691,0.6317449,-0.4803865,-0.0327593349,-0.00263654,-0.65548867,-0.130452678,0.574139357,-0.569514632,1.02432609,0.117252365,-0.5248746,-0.23352018,0.054610692,-1.05385351,0.234650537,0.7608021,1.2055372,-0.547001362,0.305662453,-0.306690335,-0.503706753,-0.5985586,0.432281673,0.007939215,0.362111419,0.551639259,0.019865172,-0.444206774,-0.2939616,0.923387,0.07190392,0.955063939,-0.3749891,-0.3101546,0.445411354,-0.745732069,-0.07261336,1.028685,0.03925492,1.25170672,0.247651488,-0.404005349,0.798144042,-0.8747537,-1.2197094,-0.7753539,-0.5947521,0.643080235,-0.501217246,0.590106249,-0.8283209,-0.2104407,-0.618290246,-0.8148413,0.47856,-0.153564677,0.09698322,0.387309253,0.7082002,-0.104437545,0.120528594,-0.4846336,0.7713363,0.8347497,0.9751244,-0.238348469,0.6660658,-0.1683295,-0.01221495,-0.1297928,-0.8978746,0.5981101,0.08987269,0.6002698,0.46019125,-0.916899741,-0.07533557,0.05341773,0.341851383,-0.7174113,-0.501316,-0.863037467,-0.144916892,0.5074996,1.0414139,-0.7760395,0.490729123,-1.055129,0.3440494,-0.474141747,-0.100391425,0.3257165,-0.8259342,-0.9413108,-0.0114954133,0.00191455439,-0.183852747,0.554811656,-0.801686168],[0.2614903,-0.112070948,0.8271691,-0.890555,0.410025269,0.5877326,-0.740426064,0.731945336,0.17436412,-0.251772851,0.5352509,-0.776075363,-0.8079829,-0.632066369,0.133699685,0.9814242,-0.111137554,0.679311931,-0.8098977,1.04122734,0.91788274,0.385133952,-0.02290191,0.3730432,-0.545709968,0.962856352,-0.3319532,0.730239451,0.5436805,-0.27800113,-0.3311806,0.09006111,0.0301077329,-0.09345111,0.804559,-0.85357064,0.004572643,-0.9247794,0.466834128,-0.831157148,0.583132446,-0.5870501,-0.5999627,0.9576865,0.8648585,-0.494548529,0.0244590323,0.468888581,0.140563414,-0.7427489,-0.732621,0.192442521,-0.326713473,0.726433456,-0.8684084,1.00146866,0.8262817,-0.471142441,0.89878875,0.8143911,0.122908711,-0.19341588,-0.2110241,-0.454789937,-0.8343583,-0.59851414,0.248567477,0.164068326,-0.5022959,-0.208926618,-0.450835466,-0.3384301,-0.613895953,-0.9459374,-0.781984448,0.5271894,0.07887239,0.08010113,0.623504341,0.861154556,-0.122916616,0.186072931,-0.6710229,-0.1557725,-0.5236317,0.6550779,-0.4355255,0.2624709,-0.190723374,0.946794868,-0.733396232,-0.158031568,-0.524814844,0.891842246,0.08961639,0.116509378,0.5355836,0.777554,0.822405457,0.5450936,0.135055825,0.7360474,0.144300848,-0.328589529,0.643108249,0.5308881,-0.06929402,-0.411739677,0.827753663,-0.06156654,0.195672438,-0.06775689,-0.07088389,1.35083163,-0.145307466,0.986704469,-0.315236539,0.930191457,-0.9216663,-0.488511026,0.882448852,0.7709296,-0.551171,-0.378351539,-0.452757835,0.8857152,-0.7110256,-0.5955868,0.0066453,0.152685612,0.7631844,0.182383507,0.148367867,-0.921695054,-0.391583353,0.0297470149,-0.8870761,0.744358659,0.3114284,0.07373926,-0.17998071,0.95497185,0.7370748,-0.880605042,0.109029263,0.431024075,1.10071921,-0.4030427,0.353405446,0.210865244,-0.08613686,0.9486056,1.03258574,0.481122583,0.8356365,0.42366758,0.593133,-0.4179211,-0.908561051,0.805420756,0.282325447,-0.5568157,0.7131923,-0.5720338,-0.2169728,0.704595,0.7456474,-0.211720333,0.386173934,0.779503465,0.7916073,-0.496961057,-0.324940324,0.0351515859,0.8467292,1.07192171,-0.732239664,-0.7813419,0.379832447,0.0521490537,0.744464,0.608115554,0.299456358,0.884184957,-0.4811077,1.07257271,0.4323091,0.640436232,-0.5802425,0.358902216,0.6366036,0.514695346,0.664177835,0.613266468,0.8850882,-0.7096677,-0.494243473,0.439442933,0.339861,0.335716456,1.01789725,0.381925881,0.48216188,0.54646486,0.4061346,-0.865374744,0.371910959,-0.124671549,0.7521171,0.8813746,0.126655191,0.240838662,0.175502464,-0.005358897,0.9312708,0.694564939,0.334779531,0.808979332,0.986838639,-0.0446901768,-0.633139968,0.981552839,-0.541759,-0.942297935,-0.7224701,-0.6248423,-0.08142795,0.0148654869,0.137507588,0.2741752,0.57520324,-0.13200888,0.0176153611,-0.69567734,0.313455045,-0.522598147,-0.521840155,0.7350403,-0.5657422,-0.821224749,-0.328743517,-0.399831235,0.9573245,-0.575535655,-0.8945617,-0.703857839,-0.6961952,-0.2231872,0.673947632,-0.8704096,-0.0396285281,-0.5164712,0.4815248,-0.661282837,-0.11876943,0.7804814],[-0.410734534,0.248692751,0.529537,0.02162039,0.42967397,-0.9672482,0.408811271,-0.9038894,-0.564432859,-0.8127029,-0.6856999,-0.06919925,0.847268939,1.05051219,0.355421722,0.6975793,0.116947077,1.1089462,-0.3666499,0.633108854,-1.1828227,-1.62282526,0.445203722,0.7509212,-1.48644137,-1.39905477,0.303351551,0.071892336,-0.849562168,0.166464865,0.904220045,0.1735499,0.508514,0.766817033,0.9200723,0.401716262,-0.523314834,0.7290541,0.105400808,-0.4851285,0.0541049279,0.8368621,-0.807443559,0.539543867,-0.802136958,0.173870564,-0.02310412,-0.2640818,-0.27108568,0.55686,0.246624053,0.124785349,0.8679752,-0.144289345,1.00200689,0.0530767031,0.1451267,0.164733946,0.05219543,-0.07450462,-0.6959178,-1.10405123,0.8632592,0.0200586133,-0.275591969,0.862487435,0.976004243,-1.08049214,0.333074778,-0.5228717,0.777962565,0.8020272,-0.135514781,0.730988443,0.4167759,-0.462046444,0.8702414,-0.651672542,1.10894012,-0.2541334,0.119512148,0.04255672,-0.6678002,0.112960778,1.04394424,0.844517648,-0.1577506,-0.6626561,0.7228747,0.122619078,-0.947728455,-0.00925085,-0.5327712,0.8046582,0.4127698,-0.5109965,0.468260229,-0.267707676,-0.319301426,-0.5607155,0.460840017,-0.34606266,0.0302347466,-0.757324,-1.20724332,-0.51590693,-0.710816562,-0.973927855,-0.822978139,0.3717562,0.163921639,0.5230674,0.6186655,-0.322152376,1.02205408,0.342945457,-0.511778235,-0.126530483,0.78285116,-0.270649731,-0.387788326,0.906124234,0.163228333,-0.356620878,-0.825601,-0.421553016,-0.1886627,0.0369308852,-0.356102139,-0.6440032,-0.13355653,0.04148573,0.022815207,0.06116447,-0.147125363,-0.582797468,-0.829548955,0.5286982,-0.05906771,-0.166766837,0.178119615,-0.220095515,-0.9539816,-0.538629353,-0.7875917,-0.338012159,0.169056058,-0.962638736,0.529873848,-0.0146763632,-0.8364671,-0.07480196,0.7964011,-0.999639153,0.626753151,-0.4561299,-0.71289295,0.197662413,0.0181274377,-0.9813347,0.476303428,0.7742638,0.8054003,1.23822165,-0.8849802,1.08208942,-0.6521517,-0.243899584,0.210012689,0.4796234,0.8368766,-0.27374503,1.0070858,-0.200848415,1.45447016,1.244457,0.565211535,-0.917509258,0.614267766,0.2970125,-0.2538112,0.938402236,0.242527783,-0.05966348,-1.38416517,0.433333248,0.163118869,-0.23993443,0.110526472,-0.837658346,-0.814343035,0.6632274,-0.5263906,-0.343028575,0.23640877,0.552191,0.0462010354,-1.3383075,0.88032496,-0.40394482,0.04200674,-1.02235,-0.900174141,-0.502665,0.754925132,0.911338449,-0.0301993564,0.349605739,-0.681155264,-0.991410732,0.336226016,-0.6878316,-0.205518,0.5572058,0.0230173618,0.966383159,-0.433291048,-0.6393602,0.825433969,-0.340414047,-0.5520784,0.2735311,0.61692667,0.203137,0.598358333,-0.458993733,1.20640481,0.157929361,0.6201581,-0.07777686,0.0296091959,0.426754028,-0.7971938,1.0316211,-0.375262737,-0.212416485,-0.119641207,-0.5300004,0.5422407,-0.2731173,-0.231459409,-0.705588043,-0.407226145,0.106255569,-0.2966116,0.7268939,-0.4464366,-0.0123541523,0.8679838,0.158019021,-0.180051908,-0.30544433,-0.4887433,0.233539879,-0.9361672,0.371088833],[-0.286310047,0.202098951,0.0200658,0.0584641,0.416595757,-0.9626609,-0.9804698,0.9381542,0.1957747,-0.8590295,-0.7987141,0.387752175,-0.0427542329,-0.5174377,-0.1005906,0.8710571,-0.300961673,0.104800187,0.798136532,-0.7177772,-0.431334347,-0.6872518,-0.8378624,0.572382033,0.904120564,-0.364276528,-0.157113373,0.655932963,0.3766855,0.757709146,-0.105927318,-0.321312875,0.2140666,0.09397863,0.639244854,0.6558735,0.5695044,-0.552639544,0.0434505567,-0.218209952,-0.8796639,-0.380058557,0.7277016,-0.169481978,0.4881032,0.07704291,-0.8709664,0.428542018,-0.5943881,-0.104812048,-1.04876292,0.101270221,0.4337664,0.6888535,-0.374345541,-0.620949149,0.1287745,0.332803279,0.1423557,-0.31420505,-0.0372117646,-0.7833781,-0.468497872,0.3987512,0.335951477,0.36869356,-0.779367268,0.9584428,-0.219252437,0.0692418963,-0.6672234,-0.7896824,-0.956624031,-0.0197607558,-0.8546989,-0.989664,-0.259229481,0.396400273,-0.9697,-0.5000712,-0.544081032,0.630126059,0.413577378,-0.5442976,0.601913035,0.854163468,0.362510681,0.409473658,-0.596767962,0.412229747,-0.301856369,-0.854057431,0.1387749,-0.7630245,0.81750524,0.9526767,-0.972788155,-0.902088344,0.427120477,-0.907885253,0.0892619,-0.7286128,-0.225018561,0.294687778,-0.362304837,0.731921434,-0.12603648,-0.602201343,0.71625185,-0.255138427,0.62351346,0.637278259,0.333778828,-0.373864233,-0.5484424,0.423882216,-0.33545664,-1.00623548,1.03086,0.4180276,-1.05942631,-0.251400739,0.483239561,0.106729463,-0.6032202,-0.9516785,-0.0268016178,0.722571433,0.184925169,-0.8531991,0.9183633,-0.45422256,0.871378839,0.9012936,0.511136949,-0.8290068,-0.08094538,-0.842243433,0.800052643,0.8116984,-0.145344958,-0.0858634561,0.688260257,0.7051541,0.8038212,-0.06432153,-0.29900685,-0.7622616,0.7323071,-0.703593,0.1697938,-0.9279567,-0.648722947,-0.9074469,-1.03712523,-0.8517357,-0.268424064,0.383847982,-0.302044868,-0.57347697,-0.34853372,0.09970394,0.0852334946,0.481669456,-0.27921918,-0.0342903137,0.726940751,0.479161054,0.2648273,-0.866898954,-0.6087977,-0.335726857,-0.8873995,-1.00732625,-0.471756041,0.1052859,0.111125864,0.716493249,0.3088935,0.3799319,0.407402575,-0.148565933,-1.07826769,-0.351930618,-0.113021106,0.7802261,-0.8174283,0.6938142,0.833856046,0.292979062,0.393063068,0.474390417,0.107914314,0.255430281,0.163011655,0.6204472,0.410036743,-0.8945916,-0.07348003,-0.3281545,0.194206208,0.127396941,-0.07009271,0.5548318,-1.07084763,-0.49383384,0.7364437,-0.8601744,0.622991562,-0.0914018154,0.106934965,-0.0307082161,0.990500569,0.455455571,0.102178514,0.796998441,0.126969576,-0.477765143,-0.372819215,-0.004498936,-0.20436047,-0.9168732,0.677150965,-0.955581069,-0.203300968,-0.0566009358,0.4805139,0.144607171,-0.112063564,-0.214819029,0.421513915,-0.0127090076,-0.106301367,-0.386266142,-0.8878231,-0.7758582,0.8068395,-0.618515968,-0.289456069,-0.606779635,0.9046102,-1.022844,-0.9680945,-0.09573245,-0.8716992,-0.6128796,0.443142474,0.8266582,-0.855535865,0.332099885,-0.428194433,0.07871887,0.406538874,0.813820243,-1.03677487,0.150406167],[0.589666367,0.104717396,-0.135315433,0.07194604,0.353473037,0.151450381,0.332398146,-0.172917411,0.5628831,-0.691873431,-0.823644936,0.4175656,0.440227836,0.0762235,1.038225,-0.253429562,0.900141537,-0.551450849,0.2960663,-0.104203656,-0.710259557,0.003737921,1.0246805,-0.435750782,0.7213049,0.6714123,-0.0824012,0.72649,-0.5075113,-0.313197225,0.7186397,0.066719465,-0.32013756,-0.0208429657,-0.283817321,-0.005260247,0.7654588,0.7588363,0.1979536,0.0362393819,-0.09296637,0.488880217,0.6737599,-0.8264635,-0.335343033,-0.5355511,-0.374251634,0.3875251,0.4734293,0.955422163,0.5548266,0.506918669,-0.09732981,0.322400659,0.290623963,-0.0294355955,0.07747982,-0.5982727,0.6365249,0.920542359,-0.7481491,0.705131,-0.35783717,0.122439176,-0.44521144,0.119331479,-0.158934683,-0.5200672,-0.7379991,0.0144084357,0.0580747724,-0.789854348,0.170239,-0.815206,1.04620111,-0.158899978,0.22608684,0.8326088,-0.7907969,0.425705016,-0.0304318424,0.491504818,-0.8070765,-0.6027114,0.100315653,-0.6637605,-0.8186376,0.3461446,0.758364856,0.9254905,0.9310934,0.38204515,-0.832852244,0.379837066,-0.179518953,0.207155451,-0.160226062,-0.3469291,0.616829157,0.330347478,0.400511533,-0.703332841,0.21124275,-0.411675245,0.138830915,0.508989036,-0.698732257,-0.192148343,0.429394543,-0.3969343,0.6338602,0.312435746,-0.472183049,-0.35520032,0.199056178,-0.115463056,0.737636,-0.4674826,1.19392288,-0.646707356,0.0572362468,0.6619852,-0.114690572,-0.524066031,0.141786367,0.9462596,1.23891473,0.855963,0.2891591,-0.216867015,0.9492757,-0.3409526,-0.7882648,-0.23858352,-0.9261535,-0.120913915,-0.613837063,0.668757141,0.5094723,0.903316855,-0.7841232,0.444133639,-0.942126,0.307719558,-0.5948025,-0.199818224,0.232966512,1.06301177,-0.32942903,-0.666102648,0.9389452,-0.231822968,-0.221571013,0.603059053,-0.421008229,0.934306443,0.507798,0.04405651,0.6540003,0.277044535,0.328000218,-0.4894068,0.500191867,-0.459016472,-0.343576,0.085665375,0.1564367,0.5696601,-0.685565531,1.20199656,-0.540258467,0.8101268,-0.125570044,1.21681726,1.03871346,0.5436181,0.487101346,0.413419,0.963884532,-0.5926884,-0.3646846,1.02816546,0.24630557,0.190117061,0.195047662,0.454817116,1.06536174,-0.132631391,-0.5034871,-0.672738,0.476918578,0.6112992,-0.681400836,-0.504178762,-0.234772071,0.818601966,1.17272,0.7764076,-0.114707351,0.446760923,0.7658673,0.8543517,1.02890491,-0.388623536,1.02214241,-0.7088626,-0.8747234,-0.32506153,0.419837981,0.00201577158,-0.5295592,-0.9447125,-0.119041026,0.152868688,-0.2888855,0.248609558,0.207949385,-0.7082284,0.485933036,0.217064708,-0.05854193,-0.757021368,0.173180312,0.870466769,-0.305229783,-0.151057929,0.6187952,-0.628080249,0.418098629,-0.7627789,0.454992682,0.8383354,-0.3434775,-0.389097124,-0.170916364,-0.0887029544,-0.792446434,-0.266782552,0.3737353,-0.00774795376,0.25888133,0.326968849,0.422622651,0.33689934,0.7631555,0.403053343,-0.2431805,0.0445014276,0.5998673,0.466830224,-0.316474646,0.7248192,-0.7929578,0.694799662,-0.436798632,0.375225663],[-0.45227927,-0.864265561,-0.847065151,0.120138012,-0.518735,0.7202043,0.381754756,0.238308385,0.6120151,-0.3104614,0.5709047,-0.5917718,-0.5385178,0.863093853,0.238466173,-0.397725344,0.157915279,-0.336282134,1.005277,0.6300521,-0.0982334,0.9587467,-0.784582,0.164463028,-0.6704108,-0.202538043,-0.137319028,0.926232755,0.6458269,0.7588095,0.768413663,0.0162662584,-0.952306747,0.443148851,-0.5242443,1.00118971,-0.315596819,-0.6345975,-0.373260677,0.558900058,1.0237112,-0.7773539,0.8014866,0.146318063,1.02337062,-0.463456661,-0.19510904,0.8811985,-0.6129498,1.17258024,-0.128017589,0.6344236,0.618938863,-0.05439533,-0.4233195,-0.331440121,0.9673964,0.04275188,0.116705626,0.927601159,-0.07453675,0.49487,0.666476846,0.8337502,-0.06499825,-0.497199059,-0.5994417,0.0486965328,0.4421488,0.227441177,-0.810453,-0.207598209,0.9443052,-0.53136903,0.6590899,-0.291797519,-0.854465246,0.0597489,0.269165158,0.7439137,0.992418,0.03273715,0.651680768,0.584064841,0.0320604853,-0.756473243,0.415167749,0.128661826,-0.06514982,0.879136264,-0.9026829,0.546469748,0.18545194,-0.2634571,-0.35630843,-0.505786538,-0.426644921,0.984395564,-0.7773723,0.406642646,-0.84777,0.7846678,-0.505701244,0.0703212842,1.02770412,-0.871606052,0.7119697,0.223467246,0.47737214,0.9965447,-0.43581298,-0.0324012,0.8686551,0.433752149,0.9724196,1.0130291,0.918514967,-0.8315571,-0.0138879167,-0.2185928,0.229782432,0.304224253,-0.816949844,0.493911415,0.193312183,-0.4164843,0.6327435,0.236810252,0.816585243,0.146132022,-0.80019486,-0.839966655,-0.189666957,0.793204069,0.6848204,-0.688350141,-0.37177974,-0.388684422,0.6791282,-0.00117340649,-0.446991235,-0.797913969,0.8754616,0.108382165,0.436217427,0.198474959,0.8130166,0.8025042,-0.09306127,-0.272996455,-0.263165563,-0.554011345,0.242867038,0.5452263,-0.6169972,-0.1431403,0.6260879,-0.03885987,0.9923405,0.4315944,-0.5739474,-0.5944739,0.353940576,-0.880790055,0.6578299,-0.604124069,-0.901454866,0.9979561,0.727220953,0.593012452,0.339833617,0.2589713,-0.512302458,0.976361156,-0.7736281,-0.0215961989,0.342835277,-0.051652845,-0.8900804,0.9466092,-0.168268532,0.860591352,-0.5782121,0.116162159,-0.497226238,0.802355,0.0655507147,0.279467225,0.57543087,0.00425421726,-0.249052808,0.704845548,-0.284179717,-0.7256547,-0.339343548,-0.8195417,-0.100146547,0.7695164,0.5876416,0.06434302,0.183613762,0.7954232,-0.8377796,0.284414947,0.4821978,0.463214338,1.0862273,0.307854533,0.3965019,0.3803702,0.485856473,-0.3316141,-0.18790105,0.9816092,-0.376539469,-0.344492555,-0.9740085,-0.7357663,0.619303465,0.839582264,0.2958574,-0.18097946,-0.5076171,-0.186329633,-0.103657,0.673796535,-0.358831257,-0.7769321,0.311617136,-0.9452207,-0.8772907,0.577719748,0.546735942,0.137953326,-0.148956433,-0.01811564,0.645581543,0.136116371,0.7147278,0.08962192,0.7807853,0.750589669,0.8818982,-0.879030049,0.462594181,-0.8805498,-0.117191128,-0.305436224,0.690368235,0.9377731,-0.8662733,-0.401563138,-0.7591474,0.7139721,0.793793261,-0.663867056],[-0.20887576,0.372972637,-0.639966667,0.413760871,-0.210513,0.638524234,-1.24415791,0.252295464,-0.422218949,1.1658572,-0.205238461,0.859599948,0.2005315,0.246339887,-0.12700136,0.253794521,0.154739067,-0.3164786,-0.7800729,0.3724692,-0.0391698442,-0.114956751,-0.0187250767,-0.2494998,-0.589258969,0.889139,-0.8678896,0.1081815,2.049666,1.6378057,0.8084939,0.5973102,0.5698489,-0.3810208,0.7689553,-0.5923543,-0.5016134,0.414002359,-1.18752074,0.393461436,0.324729472,-0.8643402,-0.3400253,0.2295255,-0.583740532,0.116081119,0.09095068,-1.65740955,-0.6920139,0.540756,0.145982727,0.774587452,0.4797538,-0.8637116,0.7270584,0.7534473,0.7515902,0.617464,0.219317973,-0.5316847,0.7389361,-0.0469650328,0.7592806,0.8173352,-0.365703136,0.131138369,-1.12576139,-0.6572657,0.546217263,-0.914670467,-1.69599891,-0.7613705,-0.9891082,-1.38962376,-0.4314503,-0.5817086,0.450600326,-0.8087587,-0.320241719,0.690813839,-0.65187943,-0.499617368,-0.6104887,-0.287628233,0.493923336,0.7937888,-0.7911582,0.180017918,0.2393631,-0.161557421,-0.509538651,0.001435467,-0.123857737,0.13895528,-0.445276767,-0.164618,-0.06544123,0.483900458,0.449409127,0.5890985,0.130564228,-0.0509249568,-0.6802764,-0.498076618,-0.07519261,1.3382504,0.398648143,0.355783463,-0.4380076,0.3229873,0.690311253,1.162965,1.17062593,1.03539133,-0.848126769,-0.9875857,-1.55301118,-0.702341,-0.692248464,-0.5002242,0.5158612,0.237562984,-0.638978839,0.587820768,-0.6500774,-0.09923381,1.26967,0.8109935,0.513345838,-0.09729427,0.446255177,-0.508040249,-0.0868647844,-0.487682939,-0.202492788,0.326234818,-0.62501657,-0.9464819,0.7011392,-0.8520392,-0.359430015,-0.169028327,-0.151979253,-0.7100685,-0.396180421,-1.04409218,0.463317454,0.515257657,-0.107613929,0.476467133,-0.743032455,-1.02419221,-0.356609523,-0.746551454,-0.6795564,0.306841731,0.8730911,-0.822762251,-1.46470237,0.314832777,0.7625911,-0.895699143,1.1849699,0.5546463,0.8570495,-0.5262395,-0.4430756,0.135859281,-0.4483864,-0.328248322,0.103351913,-0.5237462,-0.504047453,-0.615528643,-0.6372083,-0.482113242,-0.527251959,0.355379134,0.786053538,0.742997944,0.807951,-0.9302324,-0.2166663,0.974947631,-0.26506564,0.421889424,0.782725751,-0.286578864,-0.8702476,0.654592454,1.107959,0.72476393,0.8673703,1.0723362,-0.67212224,-0.9507,0.224313259,0.501325667,-1.29310322,-0.75672704,0.610929132,-0.121576078,-0.09331444,0.0559618175,0.757663,-0.960262656,-0.22748521,-0.411141783,-0.7337752,0.9466297,0.151644245,-0.4705589,-0.0174727347,-0.410493165,-0.969168961,0.1671534,0.432265639,-0.979639053,0.264769852,-0.9020798,0.149070039,-0.628637254,-0.125111386,0.284444332,0.6963285,-0.280540675,-0.9102916,-0.04440163,0.5045393,0.5242821,0.242692232,0.1705476,-0.7603335,-0.183811188,0.9561293,0.3800555,0.734795749,1.10445642,-0.149013087,0.726882637,-0.491446346,0.204348132,-0.48925674,-0.7249601,-0.9574878,0.0563043579,-0.24165386,-0.00087475765,0.9948502,0.7053769,-0.2705164,-0.07246451,-1.16731715,-0.409836382,0.109898239,0.286193162],[0.3658516,0.505156,0.4333417,-0.6586577,-0.744324744,1.03898239,0.124993317,-0.4198518,-0.561502934,-0.9494645,-0.7322134,0.6604917,-0.408128768,-0.30303514,0.6383806,0.808195233,0.161508575,0.272068322,0.6899478,-0.973642766,-1.05632639,-0.524919,0.08385324,-0.593311846,-0.7182218,-0.260800362,0.181993663,-1.04547715,-0.355042,-0.1399223,0.269409031,0.55065006,0.828540146,-0.4003189,0.802373052,-0.9348417,-1.03486729,-0.8646902,0.300306469,-0.6649648,0.7490991,0.542852938,0.6852028,-1.06156886,-0.147805408,-0.280791938,-0.438433379,0.177731887,0.5861312,-0.254677773,0.3362896,-0.459136367,-0.2652473,0.225929931,0.1649101,-0.19986181,-0.67074275,-0.13811551,-0.8289551,0.464174122,-0.264938027,0.196867913,1.09582675,0.9041268,0.103231743,0.09029345,1.16172612,0.8005319,-0.447008431,0.662207663,0.7258547,-0.05376203,-0.9575707,0.481808543,-0.8689182,-0.766652465,-0.259565443,0.177158982,0.6984197,0.388869584,-0.89927274,0.948994756,-0.8425535,0.6487142,0.117331862,-0.593934536,-0.390835166,-0.55369097,0.501250446,0.0989938,0.7241641,0.246997237,-0.77169317,-0.960445046,0.5758441,-0.37646237,0.668391645,-1.12746716,-0.289074272,0.913418055,-0.00237884745,-0.186085835,-0.442727536,-0.6501621,0.339535117,-0.667728662,-0.603668451,0.228182092,0.213676363,-0.0964086056,-0.790258169,0.09189479,-0.08003906,-0.0858462751,0.3184433,-0.493889451,-0.0599981472,-0.670746565,-0.7186984,-0.462014437,-0.7710677,0.222403228,-0.703412533,0.378157347,0.6265833,-0.434822947,-0.190898821,-1.22922421,0.976672947,0.525677264,-0.332753479,-0.217716455,-0.6717478,0.734590352,-0.4722164,0.2811245,0.3239079,0.842280149,-0.6336723,-0.300933,1.01821649,0.367890716,0.2400704,-0.334385246,-0.0535185672,-0.276099563,-1.07776833,0.36584568,-0.3568152,-0.0702825859,0.542791069,0.167624563,0.196509108,-0.7061774,0.6420204,0.3004131,-0.6380236,0.184682,-0.5312547,-0.349776834,0.476510882,-0.705782056,0.204913184,0.764833748,-0.9723427,0.09861442,-0.246893883,0.435372025,-0.9847575,-1.08065689,0.373174846,0.0656816661,1.00534987,-1.02542543,-0.4450065,-0.0904034451,-0.80170697,0.720029533,-0.548059642,0.157317236,-0.546422,0.3983226,0.2874821,0.250766069,0.9526344,0.3799681,0.424342722,-0.7759414,-0.815016448,0.101923153,-0.18112433,-0.699572146,0.266667664,0.691591263,0.0442824252,0.549886048,-0.8809888,0.5763527,-0.6984296,0.8089257,0.8676888,-0.4516929,0.187618136,-0.329275519,0.380529732,-0.324099481,0.297618061,0.225089356,0.348775655,-0.285685033,0.159021974,-0.383926332,-0.468670219,0.375603557,-0.7087302,-0.944104,0.121014871,-0.858631849,0.7727324,-0.148716077,0.7892013,-0.432813585,0.368094534,0.015739901,0.013560012,0.0734947,0.7385279,-0.686273336,-0.297922164,0.0124107152,-0.103894889,-0.255794078,0.2515568,-0.200459033,0.2876358,0.80041,-0.8421381,-0.4773839,0.703915358,0.4234737,0.9514627,-0.8599463,-0.178229928,0.3235221,0.9519618,-0.7491559,0.752309859,1.03262269,0.2886727,0.08180747,-0.5502181,0.932577252,0.8351209,0.5842488,0.927124858,0.203346759],[0.275486678,-0.569773853,0.7287196,-0.670408547,-0.28257373,0.145557076,-0.360814452,-0.7110657,0.947334766,-0.38573122,0.444599748,0.886311,-0.818434954,-0.558024347,1.03787494,-0.2949123,-0.48148495,-0.553948641,0.0247036628,0.696485162,0.732990563,1.03394532,0.104448676,-0.0878833,0.378731728,0.925595045,0.08318862,0.7281347,-0.114942446,0.1599487,-0.0176241379,0.712884545,-0.227159858,-0.8928596,-0.240570575,0.8229478,-0.05941586,0.5105213,-0.14285703,-0.09075788,0.705521,-0.263623774,0.6282485,0.540621,-0.0211322214,1.00335848,0.9496924,-0.01498553,0.285828978,0.9677047,0.6434073,0.5663864,-0.26668328,-0.5934012,0.6485178,0.310567826,0.295968533,-0.130351663,-0.0259389915,-0.171321079,1.03673053,-0.101599433,0.5684189,0.002366713,0.6206925,0.6964403,0.09867441,0.9813617,0.6460568,-0.8459922,0.732966363,-0.0123105356,0.5846538,-0.8722456,0.986026168,0.05682178,-0.539868,0.5606658,0.879658759,0.404361933,0.9956921,-0.886844456,-0.505414546,-0.141276911,0.452084422,0.424606264,-0.0431975052,-0.5952314,-0.463013381,0.5321101,-0.432443261,-0.9319951,-0.4430669,-0.9244719,-0.110231176,-0.143733829,0.250578254,-0.3057911,0.8936241,0.277742833,-0.06884408,0.954400361,0.321824044,0.09601006,-0.841707349,-0.398581922,0.925470233,-0.3481061,-0.5542231,-0.358305,-0.155509919,0.783050656,0.132676646,0.76494354,-0.0375689343,1.05198121,-0.4438809,-0.0864209458,0.6532337,-0.6065037,-0.0456192233,-0.08549996,0.6799898,-0.6489322,0.727877259,0.853139,-0.400958478,0.620996833,0.203107744,0.1368393,0.803150058,0.786390662,0.687033,-0.388137847,-0.458282739,-0.931410551,-0.190340281,0.390829444,-0.267052948,-0.10748373,0.5190181,-0.680351734,-0.9763985,0.990119338,-0.171791375,-0.0477190576,0.233133718,0.136887923,0.4701592,0.153284833,-0.3253694,-0.302015,0.311717719,0.8071655,-0.3041663,-0.710682869,-0.3163357,0.329631835,0.650118,-0.484727442,-0.747447968,-0.486822337,0.5214461,0.272605032,-0.127729446,0.1371614,-0.8265306,-0.5580909,0.07289482,-0.174575761,0.279362142,0.08674402,1.012165,-0.29350394,-0.17962952,-0.445757776,-0.2872359,0.4677018,0.407856852,-0.222870648,-0.360876769,0.3856251,-0.7974486,-0.7537107,-0.333970666,0.286578119,-0.3377257,-0.9545576,-0.878581,-0.576486647,0.622432,0.6546632,1.01738381,-0.53938055,-0.16134268,0.153579473,0.05077388,-0.05378168,0.3767664,0.8081274,-0.0438788868,-0.10656108,-0.7572831,-0.227057576,1.11158729,0.6921874,-0.217443213,-0.3152321,-0.016264461,-0.882410347,0.467200428,0.0209161378,0.785558343,-0.243935049,0.8251413,-0.203823209,-0.745781839,0.222612813,-0.403828681,0.5023593,-0.590970159,-0.9652338,-0.7483275,-0.4205134,0.127444223,0.498297155,0.08985393,0.5891445,0.8902049,0.6054349,0.542498648,0.8961281,-0.757179737,0.6680134,0.9875506,0.8309782,0.296767473,0.525444865,-0.6682346,0.06842398,-0.42090562,1.00191319,0.0673451647,0.983042538,-0.0303165261,-0.388843834,0.896251142,0.139647171,-0.465527683,0.9855436,-0.09470819,0.729183555,-0.7568785,0.784583449,0.3766645,-0.212934986],[-0.269427657,0.3576501,0.493668526,-0.3432322,-0.327107668,0.2734294,0.2325979,0.365814269,0.0348309353,0.810465157,-0.195318162,-0.9904274,-0.574079,-0.8952086,1.15895164,-0.232279062,-0.280014843,0.484939784,-0.244434729,-0.5594969,-1.060546,-0.732878566,0.624775767,-0.2765851,1.01740038,0.604436159,-0.118995279,1.05744314,0.0392087735,0.975674748,1.30604494,-0.20136182,-0.7364792,0.469359815,0.499052346,0.7135638,1.575521,1.04307663,-0.323903769,0.410275042,-0.463386774,0.4256532,0.149208412,-0.280659825,0.32585302,0.9818049,-0.990886748,-1.07196045,-0.7398038,-0.547084,-0.234218612,-0.928803265,-0.4160803,-0.4433291,0.7504148,-0.5434144,0.7972482,-0.461715579,0.275366753,-0.3944109,1.88937974,0.9099659,0.0362064466,-0.336302429,0.7648764,-0.472654432,0.9122986,0.432059526,-0.06330727,0.712711,-0.02334529,-0.0289443787,-0.127784044,-0.40921858,0.01346905,0.706125259,-0.8343816,-1.73411381,-0.495674,1.250437,0.570061147,-0.322964847,0.5178652,-0.317565024,0.176281482,0.004215545,0.6239631,0.4357289,0.513624132,0.0520067662,0.9887087,-0.120352715,-0.007003911,-1.03323877,0.563297033,-0.7646687,0.3476346,-0.182098508,-0.320662856,0.0277992748,0.6034695,-0.103353925,1.00633192,-0.185141921,-0.251330256,1.01969266,0.0371875167,-0.280608624,1.92266417,0.6901901,0.8330584,0.8919508,-0.5815828,-0.0252721421,-0.3863037,0.0430589765,0.6677161,-1.12652481,0.6638364,-0.505567431,-0.6948511,-1.52730858,-0.179087341,1.17737186,0.5740739,0.431997418,0.0464980677,0.418358564,0.8282129,-0.0609277934,-0.5772273,-0.7884459,-0.101625331,0.328529447,0.8997978,-0.169496566,-0.132198915,-0.187412649,0.3152512,0.432642579,0.3614472,-0.7574181,0.6968172,-0.0198875275,0.519811332,-0.888238847,-0.182862878,-1.00560153,-0.9143805,-1.52869391,0.2749761,0.119182147,0.5043227,-0.6104541,-0.282205135,0.7194875,-0.6001764,-1.19996083,-0.259651572,0.4795417,0.7069737,0.15173474,0.579221845,-0.159766838,-0.7133988,0.7168666,-0.322473735,-0.3981428,-0.141283557,-0.6145987,-0.534543633,-0.767303348,-0.7208984,-0.3817903,0.9358732,-0.6565129,-0.1751919,0.119009584,0.780243,0.5670347,0.07712405,-0.9390196,0.8505605,0.6217195,-0.932581544,0.932403862,0.371069759,-0.926546,-0.139791965,0.212805912,-0.5320584,-0.5691126,0.830051959,-0.0247349571,0.194849014,-0.486039579,-0.99887234,-0.7082667,0.170369551,-0.3002542,0.653570235,0.372015417,0.180997387,-0.0747272745,-0.442810744,-1.64761066,-0.875400066,0.17171374,-0.0137532037,-0.784552932,-0.1637827,0.5845836,-0.797187448,0.464817882,-0.9189925,0.6927954,-0.04393013,0.619662166,-0.322415143,-0.423769265,-0.974042654,-0.6219023,-0.796435833,-0.305593431,0.6271769,0.4395817,-0.19438085,-0.114804432,-0.112301432,0.3349937,0.577809155,0.816514,-0.454152465,0.470250964,0.8344413,0.934121251,0.537899435,0.798923254,-0.536582649,0.87405,0.267274469,-0.620514333,0.30689472,-0.480096817,1.05725062,-0.105357423,-0.5504973,-0.379226536,0.656628847,-0.9148507,0.603018045,0.2618636,-0.754235566,-0.521218657,-0.470389545,0.334048122],[0.488385379,-0.658925354,0.0773934945,0.847738445,0.5673661,0.455276638,-0.4988642,0.9327609,-0.3903814,0.07872329,0.599729836,-0.07564843,0.887051165,-0.409587234,-0.281599879,-0.9006652,0.453935117,-0.205867082,0.380865633,0.910633445,0.09357435,0.6880267,0.1713637,0.411053449,0.2869121,-0.6518878,0.0610869639,-0.5202308,0.8315641,-0.368285984,0.587617636,0.743403554,-0.4030003,-0.6893288,-0.738929152,-0.0717232451,0.9103022,-0.573987365,-0.586721241,0.81153506,0.6055776,0.3570909,0.8534345,-0.564857662,0.103647754,0.648385,-0.277607977,0.462853581,0.481353223,0.5799971,0.7912942,0.5260973,0.05051427,-0.2822492,-0.670881569,0.8375846,0.19724156,0.7491944,-0.302478671,0.311339051,-0.3914073,-0.783709645,-0.445174575,-0.6357529,0.7617321,0.9734881,-0.632473469,0.615484953,-0.6390152,0.7839412,-0.6462716,0.166055724,-0.518245637,0.6615925,-0.6335357,0.7100415,0.8448705,-0.378054768,-0.7778884,0.6365061,0.6618814,0.549189448,0.0153974388,-0.974556148,-0.371626824,0.934951067,-0.401329964,0.9556093,-0.9931851,-0.551933646,0.6940089,-0.7394888,0.782413,0.170613974,0.344787717,0.5221366,-0.039462205,0.7590377,-0.119041592,0.209360048,0.3796633,0.0715144649,0.2013253,0.62749356,0.362440974,-0.330240816,0.08713726,0.4847518,-0.485677332,-0.314502954,1.05205119,-0.391833752,0.481293947,0.06211896,0.631467462,-0.06290277,0.221114263,-0.5802094,0.635651,0.819833755,0.324695,-0.6619449,0.6604437,0.873788953,-0.7868361,1.031232,0.357124329,0.3193868,-0.725322545,-0.2297033,-0.202405423,-0.83328867,0.867085159,0.178662747,-0.7752267,-0.448911577,-0.601831138,0.3504185,-0.296399,0.9702997,-0.1093922,0.144572541,0.518937349,0.5230105,-0.4261914,0.206401944,0.0250415187,-0.138442159,0.6375458,-0.5791445,-0.507006764,-0.403733671,-0.843648,0.0172800552,0.897713065,0.1735119,0.7013261,0.3623025,0.6520723,0.469566,0.343152583,0.807872951,0.253559053,0.7290989,0.7687682,0.81351614,-0.367314339,-0.8638939,-0.231014922,0.04547452,-0.469767332,0.7715961,0.744551957,0.661005,-0.05729466,-0.6950077,-0.233468741,1.03125,0.327871442,-0.0402863622,-0.07295328,-0.497424543,0.737962961,0.894839048,-0.618944943,-0.7311145,-0.9048148,-0.177574977,0.310636252,0.126214609,0.0003486223,0.0288424026,0.838320434,0.384217471,-0.307839274,0.129917011,0.993894,0.882036865,0.941804,-0.157794327,-0.391034156,-0.06457189,-0.78343,-0.367076129,0.9047384,-0.2904025,-0.08200023,-0.49596414,-0.8032255,0.70142585,-0.5989121,0.6180744,-0.909662068,-0.302403629,-0.506494462,-0.139499664,-0.943768859,0.300955027,0.327781081,0.496457875,0.6577078,0.8431318,-0.194403008,0.637005568,-0.8722214,0.5447847,1.00810444,-0.5519741,0.0468107536,0.798827648,-0.7100617,-0.10294009,-0.6841601,-0.429786235,-0.5869657,-0.949836969,-0.6172658,0.131159365,-0.9398711,0.6584985,0.3168282,0.612435937,-0.352545,0.6385904,-0.315095663,0.3467591,-0.04550313,0.101818718,-0.2370322,0.7737575,0.112306535,-0.3234701,-0.422476649,-0.647778869,0.223239064,-0.270776331],[-1.01889122,-0.614117861,-0.596507549,-0.7637588,-0.409772426,-0.59390974,0.417788744,-0.5930022,0.324890077,0.419725448,0.272548348,0.593460858,-0.7401145,-0.716339648,-0.6046595,-0.0939867049,0.1633904,0.5999594,-0.9489455,-1.0462122,-0.152384669,-0.11884395,-0.130368724,-0.3510789,-0.7707463,-0.384719759,0.3786993,0.128886715,-0.546706736,0.3763094,-0.838384151,0.7278742,0.23251155,0.5920316,0.9316699,0.814902246,-0.481183767,0.66269964,-0.105062447,-0.172801167,-0.9666997,-0.941962361,-0.9029909,0.07701723,0.6174399,0.114483863,-0.327736646,-0.850965142,0.168559611,-0.9871513,0.167948321,-0.39744705,-0.989870965,-0.07286688,0.333724737,-0.3264646,0.480635256,0.5745855,0.5330151,0.6391497,-0.204088792,-0.755659163,0.6984796,0.6773209,0.08951822,0.435962945,-0.716374755,-0.3823021,-0.6178055,-0.4150924,-0.7369197,0.458489478,-0.277945876,0.296002865,0.8338815,0.06650128,0.08343099,0.639953732,-0.33462432,0.255521238,-0.8269105,0.2563182,0.944527,-0.518695652,-0.8703279,0.52226764,0.768059969,-0.7779491,-0.8311761,0.127043292,-0.6761457,-0.1617848,0.9821311,0.118428878,0.9650688,0.7612554,-0.787007868,-0.9269034,-1.05230713,-0.638873935,-0.0347650349,-0.9899805,0.92070353,-0.3996068,0.481783956,0.537357748,-0.9372531,-0.217777938,-0.06830157,-0.752889633,0.6555115,0.6509502,-0.218526557,-0.8602547,0.36918202,0.358306766,-0.9763145,0.0675666,0.3652233,0.3602094,0.472635746,-1.10171413,-0.816068,0.1927394,-0.771199048,0.0584959425,0.21448651,0.5532823,0.3282289,-0.788434446,-0.195235446,-0.101979822,0.7021212,-0.5686695,-0.725621343,-0.834980667,0.3342887,0.332680255,-0.357145131,-0.697971165,0.39826858,-0.06084815,0.133794308,0.80587554,0.2837733,-0.518025458,0.8023666,0.413502127,0.277641237,-0.7921488,0.365362972,-0.110153571,-0.747316241,-0.71833545,-0.495667458,-0.141453832,0.396256149,-0.5339706,-0.831026852,-0.6867073,-0.7317349,-0.5651095,0.405650735,-0.183983311,0.486462921,-0.197115,-0.972135842,-0.5554006,-0.9029846,0.2955838,-0.7534923,-0.105098031,-0.501005,0.2873287,-0.9349079,-0.3362345,-0.114566684,-0.403312653,0.8162032,0.6938862,0.523572,-1.00260758,-0.91147536,-0.03703601,-0.394995481,0.7111945,-0.5896777,0.200717434,0.6232559,0.321492821,-0.376818836,-0.304621279,-0.06764123,-0.845483661,0.8330386,-0.11709699,0.235505432,-0.8487365,-0.8401624,-0.5755241,-0.741475046,0.214014545,0.2338513,-0.988441646,-1.081281,-0.7395336,-0.8237772,-0.08017746,-0.7471952,0.8280472,0.910816252,-0.210980058,-0.367552668,-0.473296523,-0.221389458,-0.7296819,-0.642990768,-0.5233192,-0.8962862,0.699521363,-0.626657,-0.227186218,-0.310464233,-0.19893533,-0.4083618,0.346590668,0.898893,-0.615816236,0.295947254,0.108413495,0.2599317,-0.3159296,-0.60429287,0.474404663,0.2755408,-0.8188307,-0.4377046,-0.963038445,-0.08576613,-0.6726037,0.60449326,0.556384563,0.008923243,0.937647164,0.418910682,0.859209538,-0.9328468,-0.5297598,0.46565327,0.672700942,-0.478402019,-0.04315875,-0.957348049,-0.525353432,-0.9776573,0.682870269],[-0.327538043,-0.4472357,0.360717535,-0.3564403,-0.474220127,1.12308693,0.490130216,-0.148445323,-0.19990769,0.523810148,-0.6199902,-0.354356647,-0.329495043,-0.224450961,0.57980907,-0.8675398,0.8587016,1.26014936,-0.8632805,0.128984839,-0.169293076,-0.877208531,0.6278134,0.03636917,0.373624623,0.224863335,-0.254622817,0.6484527,-1.38999116,-1.28334379,-0.3867479,0.7482588,0.455808043,0.8981654,0.5349678,-0.663267851,0.6653197,-0.0160726923,1.15013921,1.0853,-0.720301449,-0.589834,0.5457191,-0.8272671,0.830919445,0.459574044,0.4706332,-0.326970458,-0.45373556,-0.222128,0.529510736,-0.687223554,-0.5841069,0.244792163,1.27892268,0.7631351,0.326032341,-1.17132258,0.139250562,0.7947831,0.6069019,1.07042968,-0.228117347,-0.615547,-0.6634904,-0.567571461,0.9523603,0.6647894,0.3211396,0.3617731,0.659346,0.08835891,0.658515155,-0.8657126,-0.427576184,0.937797368,0.08157298,0.06576258,0.296000332,-0.38046816,-0.713137567,0.936733246,0.5475148,-0.615315735,-0.108079821,-0.853674769,0.4268903,-0.759121239,0.663271964,0.540427446,0.12108206,-0.27028808,0.197761819,-0.08606103,-0.18703644,-0.431884736,1.18581688,0.607375562,0.265809834,0.09629094,0.443357259,0.806184053,1.22199106,0.032665275,0.0211012159,-1.09940922,-0.3922345,-0.940985739,-0.4398967,-0.9897899,-0.711885452,-1.29982376,-0.3907141,-1.05758154,-0.04730799,0.426713973,-0.9259942,1.1681056,0.016248554,-0.9884219,-0.8723341,0.00761778839,-0.786702335,0.431901246,-0.5062219,0.0506421179,1.151353,0.0903879851,0.4891231,-0.8296867,0.9638029,0.9486919,0.508044362,-0.7148524,0.198578492,-0.362635761,-0.8297693,-0.253920525,0.36304,-0.34697783,0.794690251,0.327577,0.5914504,0.368113,-0.156145021,0.208841264,0.5814485,-0.4667863,-1.35645461,0.366779476,-0.367964923,0.6874212,-0.780115,0.457618773,-0.505168736,0.711000264,-0.3142567,-0.546758831,-0.0283276234,-0.726038635,-0.592484534,0.5751273,-0.235065714,-0.293693721,-0.414551884,0.08853074,0.0326429568,-0.189723775,0.9834896,-0.09360509,-0.110713914,0.0525267348,-0.8776984,-0.145518139,-0.159196109,0.4426221,1.06743026,-0.0215584375,-0.125509575,0.6118488,-0.320455045,0.5130538,-0.1844434,0.7810052,1.02210963,-0.409764141,0.9169227,-0.750524342,-0.755553067,0.572090745,-0.0103456732,0.5884662,-0.892375648,0.10292241,-0.7688366,-0.811378241,-0.8267318,-0.128668919,0.5863471,0.929227352,-0.0734614953,0.933962166,0.947457,0.922511339,-0.9551317,0.10476242,0.452672273,0.2818634,-0.6110404,-0.4773406,0.946782649,-0.270573527,0.457546771,0.379829168,0.5371502,0.302310079,-0.3641199,-0.0221480951,-0.29197982,-0.76045984,-0.033396516,-0.457086653,-0.452108681,-0.8707796,-0.3395261,-0.09406901,0.537181556,0.8423729,-0.318805367,-0.0454465449,0.0519111864,-0.1899948,0.5650485,0.151546955,0.07304614,0.551955044,1.21087706,0.0789548159,-0.358368,-0.3907982,-0.050208848,-0.447327673,0.7754199,0.710934,0.903178,-0.198089331,-0.318637848,-0.0488335565,0.4742118,-0.143711314,0.618133366,0.6195543,-0.419128448,-0.25782454,-0.2365195,0.489559561],[-0.381465554,0.05834185,-0.1636707,0.9176574,0.756649554,0.9562743,0.06685725,0.5694108,0.653836846,0.134592876,-0.338331848,-0.6346942,-1.36726189,0.834088445,0.403613269,0.931474268,-1.21419752,0.4417246,0.362237751,0.404133618,-0.5685251,-0.648094237,-0.135723189,-0.180003569,-0.548731148,-0.6978485,-0.993638337,0.372520477,0.8655452,0.899376035,-0.659196,-0.435238421,0.752280951,0.748830557,0.419038057,0.2084461,-0.409289658,-0.291869581,0.103424072,0.9469556,0.188470617,-0.811683357,-0.33716476,-0.94352293,0.6326839,0.514753163,-0.4982047,0.440641522,0.290189475,0.09719127,-0.09422461,-0.629773736,0.232282639,-0.470532447,0.413198173,0.6749231,-0.816321552,-1.40618277,0.206909612,-0.185507044,1.49425066,0.950227857,-0.166508988,-1.1724124,0.0311589073,-0.495118082,-0.326968849,-0.3714743,0.151423067,0.341235816,0.36574173,0.3751344,0.105366573,-0.582140446,-0.182713047,0.0287001319,-0.3523665,-0.5989322,-0.08394899,-0.06464115,-0.7418391,-0.458336979,-0.9799969,0.274351418,0.996226251,0.7744369,0.5195618,0.7056586,-0.1779077,0.394748837,-0.60477823,0.8325608,0.643132269,-0.9511455,0.634387732,-0.9041457,0.736790538,-1.28446043,-0.135195464,0.5763265,0.194873333,0.9693214,0.716957569,0.649887741,-0.5751695,0.5718725,0.1778902,-0.5086447,1.21112192,-0.358547479,0.1562398,0.963464737,-0.33285898,-0.1978143,0.352447748,-0.181360766,0.5119617,0.527742267,-1.99076879,-0.246573016,-1.32474124,-1.46326673,0.703145862,0.6980705,-1.20935309,0.37871635,1.16322029,0.51929307,-0.414636731,-0.06869943,0.220085666,-0.225693345,0.321162641,0.8460885,0.526863933,-0.507894337,0.835340738,0.199915811,-0.05043145,1.014489,-0.3905607,-0.47653532,-0.827857852,-0.3763977,-0.4628283,-0.5335576,-0.6260079,0.0431625172,0.3332554,-0.6371129,-0.5878475,-1.0376991,1.21894276,-0.4082026,0.178329155,-0.469160765,0.9700183,0.418134362,-0.691580534,-0.43100372,-0.968866348,-0.66187185,-0.4474823,-0.137216508,0.0766267,-0.7594466,-0.143158332,0.575251162,-0.0409384072,-0.371666044,0.184172243,-1.05864573,-0.721834838,-1.39507842,-0.298600882,-0.482863456,-0.323355764,-0.172504246,0.009667906,1.10428262,-0.354523838,-0.234404489,0.715705931,1.30322576,-0.3711955,0.38862586,-0.4319696,-0.226499647,-0.111328796,0.134964868,-0.2669086,-0.5371632,-0.256001621,-0.8039086,0.5917997,0.8686553,-1.01315677,0.673141062,1.00819123,-0.170410678,-0.427612752,0.8240316,1.18047023,0.4082117,0.204322025,-0.6482266,0.5003744,0.878299654,0.6203702,-0.1667218,0.4246135,-0.2516388,-0.602179348,-0.123172894,0.494818836,0.266582221,-0.2215822,-0.441903144,-0.9507689,0.6806105,0.291509569,0.198077977,-0.7467807,0.936417758,0.475951076,-0.19678323,0.9692192,-0.6892158,-1.24412537,-0.913981,0.925281048,0.310948581,0.107203215,-0.567059159,0.465607971,0.691998,0.03642437,0.03694576,-0.6351996,1.02740717,0.468628615,-0.109583005,0.5940626,-0.6664141,1.26641071,0.9445209,-0.7662077,1.34973431,-0.128681511,-0.323635668,0.3445519,0.516112745,0.6032071,-1.03586161,0.147249848,0.142297849],[0.0764872655,0.5418886,0.144537434,0.324170649,-0.150741145,0.474697679,1.00689936,-0.06900233,0.09471499,-0.7461536,0.05871277,0.629483163,0.220942125,1.13485062,-0.632232249,-0.8825997,-2.05831432,-2.31648,-1.65189385,-1.54418254,-0.148108229,-0.7042223,-0.108726881,-0.477248073,0.08780344,1.34423923,0.6449722,0.8167415,-0.0390104428,-0.757024467,0.926583946,-0.07824505,-0.305657983,-1.10965633,-0.818251133,0.299803,0.236114234,0.0187841654,-0.161846444,-0.51217556,-0.08991223,-0.3500137,0.173755676,0.102025181,-0.25097096,-0.688877,-0.145677865,0.4194263,-0.5413887,-0.6247442,-2.033602,-1.09155667,0.6304473,-0.639400661,-0.06572013,0.09531035,0.298562944,0.3042495,0.150791451,1.62484264,-1.06388855,-1.36954165,0.3389404,-0.926501,0.1185173,1.49904358,0.779142439,1.19751441,0.850116134,0.816472948,-0.280961275,0.09247108,0.2702,0.7414858,0.225700065,-0.4402772,0.119120307,0.258067071,0.712654769,-0.471948445,0.454607844,-0.635491967,0.371703655,-0.551781237,0.221948668,0.840306759,0.376723647,-0.5039836,-0.42411688,0.153197125,0.3908721,-0.389824539,-0.517152846,0.958478034,0.866338,0.238373384,-0.6106557,-1.59281635,-1.62385261,-0.5595912,-0.46590063,-0.906354547,0.231759518,-0.204370618,-0.23737818,0.371321261,0.6745133,-0.37733084,0.540131748,-0.584586143,-0.5075591,-0.567885339,-0.181923,-1.05194986,1.08393228,1.43761623,0.5067919,0.5598628,0.0799788758,-0.198358163,-0.4012868,-0.870171249,0.246857122,-0.6010918,0.653558433,0.9104472,-0.808208346,-0.2664597,-0.9883094,0.948726356,0.9132402,0.7743429,-0.741405666,0.178706676,-0.025665218,-0.319218665,-0.1791084,-0.7472105,0.768520534,0.6382766,0.197306022,0.40174076,-0.128833726,-0.680395,0.264583647,-0.2862292,0.223673433,-1.39582908,-0.6779572,0.87565273,-0.48229,-0.8202887,-0.153230518,0.9114061,0.7559158,0.143733934,0.739601552,0.160204664,0.986682355,-0.2596629,-0.1673052,0.273356736,0.714469135,1.23264527,-0.9995522,-0.7182913,-0.571117759,-1.13635874,0.3097102,0.322586864,-0.305409431,-0.822201669,0.6242671,0.198076665,0.7756363,0.278517425,0.054721456,-0.7569993,0.006234488,0.3253408,-0.7458062,-0.9383643,0.040877454,-0.861310065,0.293497443,0.4967082,0.505751,-0.13287738,0.344831079,0.5864624,-0.3813038,0.7081266,0.0423636623,0.4231162,0.7847778,0.601406634,-0.273744881,-0.5630077,0.9525406,-0.6809371,-0.342045724,0.46348986,-0.19986175,-0.3891043,-0.372092932,-0.104605719,0.429616183,-0.256846756,0.6945466,-0.239540473,-0.9565813,0.370340079,0.5675099,-0.958058238,-0.9655849,-0.691233754,-0.7451375,0.832259834,-0.794471443,-0.42440775,-0.023318449,0.793899536,-0.14369373,0.466404557,-1.19307184,0.157187879,0.7390559,-0.129836723,-1.059668,-1.41726422,1.11007476,-0.5489562,-1.1254884,0.180980057,0.0107081756,0.250150472,0.605439067,-0.6108144,0.299021,0.521891356,-0.332794577,-0.2652465,-0.0340956263,-0.5312551,0.4616318,0.273686945,-0.9151813,-0.06760094,-0.2795058,-0.308956653,0.718004048,0.2884152,0.181550428,0.5111521,0.60078156,-0.772492647],[-0.8341783,0.6201502,-0.371593356,0.484738976,-0.358594477,-0.564964533,-0.848181367,0.57064414,0.154527083,1.03636253,-0.126517266,-0.6777909,-0.230594948,-0.5617422,-0.198322,-1.08158994,-0.270561755,0.0070370594,0.491905183,-1.13387907,0.0637033656,-0.5816644,0.705422461,-0.2677291,0.616897762,-0.112551063,0.180425465,-0.7219392,-0.624351859,-0.9957054,-0.0270713717,-0.05108828,1.03187239,-0.06879786,0.307550341,0.7856114,0.128336251,0.386295378,-0.148003116,-0.7212862,-0.517286062,0.356304854,0.309299439,0.5403728,-0.2770816,0.8609466,-0.8654217,-0.450898916,0.3878856,0.5177725,0.251207322,-0.8809091,0.7721497,0.2768366,0.6108117,1.02250719,0.731660664,0.460418016,-0.988718748,0.4736808,0.4000156,-0.697656631,0.15124011,-0.391388029,-0.1942499,0.4022617,-0.7423537,0.5791457,0.125832856,0.037532758,-0.596684754,-0.249982953,0.5991817,0.07126219,0.6000441,0.274627447,-0.322142929,-0.8889898,-0.6073355,0.337987751,-0.5902635,-0.350570083,-0.5549029,0.0103156688,0.137953147,-0.206844121,0.5129958,-0.267348349,0.6473652,0.451992065,0.9861675,0.7511475,0.329454422,0.112982489,0.0232178532,-0.523074269,-1.05208433,-0.472916752,-0.3093488,0.142602772,0.200152323,-0.64799726,0.603223,-0.465342432,0.231951773,-0.4294276,-0.76418674,-0.590109766,0.795694232,-0.8520114,0.122906595,0.780621231,0.7260232,0.233964786,0.0173744652,-0.6867213,0.5262897,-1.27939308,0.713536561,-1.00673616,0.3957884,0.299979448,-0.892275453,0.3297381,-0.220140874,-0.565976739,0.3163143,-0.5643946,-0.9031439,-0.0285398252,0.187727109,-0.7425246,0.2424449,-0.174042314,-0.962317765,-0.8356365,0.135543838,0.849177837,0.928299367,-0.06605366,-0.744026542,-0.0622564442,0.0249953382,0.490414381,-0.827006,-0.9534993,-1.29267049,-0.8139671,0.6156909,-0.6342626,-0.2825531,-1.14660466,-0.121159673,-0.279497445,0.235305309,0.7016562,-1.14143634,1.00687051,0.658619463,-0.7569626,-0.505982637,0.7488833,-0.5594358,-0.335017622,-0.3057101,-0.3694746,-0.6151246,-0.296731144,-0.143317655,0.133488148,0.3998504,0.6831492,-0.9837647,-0.009473022,0.7993572,-0.18565619,-0.452062637,-0.421500146,0.270456642,-0.09282455,-0.492616951,0.332122475,0.0519288,0.5210264,-0.7740839,0.236080647,0.53301686,-0.615634561,0.5191061,-0.6190818,-0.856895149,0.182396144,-1.10705245,0.19009091,-1.17995894,-0.746201,-0.464299977,-0.925550044,-0.600874245,0.37334004,0.7302725,-0.05204018,0.06335726,-0.6552887,-0.140419811,0.0771595538,0.57448256,0.8421486,-0.005520955,-0.6610577,-0.000340395782,0.352943182,-0.230841562,-0.166142061,0.6837087,0.3710952,-0.132576466,-0.0214515664,-0.390653044,0.7103089,0.330548227,-0.9655953,0.408175379,-0.368855119,0.4968207,-0.486735225,0.574466646,-0.347562045,-0.813284457,0.19481869,-0.392392933,-0.5952156,-0.990423739,0.6575037,0.124601439,0.5050294,0.807136834,-0.4945385,-0.368907481,0.0490507931,0.310122758,0.561242461,0.42781806,0.130495235,0.2087335,-0.402428418,-0.6764987,0.315578431,0.980604,-0.0973160937,0.443916023,0.248097375,0.967585564,0.1382863,-0.9623918,0.6735547],[0.307046533,-0.5128528,0.00355511438,-0.1105386,0.8091997,0.248586178,0.118091255,0.8375564,0.876125753,-0.7414884,0.264767468,0.07056787,0.634121,-1.65030468,0.5651463,-0.5036633,-0.772510648,0.184118226,-0.4770054,1.51067448,0.529698253,0.416035682,1.46990466,-0.114358731,1.18736744,-0.275497884,-0.708170533,-0.319352984,1.64250565,0.795308769,-1.27398479,-1.392906,0.4502737,-0.0289893616,0.416542143,0.3057557,0.295770675,0.382245421,0.308377147,-0.8955417,-0.7310442,0.857555032,0.8409704,-0.1160572,0.0277308188,0.198506564,0.299662322,0.4105221,0.8212533,0.417206466,0.7354782,0.0753773749,-0.638626933,-0.345807016,0.350940943,0.8877718,0.0270797126,-1.12397933,-0.477759421,0.876887441,0.2866016,1.02031028,0.00737121655,-1.11780429,0.498883843,-0.7380012,0.21921508,-0.500147462,-0.4861604,-0.420540333,-0.6760547,-0.908193052,-0.506259441,-0.9557486,-0.153635249,-0.4976702,-0.102035239,-0.8310123,0.1370955,-0.34525153,-0.469921976,-0.137664482,-0.9804326,-0.347662419,-0.5670609,-0.181246266,-0.341448277,0.04706668,-0.498370022,-0.6248095,0.7785743,-0.214303449,0.252096444,-0.9372851,0.481315464,-0.6865511,-0.966629,-0.0299061574,0.342211246,1.05049467,0.126323074,0.3831257,0.7912819,0.4858521,0.0261787958,0.387989432,0.06394308,-0.5562988,0.187432423,-0.2508942,-0.8135778,-1.11155677,1.009491,-0.4167731,0.200942874,1.46522093,1.21668851,0.209861591,-0.905244052,0.91698426,0.209589988,0.113592073,-0.1576701,-0.5288997,-0.4071304,0.596207559,1.51994669,1.11906159,-0.325628728,-0.08414181,-0.4619385,0.6189549,0.60860157,0.629066944,-0.0156586468,0.210571,0.512961864,-0.0149786882,0.944398642,0.6144343,-0.340351075,-0.577960432,0.925756,0.950823247,0.8733574,-0.5951829,-0.67433244,0.164514974,1.42958951,1.64312,-0.6960274,0.142878756,0.697785139,0.906817257,0.8407614,0.0359994,0.4943401,-0.233889908,-0.7114327,-0.344212949,0.3677673,-1.37211752,0.08453465,-0.716560245,1.0048095,-0.226165831,0.2960332,1.0011524,0.402396619,0.980404735,-0.611610651,0.07215159,-0.103146583,-0.6333228,-0.5616173,0.7361769,-0.6125844,-1.35682642,-0.37926048,0.8583306,-0.296096951,-1.322303,-0.5456605,0.109480128,0.15781711,1.06710052,-0.2824391,0.847105742,0.7500819,0.7766623,0.708462536,-1.05728662,-0.647318065,-0.5146361,-1.599685,-0.858903944,0.8192012,1.47050977,-1.24156773,-0.447260559,1.384882,1.03987753,-0.407101631,0.963306665,1.02085626,0.7631259,1.12242115,-0.569022536,0.374716848,-0.156990126,-0.618673,0.168861032,-0.03758239,-0.128607541,-0.6458725,0.416962236,0.6905855,-0.3024178,0.8379671,-0.5409473,-0.4593389,0.5629438,-0.7876565,0.06556302,0.4759513,-0.990803957,-0.404412746,-0.5573915,-1.201285,-1.18866563,-0.813951433,-0.3865715,-0.5463837,0.2672712,-0.9865987,-0.25206995,1.32935822,-0.144319475,-0.02946058,-0.696582258,0.247557744,0.63971436,-0.6198974,-0.1447516,0.8638926,-0.0805035457,-0.317024618,0.769159734,-0.108309276,0.0260069165,-0.4746446,-0.628813744,-0.841999352,0.5594367,-0.992583334,-1.32800341],[-0.412789077,-0.295627832,0.4488987,0.317526251,0.279890627,0.8057509,-0.7973113,-0.480371475,-0.280731171,0.421536267,0.163766384,-0.280591846,-1.33897245,-0.340791643,0.135762066,-0.5019974,0.8323783,1.037939,0.110368758,-0.6209813,0.0510051,0.251864433,-0.52146405,-0.6231482,0.619629145,-0.452082,-0.0342539623,0.136936456,-1.57421947,-2.86523461,-1.51348865,-0.645763159,0.8552849,-0.7114088,-0.7205024,-0.307599932,0.0720060542,0.468622416,-0.698486447,0.196026444,0.07975432,0.199645624,-0.786618531,0.777691662,0.162510544,0.6021127,-0.6758085,0.5456729,-0.268519551,1.03941023,0.5686219,0.348452359,-0.06714782,0.4654464,-0.3232666,0.7579067,0.84691304,-0.7034269,-0.5967127,-0.6658596,-0.900013149,-0.3743186,0.433797717,-0.9028437,-0.06798731,-0.733644843,-0.0701277852,-1.28144789,-0.151052371,-0.970007,0.86670357,-1.25095689,-0.826093,0.2856501,0.6033053,-1.08036172,-0.0202409811,1.01872885,1.16569781,0.0928005353,-0.8609561,0.700737834,-0.741927147,0.677692,0.654874,-0.865127861,0.809259355,-0.7815522,0.513676167,-0.5514376,0.412297964,0.761719644,-0.535208941,-0.53749,0.175514519,-0.507137537,0.8337133,0.931695461,0.07834795,-0.467508942,-0.5013056,-0.4161788,-0.478996754,-0.960869,0.9633871,0.7174404,-1.102096,-0.08248641,0.116635211,0.554843068,-0.356531233,-1.22882557,-0.214752614,0.293293625,-1.07689059,-1.40219879,-1.62027383,0.956427753,0.09195116,-0.8910814,-1.41369021,-0.4817696,0.03443624,-1.14609385,-0.5381019,-1.64682221,0.258416,-1.58595228,-0.5772994,0.08138584,-0.322384268,0.369965374,-0.5785641,-0.745785356,-0.237140238,-0.7366737,0.06400514,0.648167849,0.8049843,0.0740173459,-0.9951026,-0.1731483,-0.8077163,-0.421506763,0.2979254,0.08321522,0.62093,-0.325023919,-1.39671886,-0.976783,0.65291,0.6148629,-0.00142587873,-0.7958787,-0.4118399,0.052188985,-1.60174644,-1.09397411,0.8087812,0.9008003,-0.5940066,-1.32144821,-0.7442683,-0.437798828,-1.08027709,0.681224644,0.51568085,0.105297431,0.0630566254,0.475442767,0.385446578,-0.1368573,-1.34914148,-0.759867668,-0.379397959,0.921384156,-0.12059027,-0.5862677,-0.683674455,0.6827778,-0.8808668,-0.367163628,0.144331336,-1.11497724,0.09625946,0.168018818,-0.45772773,-1.17014158,-0.694784641,1.497242,0.7276523,-0.4109923,-1.23766768,-1.64191723,-1.9138875,-1.36123359,-0.724579453,0.7672161,-0.1897083,-0.6150493,1.3157196,-0.07576844,0.5998883,-1.10824835,-1.138424,-0.452321678,0.36406672,-0.413212955,0.7689604,-0.725239,0.703334749,0.722103,0.472132981,0.5173193,0.5460866,0.92426914,-0.627538264,-0.53376174,0.392354339,-0.110158332,-0.686001956,0.5169469,0.310465723,0.233515754,-0.7450773,-0.3191101,-0.5463638,0.198952213,0.428874344,-0.3848893,0.411620766,-1.0480125,-1.155947,0.5607355,-1.10542965,0.485628724,0.4470714,0.554857552,0.36020717,0.09552722,0.7406094,-0.6635247,-0.909158766,0.7179307,-0.7872943,1.091874,0.09769108,-0.5129063,0.291466624,-0.320575,0.5913041,0.571671069,0.69879663,0.627553463,-0.418966353,-0.888538],[0.347575426,-0.439469784,-0.811823249,-0.7318544,0.598595142,0.377482861,-0.5717517,0.08764865,-0.209568545,0.5504581,0.5833151,0.3771462,0.308154553,0.8257664,-0.0570380464,-0.271742016,0.363742858,-0.09065093,0.377104461,0.984434,-0.0661031753,-0.035773363,0.259644777,-0.8175211,-0.347938836,-1.15582335,0.4736304,0.7738632,-0.915484,0.162132382,-1.16306019,-0.612920344,0.5119032,1.0079757,-0.22643286,-0.29682076,0.7398876,0.7597903,0.967397749,-0.5183924,1.09541726,0.0788219,0.197243273,-0.705670059,-0.450040758,1.04098165,0.636434853,0.215456232,0.9449531,-0.1825127,-0.127834961,0.5816383,-0.37763837,-0.418628961,0.2366046,0.76775676,0.448969454,0.672774732,0.278958023,1.03097582,-1.04368317,0.0555946,-0.767531157,-0.2627344,0.3865591,0.008736738,0.9105578,0.5473091,0.2675568,-0.5668455,0.835747838,0.889236,-0.3829367,-0.214751408,-0.5834358,-0.7128951,-0.8400099,-0.309273422,0.956635,0.09126758,-0.247976348,-0.344521463,0.930698633,-0.964817047,-0.08114266,-0.311347276,0.934781,0.1314102,-0.06502796,-0.144646391,0.2812868,0.6359439,-0.6765013,-0.8168965,-0.8044536,-0.547918856,-0.138645336,-0.5778735,0.2820662,0.826359332,1.41501439,1.09918547,0.390687048,0.1308387,0.08818923,-0.077604726,0.0176997129,0.8652733,-1.09983754,-0.306175321,0.304144025,-0.5035276,0.3840574,0.395715,-0.307644844,0.4833072,0.22495392,-0.599121,-1.23893809,-0.117428623,0.08383013,-0.201458275,0.215666577,-0.5719549,-0.0735010356,-1.2006768,-0.045151338,-0.8231994,-0.261198223,0.962479949,0.5945422,0.837660253,0.7172459,-0.586610854,0.09589398,-0.309195817,0.199553922,-0.42250964,-0.0458953343,0.5807797,0.5665954,-0.842388868,-0.00143801852,-0.9697793,0.821183562,-0.218267366,0.8150219,-0.6907405,-0.020352345,-0.5580078,0.07658748,-0.9102023,-0.9304701,-0.9324017,-0.666798055,0.06972077,-0.149845541,-0.09717893,-0.6436844,-0.0644094646,-0.8984331,-0.3076949,0.0251552183,-0.7440203,0.12937279,0.7885974,-0.047755342,0.2911211,-0.0141152777,-0.182368457,-0.821853042,-0.09720524,0.487079322,-0.576746762,0.207232028,0.121388264,1.03866,-0.20024462,0.358707756,-0.465854436,-0.503101766,-0.022353394,0.255134761,-0.776720941,-0.139776126,0.314364731,0.274162322,0.411811322,-0.784546554,0.972576439,0.495775074,-0.6141914,-0.288104177,0.9810406,0.5416778,-0.0251009986,0.174834177,-0.170180008,0.07012807,0.45059672,0.4881148,-0.974165142,0.349066,-0.228173748,-0.83118844,-0.726540864,-0.141967282,0.790609539,0.1875081,0.55581975,0.330135971,-0.429309875,0.609706044,0.9193729,-0.118671589,0.225979373,0.346565634,-0.1458298,0.153507531,0.766174138,-0.81938684,0.417481333,0.3380765,-0.0207800753,-0.339195669,-0.76477915,-0.359247059,0.728744149,0.3643578,-0.6282904,0.7035094,-0.0183243472,0.9882045,0.9367625,-0.412791938,0.623371959,0.33196336,-0.731442153,0.719013453,-0.008360436,-0.1819748,0.7021614,